 785 16 16 11
[0.41, 0.67, 0.34, 0, 0.69, 0.24, 0.78, 0.58, 0.62, 0.64, 0.05, 0.45, 0.81, 0.27, 0.61, 0.91, 0.95, 0.42, 0.27, 0.36, 0.91, 0.04, 0.02, 0.53, 0.92, 0.82, 0.21, 0.16, 0.18, 0.95, 0.47, 0.26, 0.71, 0.39743, 0.798253, 0.192474, 0.774062, 1.01721, 0.241515, 0.72794, -0.269181, -0.128353, -0.00518012, 0.141133, 0.668148, 0.483263, 0.293378, 0.0901376, 0.524247, 0.68, 0.47, 0.44, 0.62, 0.57, 0.37, 0.59, 0.23, 0.41, 0.29, 0.78, 0.16, 0.399975, 1.01458, 0.519834, 0.619372, -0.518584, -0.10645, -0.227057, -0.128356, -0.153875, 0.156236, -0.0776863, 0.857055, 0.0776326, 0.47029, 0.458572, 0.0906681, -0.0399525, 0.85415, 0.48848, 0.289951, 0.23, 0.84, 0.54, 0.56, 0.4, 0.66, 0.76, 0.242232, 0.0198942, 0.559651, 0.441976, -0.172042, -0.283093, -0.614755, -0.835608, -0.513668, 0.584357, 0.313605, -0.122158, -0.219522, -0.253348, -0.172595, 0.208124, -0.0996387, 0.263886, 0.460698, -0.0992417, 0.659696, 0.82226, 0.189606, 0.45, 0.24, 0.72, 0.7, 0.313949, 0.786098, 0.778262, 1.28027, 0.648656, 1.40695, 1.04958, 0.756702, 0.277271, 0.76611, 1.16151, 0.904295, 0.507762, -0.0214535, -0.109821, -0.447681, -0.735336, -0.601327, -0.703921, -0.485959, -0.354306, -0.0605273, 0.962896, 0.180406, 0.37, 0.57, 0.872927, 0.531589, 0.880144, 0.65808, 0.560053, 0.886287, 1.79446, 1.65624, 1.37625, 0.697176, 0.788694, 0.500296, 2.37841, 0.524107, 0.772454, 1.32482, 1.25165, 0.928824, 0.0697988, -1.29233, -1.29402, -0.670382, -0.879521, 0.315763, 1.33598, 1.3119, 0.41, 0.02, 0.5, 0.910004, 0.403997, 1.33252, 1.08353, 2.81476, 2.14539, 2.40017, 0.540784, -0.389689, 0.188026, -0.094841, 2.04183, 0.677814, 0.0705179, 0.77765, 1.20978, 0.387657, 0.408692, -0.5692, -2.22873, -1.45021, 0.521748, 0.755926, 0.626715, -0.0363937, 0.212434, 0.1, 0.177334, 0.160995, -0.0190914, 0.608972, 1.8224, 2.11341, 1.2262, 0.202095, -0.587919, 0.161279, -0.874662, -0.702949, 0.370849, 1.86548, 2.09736, 0.495454, -1.45226, 0.294057, 0.0822761, 0.38223, -0.0796749, 0.611029, -0.226653, -0.976044, 0.435057, -0.22701, 0.0883507, 0.48, 0.0187982, 0.588893, 0.177228, 1.33326, 1.80991, 1.5221, 0.510491, 0.712607, 0.458303, -0.459143, -1.17208, -0.598427, -0.264419, -0.0560123, 0.931994, 0.0467729, -0.912739, 0.665581, 0.69488, -0.215239, -1.26761, -0.0224629, 0.0131438, -2.12947, -1.86228, -1.30862, 0.0928856, 0.717282, 0.578656, 0.243357, 0.438833, 0.999018, 1.72481, 1.30697, 0.492038, 0.757514, -0.784222, -1.32206, -0.430868, 0.279337, 0.686622, -0.526928, 1.92984, 1.40222, 2.45994, 1.7216, 0.176311, -0.851364, -1.15506, -0.123781, -1.35045, -3.60823, -2.95818, -0.667691, 0.708912, 0.605444, 0.883437, 0.00101176, 0.935663, 0.961368, 1.00174, -0.439376, 0.0865699, 0.827555, -0.898623, -1.02083, -0.780388, -0.928137, -2.21038, -0.797621, 1.71475, 2.11197, 2.83922, 1.57645, 0.708828, 1.06774, 0.73628, 1.55284, 1.69054, -0.516688, -0.957016, 0.0906477, 0.522981, 0.409295, 0.128904, 0.465884, 0.639911, 0.568405, 0.0808237, -0.736932, -0.432486, 0.436794, 0.862518, 0.845274, -0.920459, -0.511915, -2.26417, -1.07859, 0.380676, 2.65576, 2.79695, 1.63042, 1.0968, 3.43443, 3.47269, 4.5573, 3.96848, 2.00045, -0.0789448, -0.167059, 0.022319, 0.16, 0.754026, 0.865027, 0.75189, 0.126449, -1.47687, -0.168943, -0.250901, 0.689413, 0.356734, -0.864662, -0.861088, -2.04636, -0.601673, -1.22214, -0.492792, 1.06107, 1.64823, 0.315994, 0.46282, 2.97254, 2.98825, 2.99462, 3.34872, 1.71941, 0.310884, 0.666119, 0.66, 0.44, 0.610636, 1.08012, 0.659409, 0.393137, -1.43317, -0.547732, -0.830067, 0.756034, 1.16209, 0.440459, 0.256437, 0.95327, 0.296723, 0.421417, 0.183314, 0.603884, 1.45513, 1.44227, 0.891179, 0.414684, 1.36463, 2.39316, 1.90932, 0.578773, -0.181357, 0.277852, 0.74, 0.72, 0.59, 0.464416, 1.04888, 0.507913, 0.420522, -0.443753, -0.16594, -0.541946, -0.37314, -0.323621, 0.230229, 0.411767, 1.11957, 1.1454, 0.797645, -0.0500132, 1.07174, 1.09322, 0.374115, -1.65951, 0.679353, 1.49871, 0.887032, -0.563749, 0.603221, 0.59137, 0.81, 0.03, 0.32, 0.0584743, 1.19142, -0.422003, 0.562877, 2.11374, 1.93072, 0.14246, -0.185779, -1.02401, 0.341631, 1.20456, 2.07086, 0.930626, 0.740033, 0.939382, 1.51693, 0.0608199, 0.0336405, -0.884222, 0.714106, 1.57482, 0.995921, 0.747341, 1.02427, 0.431777, 0.94019, 0.95, 0.239286, 0.234523, 0.204055, 0.110055, 2.13443, 2.77363, 1.95596, 2.89037, 2.65187, 0.775788, 1.29786, -0.783069, 0.109454, 1.18849, 1.52604, 0.525115, 1.29609, -0.490703, 0.612976, 0.226291, 0.303697, 0.490107, -0.182322, 0.526519, 0.815906, 0.838759, 0.274808, 0.43, 0.58, 0.732074, -0.014961, -0.0375245, 1.39848, 0.266948, 2.34113, 4.00793, 4.67531, 4.28893, 3.83964, 1.63082, 1.13036, 1.68278, 0.886555, 0.510105, 1.89789, -0.104572, 0.557965, 0.661708, 0.860311, 1.24404, 0.103715, 1.41789, 1.39993, 0.139329, 0.176585, 0.3, 0.277, 0.160266, 0.522222, -0.122436, 0.406917, -1.72399, 0.509624, 2.20028, 2.96915, 3.71687, 4.25882, 3.39653, 1.26923, -0.344733, -1.41944, -0.13726, 1.50989, 0.268305, -0.600016, 1.02093, -0.534422, 0.210596, 0.473084, 1.64199, 1.29334, 0.661598, 0.682361, 0.57, 0.274405, 0.762037, -0.408953, 0.311965, 0.695488, -0.611276, 0.533982, 0.442813, -0.678758, -0.934563, -0.325333, -1.50456, -1.20011, -1.62933, -0.347526, 1.19552, 1.94763, 1.86669, 0.555773, 0.0208872, -1.28124, 0.563364, 1.20641, 1.31102, 1.21445, 0.66442, 0.58631, 0.37, 0.714856, 0.638647, -0.0921981, 0.558837, 0.410124, -0.201003, 1.41285, 0.284666, -0.551383, -1.95784, -1.02675, -0.0429189, -1.61328, 0.496207, 1.74079, 0.186284, 1.53629, 1.79098, 0.45787, -0.460508, -0.74693, 1.20672, 1.16207, 1.38093, 1.18351, 0.672845, 0.69, 0.32, 0.63, -0.00855695, 0.582834, -0.0542488, -0.242726, 0.171977, 0.325831, 0.0643202, -0.332991, -0.472451, 0.047897, 0.434858, 0.228576, 0.289516, 0.19976, 0.025055, 0.776282, 1.23204, 1.3134, -0.595269, -1.3031, 0.802062, 1.42915, 0.935614, 1.22007, 0.837837, 0.01, 0.93, 0.34, 0.362232, 0.567162, 1.21132, 0.561356, -0.0125057, -0.602797, -0.469649, -0.152799, 0.380643, 0.540118, 1.59602, 1.03693, 1.06132, 0.20759, -0.107133, 0.151629, 0.560473, 1.05276, -0.38619, 0.22266, 0.775912, 0.86538, 1.25675, 0.928503, 0.429266, 0.13, 0.75, 0.722927, 0.215529, 0.268804, 0.538741, 0.449886, -0.107251, 0.641861, 0.287423, 0.184577, 0.425342, 1.35557, 0.573567, 0.471669, 1.24738, 0.650584, 1.45537, 1.71798, 1.64904, 0.696439, 0.463597, 0.648583, 0.794408, 0.913422, 0.469497, 0.632898, 0.920197, 0.05, 0.64, 0.81, 0.03, 0.273889, 0.653629, -0.0934012, 0.00848989, -0.73106, -0.491542, -0.813535, -0.133865, 0.856565, 1.22875, 0.269416, 0.143559, 0.116609, 0.120386, 0.606128, 0.131704, 0.905196, 0.303038, 0.701359, -0.0495286, 0.902549, 0.258587, 0.010094, 0.92, 0.59, 0.7, 0.28, 0.27, 0.826404, 0.568496, 0.538072, 0.323222, -0.522314, -0.442588, -0.264886, -0.413962, -0.709981, -0.446082, -0.226569, -0.653598, -0.0668286, -0.57238, 0.0547678, 0.328719, 0.138014, 0.490605, 0.356353, 0.129239, 0.160243, 0.917168, 0.0262511, 0.18, 0.32, 0.5, 0.05, 0.75, 0.39, 0.0263975, 0.159126, 0.842839, 0.274571, 0.837473, 0.62026, 0.922562, 0.796892, -0.08018, 0.400554, -0.0819657, -0.16008, 0.379673, 0.611762, 0.504956, 0.537885, 0.211485, 0.955464, 0.878328, 0.445689, 0.650676, 0.4, 0.45, 0.08, 0.18, 0.7, 0.01, 0.23, 0.32, 0.72, 0.518665, 0.841583, 0.664998, 0.611038, -0.0361831, -0.049425, 0.136317, 0.0651234, -0.122912, 0.716827, 0.12832, 0.598202, 0.21213, 0.414032, 0.472632, 0.8802, 0.43, 0.37, 0.09, 0.63, 0.49, 0.81, -282.808]
[0.42, 0.08, 0.6, 0.21, 0.58, 0.54, 0.88, 0.46, 0.9, 0.49, 0.43, 0.3, 0.2, 0.48, 0.67, 0.36, 0.83, 0.35, 0.26, 0.85, 0.38, 0.53, 0.29, 0.24, 0.48, 0.23, 0.59, 0.57, 0.66, 0.44, 0.55, 0.18, 0.26, 0.111519, 0.259434, 0.556317, 0.0199767, 0.520617, 1.03616, 0.924538, 0.111654, 0.473205, 0.16984, 0.544729, 0.0880814, 0.320756, 0.831574, 0.481387, 0.722861, 0.26, 0.06, 0.73, 0.29, 0.04, 0.05, 0.26, 0.12, 0.75, 0.93, 0.65, 0.36, 0.355096, 0.393455, 0.118537, 1.00172, 0.689442, 0.77179, 0.347721, 0.343961, 1.16367, 0.848537, 0.691819, 0.623513, 0.521759, 0.600449, 0.600587, 0.470275, 0.341222, 0.78092, 0.889036, 0.499992, 0.62, 0.34, 0.93, 0.53, 0.16, 0.52, 0.08, 0.662711, 0.364966, 0.472225, 0.0854963, 0.605691, 0.695952, 1.62829, 1.49978, 1.1756, 0.736827, -0.0217261, 0.276582, 0.310839, -0.129595, 1.03184, 0.215788, 0.523995, 0.124453, 0.313248, 0.504424, 0.514701, -0.0536772, 0.711786, 0.43, 0.09, 0.02, 0.61, 0.865685, 0.465236, 0.844195, 0.722965, 1.20338, 0.572356, 0.763009, 0.954686, 0.6308, 1.00746, 1.4041, 0.658702, 0.418789, 0.647549, 1.30223, 0.117915, 0.593255, 1.0355, 0.46886, 0.863285, 0.459933, 0.103483, 1.13827, 1.01822, 0.22, 0.38, 0.369903, 0.0999456, 0.572403, 0.323831, 0.104975, 1.0177, 0.979728, 0.704549, 0.843909, 1.79265, 0.969725, 1.70508, 0.613764, 0.0918747, 0.502798, 0.938184, 0.10838, -0.176017, 0.26509, 0.0825117, 0.288845, -0.342071, 0.0344298, 0.96216, 1.08494, 0.619705, 0.85, 0.1, 0.84, 0.740116, 0.787303, -0.0775042, 0.174715, -0.0305973, -0.899761, -0.218972, 0.59791, 2.43655, 1.28416, 2.13121, 0.907745, 1.00183, 2.02503, 1.51948, 0.154363, -0.912232, 0.449729, 0.115277, 0.485462, 0.594534, -0.0306994, 0.720044, 1.26967, 0.0685708, 0.776114, 0.85, 0.747663, 0.717748, 0.467398, 0.437109, -0.383316, 0.077072, -0.545329, -0.453521, 1.12011, 1.0368, 1.01972, 2.26671, 2.21094, 2.79421, 1.53469, 0.334845, 0.36757, 0.271352, 0.0662515, 0.340633, 1.96682, 0.862509, -0.147799, 0.192794, 0.712664, 0.281668, 0.21005, 0.26, 0.676363, 0.868589, 0.682618, 0.297011, -0.224498, -0.063452, -0.164221, 0.675029, 0.681244, 0.732329, 0.087527, 1.25979, 1.79497, 0.82193, 0.541573, -0.0881731, 0.337091, 0.755682, 0.579153, 2.28752, 1.9871, 1.27499, 0.39239, 1.57263, 1.35523, 0.606857, 0.989108, 0.116136, 0.301445, 0.293765, 0.149479, -0.0364846, 0.288904, -0.047411, 0.762589, 0.910004, 2.47619, 1.04949, 0.213328, 1.60218, 0.302185, 0.0518804, 0.047103, -0.411575, 0.958206, -0.0220836, 1.17561, 1.50217, 1.44746, 0.831091, 2.77344, 2.88555, 2.49853, 1.37354, 0.528352, 0.223807, 0.0455173, 0.526447, 0.517663, 0.780097, 0.787208, 1.56109, 1.87915, 0.553585, 2.32192, 1.17942, 1.87809, 2.61128, 1.30503, -0.261603, -1.02114, -0.802787, -0.445767, 0.434839, 0.475174, -0.744, 1.30251, 0.50982, 1.73604, 1.65353, 1.79065, 1.10141, 0.934854, 0.398942, 0.0122156, 0.572258, 0.469196, 0.266553, 0.656771, 1.99536, 1.61446, 1.88208, 2.03203, 2.10328, 2.85489, 0.936693, 1.34296, 1.38774, -0.373913, -0.441095, 0.636818, 0.0329558, -1.78292, -0.294877, 0.8449, 0.930463, 0.652717, 1.07841, 1.67824, 1.15864, 1.15348, 0.46, -0.000499566, 0.372288, 0.781402, 0.5455, 1.15055, 1.53223, 2.12423, 0.570703, 1.68283, 2.70647, 2.59943, -0.105496, 1.13221, 1.4321, 0.458817, 0.461406, 1.35367, 1.12868, 1.7042, 1.34208, 0.804648, 0.759768, -0.121129, -0.352118, 0.712143, 0.376681, 0.25, 0.1, 0.343857, 0.328038, 0.144237, 0.590418, 0.575194, -0.0467576, -0.425021, 0.281719, 0.891647, 0.851366, -0.127211, -0.456881, 1.32202, -0.505271, 0.690894, 0.487688, 0.372742, 0.114995, 0.642658, 0.85322, 0.186532, 0.0305596, -0.0748085, 0.311407, 0.690557, 0.896987, 0.76, 0.26, 0.96, 0.714862, 0.193224, 0.28442, -0.085042, -0.99702, -0.999706, -1.17492, -1.63271, 0.418057, -0.485176, 0.0362624, -1.09841, -1.57653, 0.536569, 0.817466, -0.738597, -1.86334, 0.0703419, 0.473641, -0.542725, -0.332648, 0.387014, 0.275567, 0.940607, 0.730722, 0.89, 0.61, 0.72, 0.670508, 0.349393, 0.426247, 0.0796306, -1.56436, -1.85146, -1.81969, -1.41187, -0.864166, -0.896974, -0.0961817, -0.546341, -1.54203, 0.0718703, 1.20412, -0.470039, -1.24501, -1.48203, -0.511017, -0.343105, -0.255978, 0.877981, 0.282702, 0.035471, 0.528129, 0.769724, 0.89, 0.0501332, 0.913084, 0.927748, 0.922849, -0.543697, -0.902061, -0.148162, -0.335279, -0.651565, -0.0984632, -0.562913, 0.600866, -0.195568, -1.849, -1.00966, 0.205617, 0.0246743, -0.25044, -0.228958, -0.532132, -0.0966031, 0.608653, 0.755914, 0.554861, 0.0955161, 0.0901519, 0.658788, 0, 0.67, 0.855557, 0.878216, 0.972469, -0.191594, 0.412186, -0.0652896, 0.313601, 0.00217712, -1.10838, -1.5215, -0.773164, -1.6726, -2.42865, -0.533346, -0.319684, -0.637598, 0.538775, 0.0380438, -0.293826, 0.546966, 0.471796, 0.724614, -0.318955, -0.169633, 0.794118, 0.765047, 0.69, 0.394038, 0.257387, 0.828544, 0.87417, 0.98348, 1.53266, 1.22545, 0.936105, -0.2014, -1.02731, -2.8504, -0.998609, -1.01187, -1.33893, -0.251602, -0.268278, 0.231088, 1.54874, 0.571751, 0.245874, 0.161352, 0.283222, -0.447564, -0.587242, -0.400299, 0.110112, 0.25157, 0.11, 0.427219, 0.408119, 1.1375, 0.639749, 1.18114, 1.22517, 0.757646, 0.535401, 0.670743, 0.861742, 0.594664, 1.005, 0.696721, -0.135781, -0.502876, 0.0289379, 1.34599, 0.690619, 0.369895, -0.734088, 1.24799, 0.258245, 0.170487, 0.00992088, 0.123751, -0.0584183, 0.78437, 0.95, 0.679726, 0.259581, 0.66028, 0.506533, 1.18822, 1.0521, -0.209743, 0.121499, 0.373337, -0.0627919, 0.497207, -0.0272027, -0.476445, -1.70474, -1.54235, -0.247055, -0.25097, -0.238471, 0.377933, 0.274627, 0.322649, -0.0581903, -0.0118522, -0.0568456, 0.494159, 0.531038, 0.38, 0.81, 0.57, 0.532892, 0.0280862, 0.722675, 0.522566, 0.31535, 0.507495, -0.105441, -0.461866, -0.172294, 0.911923, 0.0288038, -0.526487, -0.60712, -0.700554, -0.851894, -0.1122, -0.367402, 0.184836, 0.803599, 0.260688, -0.183741, 0.188864, 0.396584, 0.57425, 0.305596, 0.1, 0.99, 0.37, 0.940737, 0.456069, -0.779359, -0.377853, 0.034718, -0.0675951, 0.784684, -0.378933, 1.32071, 0.268667, 0.991947, 1.57004, 0.559606, 1.75363, 0.718326, 0.158961, 0.500737, 0.149275, -0.252584, 0.280135, -0.964848, -0.251359, 0.34815, 0.0892729, 0.48206, 0.74, 0.33, 0.909903, -0.007171, 0.329933, 0.258758, -0.727286, -1.12792, -0.211647, 0.673514, 0.89446, 1.54447, 2.56956, 3.15321, 3.78793, 3.16829, 3.92182, 2.08965, 0.867139, 0.611428, 0.18355, -0.712178, 0.0982853, -0.220207, 0.0201656, 0.827483, 0.843482, 0.289812, 0.4, 0.05, 0.91, 0.92, 0.0956399, 0.624304, 0.470401, 0.546999, 1.34044, 1.512, 2.15422, 2.18059, 0.770527, 0.940562, 0.767151, 1.40715, 1.78456, 2.41606, 1.66215, 1.11588, 0.116392, 0.77512, 0.864845, 0.557834, 0.243874, 0.696072, 0.799966, 0.08, 0.67, 0.08, 0.77, 0.03, 0.705816, 0.25856, 1.18713, 1.12681, 0.881513, 0.783646, 0.947936, 1.56369, 1.72489, 1.45761, 1.60679, 2.54461, 2.26239, 2.47217, 1.7972, 1.31155, 1.24121, 0.753183, 1.10468, 1.09874, 0.58821, 0.148056, 0.039054, 0.99, 0.36, 0.8, 0.98, 0.32, 0.87, 0.843132, 0.405146, 0.222047, 0.127338, 1.05221, 0.912581, 1.46891, 1.1942, 0.81266, 1.37459, 0.824855, 0.881672, 2.03833, 1.62602, 0.567751, 1.21247, 1.02398, 0.962701, 0.6412, 0.785051, 0.501189, 0.07, 0.29, 0.81, 0.95, 0.78, 0.76, 0.53, 0.99, 0.84, 0.649619, 0.922535, 0.0704278, 0.759039, 0.425174, 0.31751, 0.164573, 0.733512, 0.574612, 0.973196, 0.809057, 0.243731, 0.548315, 0.530295, 0.866802, 0.441059, 0.46, 0.77, 0.17, 0.29, 0.16, 0.74, -35.8173]
[0.69, 0.12, 0.46, 0.93, 0.91, 0.15, 0.49, 0.57, 0.4, 0.52, 0.36, 0.51, 0.87, 0.26, 0.62, 0.55, 0.83, 0.94, 0.8, 0.97, 0.65, 0.65, 0.13, 0.61, 0.78, 0.78, 0.78, 0.4, 0.11, 0.47, 0.45, 0.7, 0.75, 0.881232, 0.445544, 0.453543, 0.27409, 0.601255, 0.102714, 0.734743, -0.013981, 0.345169, 0.994269, 0.666085, 0.212508, 0.831184, 0.126405, 0.415622, 0.309085, 0.87, 0.05, 0.79, 0.21, 0.38, 0.51, 0.47, 0.08, 0.46, 0.76, 0.59, 0.89, 0.201276, 0.622352, 0.867058, 0.537721, 0.277744, 0.00425217, 0.6674, 0.5675, 0.925898, 0.675328, -0.0170435, 0.690213, 0.371434, 0.813104, 0.449162, 0.868046, 0.136881, 0.584767, 0.223468, 0.960036, 0.81, 0.21, 0.55, 0.47, 0.24, 0.18, 0.35, 0.728076, 0.717039, 0.629502, 1.04026, 0.852277, 0.563357, 0.330231, 0.615369, 0.671044, 1.13255, 0.98731, 0.359378, 0.421758, 0.919515, 0.487234, 1.16631, 0.514554, -0.0300823, 0.630153, 1.0428, 0.667592, 0.679612, 0.177285, 0.73, 0.61, 0.45, 0.73, 0.750432, 0.504769, 0.532651, 0.93318, 1.21483, 1.34181, 0.463649, 0.476656, 0.442727, 0.325678, -0.302364, 0.626965, -0.254033, 0.208353, 0.394035, 0.34232, 0.589759, 0.420476, -0.497593, 0.396627, 0.332591, 0.957982, 0.246254, 0.675162, 0.31, 0.58, 0.931721, 0.0609322, 0.792036, 0.664275, 0.402309, 1.26551, 1.10632, 0.714941, 0.622602, -0.279276, -0.0184771, -1.35016, -0.84105, -1.66414, -1.1757, -1.64076, -1.9805, -2.07326, -1.94454, -1.76475, -0.898473, -0.543121, -0.7228, 0.146003, 0.917948, 0.228241, 0.9, 0.99, 0.85, 0.860369, 0.995899, 0.522934, 0.529527, 1.65407, 0.8705, 0.424629, -0.131367, -0.776159, 0.305318, 0.395083, 1.16984, 1.10275, 0.553943, 1.38578, 1.09262, 1.08569, 1.08207, -0.0796797, -1.78449, -1.69682, -0.464628, 0.348965, 0.615796, 0.790361, 0.369857, 0.11, 0.0282542, 0.752012, -0.0137241, 0.910547, 0.503096, 0.991265, 0.868853, 0.172157, -0.193999, 0.222998, 1.20044, 1.73352, 1.52421, 1.67486, 1.78184, 1.34474, 0.853698, 0.907511, 0.304467, 0.716348, 0.0450795, -0.904516, -0.361848, -0.664209, 0.119581, 0.376271, 0.0482172, 0.84, 0.944109, 0.414562, 0.262532, 0.622428, 1.02319, 0.676096, -0.279219, 0.0250886, 0.266995, 0.405348, 0.665058, 0.503673, 0.777019, 0.464765, 1.10065, 0.0192085, 0.127494, 0.539872, -0.0589895, -0.456945, 0.584432, -0.564978, -0.983339, -0.471772, -0.102729, 0.188408, 0.410511, 0.382802, 0.949376, 0.850103, 0.917052, 0.178991, 0.64836, 0.982599, 0.0580082, 0.253621, -0.177924, -0.636835, -0.615845, 0.380492, 0.678684, 0.971093, 1.75541, 1.0208, -0.0285165, 0.157377, -0.225296, -0.385648, 0.177666, -0.0271664, -0.793185, -0.0210706, -0.829571, -0.19636, 0.747031, 0.436888, 0.793293, 0.953074, 1.28544, 1.03659, 1.22754, 0.989863, 1.50143, 0.689587, 0.513329, -0.37896, 0.15156, -0.731265, 0.485115, 0.750406, 1.06125, 0.618472, 0.539546, 1.98667, 1.46461, -0.299255, 1.76457, -0.131517, 0.191395, 0.150268, -0.146519, 0.312182, 0.570465, 0.436176, 0.434303, 0.60625, 0.696184, 0.833393, 1.17221, 1.63817, 1.78713, 0.836902, 1.19252, 0.73232, 0.849744, 0.836611, 1.04483, 1.70638, 3.1592, 2.21085, 1.77899, 2.28237, 1.97216, 2.08022, 3.12977, 1.83495, 1.82111, 1.07737, 0.273608, 0.0913258, 0.246482, 0.87, 0.416195, 0.695737, 1.07747, 1.00059, 0.707553, 1.67212, 2.09769, 1.73348, 1.86897, 1.07793, -0.220071, -0.74615, 0.778726, 1.67119, 2.69122, 2.42946, 2.02279, 2.20784, 1.87297, 2.767, 2.61496, 2.21696, 2.04102, 1.22046, 0.0680308, 0.694346, 0.45, 0.21, 0.752054, 0.906605, 1.09319, 1.25689, 1.01451, 1.78097, 1.29083, 1.43194, 1.43048, 1.15205, -0.0530142, -1.29906, 1.12846, 2.00776, 2.7546, 2.37733, 2.85881, 2.46443, 1.86554, 2.03486, 1.60866, 0.349055, 1.16175, 0.824694, 0.363095, 0.710654, 0.57, 0.98, 0.45, 0.985804, 0.310297, 0.653268, 0.531352, 0.86075, 1.0479, 0.699826, 0.73704, -0.374345, -1.05024, 0.217614, 0.964111, 2.26776, 2.71281, 2.42175, 2.40913, 1.81824, 1.0307, 0.380616, 0.930759, -0.253921, 0.303292, -0.190237, 0.370787, 0.0936914, 0.95, 0.41, 0.22, 0.129827, 0.618733, 0.165312, -0.0191227, 0.769718, 0.913164, 0.262718, -0.123566, -0.225998, 0.615289, 1.13303, 1.51091, 1.84904, 1.85201, 2.26194, 1.69711, 0.249297, 1.35406, 1.01515, 0.247273, 0.217819, 0.466389, -0.0644148, 0.643701, 0.272535, 0.329918, 0.23, 0.933561, 0.381401, 0.537485, 0.135207, -0.806661, -0.476589, -0.45978, 0.191227, -0.459497, -0.855502, 0.896859, 1.93135, 2.1463, 0.919648, 0.861822, 1.83601, 0.724222, 1.62078, 0.61809, 0.595012, 0.573602, 1.35325, 0.496635, -0.0301822, 0.455758, 0.497756, 0.0595894, 0.84, 0.75, 0.868018, 0.0179381, -0.998358, -1.48319, -0.965497, 0.706015, 2.17267, 1.8595, 2.1474, 2.34068, 2.75991, 2.12262, 0.886694, 0.255357, 0.0224906, 1.41711, 0.923607, 1.10306, 0.149095, -0.379655, 0.0437382, -0.427766, 0.841863, 0.107304, 0.325447, 0.800816, 0.75, -0.0075569, 0.704768, 0.393432, -1.17356, -0.44963, -1.62679, -0.482383, 0.635073, 1.54313, 2.65813, 2.62509, 3.43943, 2.60374, 0.272051, -0.164643, 0.508701, 0.0105267, 0.432351, 0.358853, -0.306906, -1.03916, -0.60294, -0.359667, 0.564725, 0.545997, 0.821927, 0.399509, 0.68, 0.82304, 0.604441, 0.142844, -0.849416, -0.989927, -0.753733, -1.05566, -1.74448, -2.04987, -1.89666, -0.879182, -0.26421, -0.283349, -0.330819, -0.683748, -0.547583, -0.0959643, -0.255342, -0.310435, -1.48472, -1.29249, -0.802985, 0.0691081, 0.376127, 0.377581, 0.807161, 0.371882, 0.13, -0.0221591, 0.0232504, 0.645528, -0.277998, -0.913033, -0.947669, -1.25231, -1.66691, -2.44469, -2.10149, -0.268096, -1.2292, 0.341881, 0.169733, 0.496451, 1.16153, 0.317659, 0.221518, -0.346105, -0.183996, -1.29913, -0.357435, 0.647757, -0.0480616, 0.58657, 0.84466, 0.42, 0.63, 0.47, -0.0575798, -0.0419957, 0.16533, -1.0358, -0.795183, -1.73733, -1.84977, -1.18538, -0.00283918, -0.288948, 0.25562, 0.560851, 0.503364, 0.352914, -0.315436, 0.0555329, 0.233298, 0.186769, -0.568201, -0.903459, 0.411936, 0.556445, 0.815151, -0.0739742, 0.867904, 0.15, 0.5, 0.19, 0.722, 0.91653, 0.508363, -0.540961, -0.530774, -1.24757, -1.04569, -0.720143, -0.615485, -0.176992, 0.0875593, -0.0702543, -0.575616, 0.0613909, -0.448848, -0.681565, 0.455268, -0.499539, -0.912569, -0.106105, -0.210965, 0.918138, 0.39755, 0.373966, 0.572423, 0.47, 0.52, 0.581721, 0.802129, -0.027499, 0.803208, 0.582254, -0.379929, 0.351676, 0.0665731, 0.73425, -0.0558603, -0.421344, -0.82758, -0.722859, -0.64225, -0.210996, -0.556848, 0.411536, 0.831321, 0.538043, -0.414337, 0.100597, 0.614206, 0.327825, 0.755558, 0.160574, 0.639949, 0.1, 0.61, 0.85, 0.73, -0.00828112, 0.730298, 0.55036, 0.846631, 1.66255, 1.56354, 0.957253, 1.15518, 1.06603, 0.3273, -0.341455, 0.0438594, 0.471993, 0.649656, 0.570604, 1.82601, 1.57604, 0.886647, 1.11215, 0.858046, 0.277542, 0.44629, 0.109984, 0.69, 0.98, 0.98, 0.03, 0.52, 0.783241, 0.637537, 0.740625, 0.978117, 2.11767, 1.81567, 1.85314, 1.91209, 1.76446, 1.93028, 1.69614, 2.3933, 2.06306, 2.0127, 2.18032, 1.26538, 2.04965, 1.672, 0.841125, 0.345835, 0.483696, 0.9898, 0.776233, 0.35, 0.57, 0.83, 0.62, 0.02, 0.62, 0.201611, 0.757899, 0.370082, 1.11524, 0.513849, 0.792923, 0.703369, 1.0007, 0.752582, 1.02256, 0.32848, 0.303712, 1.13028, 1.6306, 1.78564, 1.31151, 0.786168, 1.2015, 0.134246, 0.371381, 0.286764, 0.31, 0.89, 0.52, 0.3, 0.72, 0.64, 0.07, 0.95, 0.28, 0.81311, 0.98188, 0.209353, 0.862663, 0.929988, 0.583469, 0.625653, 0.363331, 0.351883, 0.481239, 0.666413, 1.30126, 0.635503, 1.09709, 1.07141, 0.823747, 0.03, 0.61, 0.9, 0.62, 0.07, 0.97, 51.558]
[0.23, 0.9, 0.17, 0.4, 0.03, 0.66, 0.83, 0.61, 0.59, 0.45, 0.86, 0.51, 0.65, 0.01, 0.4, 0.09, 0.97, 0.83, 0.5, 0.58, 0.21, 0.75, 0.81, 0.87, 0.71, 0.87, 0.99, 0.04, 0.79, 0.38, 0, 0.3, 0.61, 0.159129, -0.0796146, 0.313225, 0.152175, 0.504413, 0.210158, 0.964871, 0.583998, 0.990851, 0.342398, 0.787553, 0.130679, 0.69982, 0.939498, 0.968524, 0.612043, 0.46, 0.38, 0.7, 0.38, 0.76, 0.55, 0.17, 0.71, 0.6, 0.52, 0.58, 0.33, 0.487875, 0.51712, 0.227762, 0.0517208, 0.427584, 0.584518, 0.974306, 0.331734, 0.471774, 0.708968, 0.613603, 0.151673, 0.323119, 0.0280915, 0.905892, 0.146926, 0.982001, 0.738901, 0.287673, 0.980029, 0.89, 0.48, 0.79, 0.47, 0.49, 0.31, 0.69, 0.769972, 0.990779, 0.477107, 0.343204, 1.01611, 0.234774, 0.561158, 0.385452, -0.223245, -0.497925, -0.641749, 0.0493534, 0.0749582, 0.0871951, 1.29499, 0.427268, 0.649983, 0.419682, 0.206678, 0.312285, 0.886782, 0.934789, 0.675414, 0.48, 0.69, 0.3, 0.11, 0.155109, 0.916072, 0.246265, 0.414905, -0.135781, 0.649058, 0.255658, 0.290614, -0.36469, -0.157545, -0.455468, 0.0492476, -0.166453, 0.305601, 0.235508, 0.319692, 0.580876, 0.842409, 0.887332, 1.01813, 1.36937, 0.119948, 0.62996, 0.0955075, 0.4, 0.7, 0.760632, 0.950342, 0.406693, 0.894931, 0.487737, 0.0853628, 0.50837, 0.250816, 0.28048, 0.163934, -0.0958217, -0.31098, -1.42796, -0.0272925, 0.639607, 0.0507088, 1.30013, 1.17766, 0.782924, 1.8318, 2.62625, 1.87328, 1.82336, 0.657624, 0.226648, 0.771001, 0.78, 0.83, 0.25, 0.649924, 0.533722, 0.289649, 0.562209, 0.0448574, 0.485511, -0.205726, -0.0727831, 0.359168, 0.171184, 0.257591, -1.04961, -0.942328, -0.97465, -0.646524, -0.212514, -0.259083, 1.15875, 1.95085, 3.28867, 2.72848, 1.55365, 0.638163, 0.342597, 0.801208, 0.25892, 0.18, 0.737794, 0.142621, 0.299772, 0.90372, -0.388179, 0.870205, 1.07991, 1.51143, 0.617269, -0.104174, 1.03159, 0.315009, -0.8928, -1.97233, -1.85769, -0.395559, -0.0855055, -0.532754, 0.693682, 1.02983, 1.84512, 1.47019, 1.85924, 1.68594, 0.84025, 0.771213, 0.786526, 0.38, 0.997138, 0.581131, 0.164873, -0.0419481, 1.29589, 1.32879, 1.94594, 1.01197, 1.14098, 1.47108, 1.62905, 1.39843, 0.230432, -0.829498, -0.579212, 0.0979015, 0.64198, 0.519242, 1.15239, 1.00631, 1.77139, 1.11304, 0.746879, 1.80672, 1.14413, 0.318757, 0.49098, 0.962009, 0.960033, 0.407012, 0.604719, 0.256225, 1.54161, 1.75706, 1.01222, 0.493046, 0.918328, 1.72906, 1.30275, 1.73868, 0.372516, 0.365664, -0.451494, 0.782154, 1.30089, 1.26562, 1.23045, 1.01858, 1.58139, 0.452616, 0.624816, 0.968394, 0.922291, 0.541545, 0.586062, 0.609559, 0.148076, 0.844322, 1.12277, 0.613427, 0.561979, 0.991715, 0.498365, 0.570411, 1.46587, 1.01741, 1.10938, 0.908018, 1.29686, 0.762781, 0.823388, 1.80572, -0.218298, 0.459907, -0.362162, 0.288298, -0.0965722, 0.436105, -0.434223, 0.442886, 1.28261, 0.0638727, 0.123293, 0.653226, 0.793254, 0.36797, 0.828986, 0.88093, 0.218921, 0.916129, -0.162704, 0.563224, 0.755514, 1.04984, -0.12342, 0.864354, 0.665176, 1.51552, 1.60584, 0.75686, -1.08315, -0.963012, 0.16246, -0.579708, -0.460104, -0.281934, -0.876585, -0.256809, 0.68729, 0.529008, 0.604224, 0.02, 0.505011, 0.236231, 0.241529, 0.231536, 1.34632, 0.631944, -0.164665, 0.82461, 0.781105, 0.721627, 0.157327, 1.13762, -0.124505, 0.848552, 1.24731, 0.952093, 0.439708, -0.326634, -0.925863, -0.567566, 0.0560616, -0.423745, -0.645307, -0.268203, -0.0875604, 0.448382, 0.56, 0.09, 0.36823, 0.187232, 0.739167, 0.524542, 1.22334, 0.0609977, 0.312391, 0.615343, 0.934825, 0.253876, 0.0128167, 0.195084, -1.39884, 1.28708, 1.17199, 0.558553, 1.25917, 0.374296, -0.577872, -0.0504357, 0.206323, 0.230459, -0.171154, -0.0859401, 0.60337, 0.517665, 0.38, 0.7, 0.24, 0.0871841, 0.175735, 0.940562, 0.66959, -0.0108835, 0.541113, 0.472902, 0.0239218, -0.480988, -0.788071, 0.380535, -0.121323, 2.34568, 0.991173, 1.43377, 0.539209, 1.02104, 0.411297, 1.15362, 0.203828, 0.283702, 0.567389, 0.296274, 0.263185, 0.590852, 0.69, 0.03, 0.29, 0.107198, 0.926675, 0.429342, 0.217481, 0.424428, 0.149045, -0.791937, -0.399386, -1.04717, 0.501982, 0.494265, 0.450678, 2.0339, 1.42687, 1.51053, 0.92478, 1.40383, 0.620825, 0.792321, 0.510798, 0.205876, 0.311922, 0.0764965, -0.149756, 0.180042, 0.890276, 0.66, 0.868475, 0.607245, 0.356342, 0.269378, -0.32392, -0.244288, -1.03602, -0.761298, -0.988661, -0.723783, -0.0601661, 1.31202, 1.15387, 1.8819, 1.44693, 1.91958, 1.02782, 0.945788, 0.420692, 0.664406, 0.339657, -0.0135642, 0.676486, 0.298935, -0.253682, 0.455273, 0.18766, 0.31, 0.38, 0.715923, 0.593023, 0.433499, -0.516067, -0.698178, -0.712108, -0.892201, -0.703781, -0.0740033, 0.641257, 1.76066, 2.35464, 2.18227, 0.419998, 0.314271, 0.580004, 0.163434, -0.0940344, 0.43636, -0.0745383, -0.52172, 0.0967196, -0.268973, -0.126769, 0.127546, 0.704243, 0.92, 0.626822, 0.55493, 0.438263, 0.426337, 0.324975, -0.323226, -1.47037, -0.783796, -0.551989, 0.597707, 1.38759, 2.40565, 2.76613, 2.42806, 1.04518, -0.327069, -0.800661, -0.668023, -0.659303, -0.419227, -0.327636, 0.447503, -0.20121, -0.00493355, 0.378985, -0.20456, 0.551414, 0.3, 0.203328, 0.575393, 0.752008, 0.00531977, 0.199326, 0.117538, -0.282074, -0.141424, 1.28554, 1.31942, 0.0100929, 0.922828, 1.136, 1.27094, 0.0880341, -1.00499, -0.539859, -1.33213, -0.466656, -1.06698, 0.793194, 0.0674669, -0.102963, -0.35053, 0.675185, 0.241132, 0.35632, 0.67, 0.276236, 0.458983, 0.0835358, 0.255555, 0.263577, 0.3872, 1.11311, 0.904656, 2.18835, 1.51864, 0.774062, 0.12179, -0.0233521, 0.577591, 0.830781, 0.766266, -0.571196, -0.577037, -0.161486, 0.376509, 0.756379, 0.370398, 0.525037, 0.0808985, 0.512551, 0.400278, 0.15, 0.92, 0.11, 0.483777, -0.194273, -0.181009, 0.519414, 1.67637, 1.51085, 1.39661, 2.05262, 1.26457, 1.41849, 0.38548, -0.222397, 0.298528, 0.0929486, 1.62434, 0.943882, 0.620701, 0.415236, -0.194509, 0.347872, -0.13204, 0.61973, 0.0962211, -0.017084, 0.182771, 0.79, 0.16, 0, 0.972178, 0.418569, 0.126333, 0.41208, 1.55951, 1.12752, 0.932283, 0.562103, 0.599172, 0.0289347, -0.58132, -0.357379, 0.740116, 0.734466, 1.13175, 1.95724, 1.29751, 0.901179, 0.633983, 0.0332813, 0.851149, 0.660298, 0.228, 0.750302, 0.695988, 0.29, 0.61, 0.600632, 0.090261, 0.643836, 0.312033, 0.336193, 1.56402, 1.72578, 0.723667, 0.581984, 0.0522327, 0.189816, 1.31814, 1.57216, 1.98075, 1.17988, 1.36185, 1.81039, 1.87198, 0.86739, 0.976776, 0.53587, 0.251096, 0.433332, 0.859098, 0.407065, 0.929974, 0.66, 0.51, 0.4, 0.94, 0.281134, 0.586379, 0.174916, 1.38668, 0.977043, 0.833725, 0.270795, 0.503105, 0.648107, 0.462819, 1.16652, 0.83939, 1.36391, 0.131711, 1.95371, 1.14041, 0.619795, 1.21152, 0.414965, 0.501687, 0.804894, 0.66858, 0.199935, 0.93, 0.92, 0.62, 0.14, 0.27, 0.0651071, 0.985974, 0.17581, 0.353461, 0.0502563, -0.172064, 0.529402, 0.051364, -0.652989, 0.417455, 0.214811, 0.265838, 0.0398214, -0.180275, 0.437795, 0.814416, 0.249698, 0.0434942, 0.348469, 0.29617, 0.253433, 0.321388, 0.399264, 0.62, 0.27, 0.77, 0.17, 0.4, 0.42, 0.00182511, 0.00342352, 0.600864, 0.613763, 0.370265, 0.106973, -0.00714605, -0.234173, 0.676689, 0.29313, 0.46403, 0.361035, -0.0870251, 0.218486, 0.15605, 0.0429087, 0.450166, 0.678689, 0.50748, 0.912395, 0.208182, 0.85, 0.28, 0.43, 0, 0.55, 0.71, 0.7, 0.52, 0.75, 0.311038, 0.429526, 0.408386, 0.409242, 0.893483, 0.361399, 0.509069, 0.464491, 0.801334, 1.0396, 0.229941, 0.741238, 0.542661, 0.415151, 0.893107, 0.63918, 0.57, 0.48, 0.56, 0.7, 0.5, 0.82, 59.7307]
[0.93, 0.99, 0.32, 0.44, 0.31, 0.75, 0.04, 0.5, 0.26, 0.66, 0.38, 0.01, 0.23, 0.43, 0.41, 0.8, 0.95, 0.18, 0.59, 0.63, 0.28, 0.29, 0.88, 0.54, 0.13, 0.79, 0.69, 0.66, 0.79, 0.77, 0.37, 0.02, 0.15, 0.925505, 0.264173, 0.742879, 0.512793, 0.254869, 0.540888, 0.499221, 0.999585, 0.967574, 0.0556541, 0.0699637, 0.115887, 0.942998, 0.691539, 0.808987, 0.0199807, 0.1, 0.28, 0.56, 0.05, 0.65, 0.23, 0.69, 0.15, 0.53, 0.05, 0.84, 0.78, 0.462319, 0.42495, 0.324809, 0.828292, -0.00207554, 0.704666, 0.984513, 0.500933, 1.19592, 0.804871, 1.23122, 0.616845, 0.762115, 0.194865, 0.701536, 0.746397, -0.0520885, 0.0224517, 0.337834, 0.600026, 0.71, 0.27, 0.37, 0.43, 0.68, 0.33, 0.95, 0.714401, 0.0334895, 0.385607, 0.103472, 0.849617, 0.479658, 0.405353, 1.36431, 1.51742, 1.85954, 1.1345, 1.41747, 1.02962, 0.48491, 1.1256, 0.248438, 0.766188, 0.166337, 0.141731, 0.824757, 0.222085, 0.922159, 0.345499, 0.24, 0.94, 0.82, 0.67, 0.238121, 0.0675098, 0.512287, 0.660106, 0.834806, 0.739627, 1.18541, 1.2865, 1.24548, 1.29569, 0.771722, 0.710289, 0.547026, 1.53155, 0.720111, 1.04578, 0.135901, -0.42294, 0.480828, -0.230233, 0.165849, 0.043763, -0.0305762, 0.608954, 0.41, 0.35, 0.974833, 0.247202, 0.114818, 0.316805, 0.31307, 0.287849, 1.0034, 0.956139, 0.264322, 0.402529, 0.416802, 0.898261, 0.99447, 0.9229, 0.271429, 0.334154, -0.361211, 0.973797, 0.449056, -0.564105, -0.628404, -0.199366, 0.0418696, -0.00534868, 0.532066, 0.958398, 0.72, 0.5, 0.41, 0.409786, 0.648275, 0.700637, 0.909766, 0.851006, 0.404391, 0.789522, 0.478486, 1.21887, 0.792299, 0.341819, 0.948897, 1.68918, 1.91487, 0.456026, -0.879821, 0.639597, 0.719865, -0.010336, -0.423403, -0.396748, 0.934969, 0.955087, 0.42423, 0.338971, -0.00397286, 0.43, 0.905106, 0.311068, 0.660181, 0.864329, 1.066, 0.840211, 0.387495, 0.417055, 1.01802, 0.916944, 1.01752, 0.0236053, 0.718306, -0.248143, -0.160186, 0.0781124, 0.146931, 1.48685, 0.594377, 1.00172, 0.076738, 0.599142, -0.0199019, 1.34068, 1.26951, 0.539765, 0.639613, 0.51, 0.128449, 0.754025, 1.19788, 1.00771, 0.672846, 0.738164, 0.455226, -0.152222, 0.250087, 1.44126, 1.43589, 0.187158, 1.13031, 1.42323, 1.35013, 1.49257, 1.24555, 1.17946, 0.728394, -0.695881, 0.692808, 0.696851, 0.242221, 0.884477, 0.621585, 0.613854, 0.228397, 0.839537, 0.694662, 0.736149, 0.853088, 1.1161, 0.345861, 0.424615, -0.355694, 0.628361, 0.295875, 0.0194119, -1.39399, -1.53565, 0.882887, 1.53929, 3.37831, 1.05601, 0.712728, 0.0721298, 0.37122, 0.780178, 1.93751, 1.26909, 0.56705, 0.913282, 1.12373, 0.362351, 0.667284, 0.269087, 0.531368, 0.875126, 1.12207, 1.38598, 1.0289, 0.686226, 0.224534, 0.0305268, -1.34808, -1.01435, -1.73655, -0.804748, -0.440188, 1.60044, 1.41268, 1.2935, 0.797436, -0.533569, 0.512313, 1.29374, 0.815031, 0.521003, 0.362596, 0.541313, 0.861433, 0.696633, 0.184112, 0.649907, 0.388317, 0.360752, 0.611782, 1.19093, 1.01306, -0.561145, -0.275484, -0.171109, -1.24249, -0.78406, -0.274993, -0.555815, 0.196589, -0.622803, -0.0650597, 0.865199, 0.149615, -0.0183222, 0.901336, -0.285258, -1.10245, -1.44454, -1.25037, -0.208191, 0.978666, 0.656969, 0.425088, 0.51, 0.23943, 0.106803, 0.769733, 1.25811, 0.0755726, -0.570134, -1.40825, -1.55876, -0.843646, 0.105955, 0.0609127, -0.10451, -0.512977, 0.0266413, 1.58807, 1.67679, -0.219156, 0.10943, -0.0337124, -0.72085, -0.996554, -1.47735, -1.55316, 0.303048, 0.265563, 0.296798, 0.55, 0.02, 0.827132, 0.594389, 1.05862, 0.658993, -0.051945, -0.0485634, 0.323201, 1.12279, 1.00536, 0.141505, 0.906769, 0.425244, 2.03681, 0.85961, 0.435747, 1.27597, -0.91833, -1.12558, -1.11013, 0.262492, -0.0782966, -0.1852, -0.397517, 0.641456, 0.572219, 0.512259, 0.97, 0.51, 0.01, 0.35401, 0.849121, 0.491381, -0.0561953, -0.181647, 0.883757, 1.80568, 1.96787, 1.6902, 1.50486, 0.93096, 1.61618, -1.75043, -0.610107, -0.120236, 0.152627, 0.859578, 0.690279, 2.02119, 1.36785, 0.621772, -0.484157, 0.732755, 0.522447, 0.495646, 0.8, 0.45, 0.28, 0.545941, 0.193081, 0.240343, 0.662436, 0.522571, 0.00542135, 2.09699, 1.52494, 0.677324, -0.229843, 0.125716, 0.0586804, -0.599965, -0.0476248, -0.889257, 0.779426, 2.67706, 1.28833, 1.88726, 2.7403, 1.16888, 0.398314, 0.797355, 0.602748, 0.0857361, 0.859886, 0.88, 0.749629, 0.313814, 0.95153, 1.14307, 0.966498, 0.0975379, 0.382189, -0.757921, -0.555231, 0.368914, 0.523378, 1.1683, 1.25555, 0.843709, 0.547611, -0.461467, 1.28638, 2.85089, 1.39417, 1.05631, 1.27644, 1.35742, 0.553777, 1.02887, 1.0482, 0.143536, 0.120973, 0.82, 0.83, 0.321225, 1.05967, 1.74783, 0.845157, 0.587346, 0.450139, -1.68712, -1.86621, -2.04542, -1.78386, -0.122755, -0.399816, 0.29343, 0.91459, 1.22665, 1.70771, 2.74958, 0.912623, 0.88147, 1.68154, 1.11973, 0.759344, 0.318461, 0.833108, 0.131422, 0.103572, 0.2, 0.383139, 0.615586, 1.178, 2.03418, 0.909329, 1.9288, 1.14273, -0.26158, -2.22736, -2.61922, -2.58974, -3.29329, -1.88359, 0.013302, 0.0140545, 0.881197, 1.10621, 1.00615, 1.77985, 0.339881, 1.23568, 0.709614, 0.016664, 0.557337, 0.813679, 0.865361, 0.616709, 0.22, 0.59707, 1.19881, 0.895536, 0.822333, -0.271025, 0.974915, 1.60709, 1.69151, 0.929025, -0.183049, 0.248666, -0.311253, -0.77389, 0.355243, 0.992108, 0.596552, 0.076102, 0.606412, 1.02095, 1.04758, 1.66096, 0.593153, 0.066352, 0.306137, 0.474238, 0.293475, 0.953308, 0.42, 0.379468, 0.297866, 1.59883, 1.5793, 0.531049, 0.0359354, 0.502442, 0.803645, 0.636808, 1.24699, 1.06335, 0.206141, 0.57118, 0.040548, -0.14747, 0.529536, 0.495173, 1.151, 1.14509, 0.646461, 0.466259, 0.211967, 0.300915, 0.0907001, 0.944213, 0.0948966, 0.41, 0.3, 0.9, 0.665571, 1.34744, 2.50174, 0.430464, 0.479822, 0.189328, 0.554909, 0.294809, -0.0586985, 0.829453, 0.839454, 1.78118, 0.717471, 0.342007, 0.501398, -0.0512856, 1.59191, 0.990498, 0.409181, 0.790904, 1.08316, -0.0377621, 0.314216, 0.0746717, 0.381321, 0.25, 0.36, 0.8, 0.151037, 1.07578, 1.65776, 0.897925, 0.558302, -0.24473, -0.0493141, 0.70628, 0.565178, 1.05851, 1.07763, -0.381016, -0.892443, -0.375986, 1.43369, 1.25707, 0.00360615, 0.36961, 0.470288, 0.541958, 1.1228, 0.378907, 0.0735839, 0.666752, 0.551833, 0.78, 0.99, 0.734833, 0.497601, 1.22025, 1.55514, 0.893476, 0.180143, -0.166021, -0.249209, 0.789068, 1.58744, 0.425216, 1.40156, 0.140245, -0.508195, -0.600654, -0.479592, -0.750562, -0.155962, -0.374932, 0.354161, 0.564249, 0.816273, 0.717814, 0.771963, 0.228212, 0.78988, 0.01, 0.12, 0.76, 0.64, 0.768313, 1.07095, 0.994124, 0.822707, 0.755321, 1.23175, 0.798031, 0.00489567, 0.664914, 1.11205, 0.510214, 0.435268, 1.04645, 0.267048, 0.203979, -0.00100292, 0.524459, -0.00920948, -0.109661, 0.0244961, 0.824437, 0.464004, 0.77003, 0.75, 0.13, 0.09, 0.71, 0.42, 0.410001, 0.456815, 0.538957, 0.544252, 1.17462, 1.49526, 1.81032, 0.76274, 0.521183, 0.636715, -0.439689, 0.431915, -0.821249, -1.00628, -0.457621, -0.147251, 0.0696834, -0.480449, 0.233369, 0.663916, 0.21393, 0.272212, 0.721707, 0.13, 0.82, 0.4, 0.16, 0.88, 0.19, 0.890355, 0.222487, 0.749306, 0.664289, 0.45545, 0.513388, -0.0068395, -0.778948, -0.793209, -0.171999, -0.0975513, -0.502499, -0.288788, -0.462342, 0.236873, -0.164434, 0.244966, 0.612886, 0.140993, 0.368459, 0.156991, 0.77, 0.52, 0.65, 0.91, 0.38, 0.1, 0.67, 0.55, 0.87, 0.241314, 0.244805, 0.429546, 0.54236, 0.635998, 0.196139, 0.46614, 0.739253, 0.42317, 0.611499, 0.574792, 0.675575, 0.689868, 0.382082, 0.328179, 0.408442, 0.45, 0.18, 0.15, 0.74, 0.52, 0.46, 284.651]
[0.24, 0.66, 0.81, 0.44, 0.4, 0.34, 0.96, 0.76, 0.27, 0.05, 0.18, 0.91, 0.41, 0.65, 0.91, 0.71, 0.59, 0, 0.17, 0.16, 0.43, 0.24, 0.64, 0.05, 0.57, 0.02, 0.66, 0.75, 0.46, 0.32, 0.89, 0.46, 0.45, 0.000737998, 0.338268, -0.111668, 0.081837, 0.414532, 0.833003, 0.566824, 0.674396, 0.252873, 0.67981, 0.431018, 0.756717, 0.505277, 1.01832, 0.94109, 0.232245, 0.32, 0.56, 0.96, 0.1, 0.76, 0.92, 0.5, 0.9, 0.95, 0.52, 0.5, 0.15, 0.325888, 0.500031, 0.589703, 0.935155, 0.464073, 0.300974, 0.601992, 0.906287, -0.030461, 0.217974, 0.583874, 0.559169, 0.0771427, 0.731223, 0.524384, 0.08267, 0.942528, 0.334667, 0.0132873, 0.100042, 0.5, 0.82, 0.21, 0.93, 0.38, 0.54, 0.93, 0.983545, 0.837288, 0.45003, 0.812796, 0.565849, 0.704374, 1.14201, 1.04074, 0.811864, -0.155149, 0.450054, 0.0611089, 0.761009, 0.477274, 1.08317, 0.370342, 0.553312, 0.882189, 1.18841, 0.327193, 0.107771, 0.576349, 0.482048, 0.61, 0.51, 0.18, 0.63, 0.120749, 0.0764794, 0.547276, 0.737429, 0.0582587, 0.0115142, 0.116054, 0.303319, 0.0504017, -0.855373, 0.0617763, 1.25946, 0.475225, 0.921202, 1.38716, 1.16383, 1.20866, 1.43942, 1.02455, 0.306897, 0.765216, 0.715345, 0.842121, 0.652258, 0.46, 0.4, 0.969522, 0.419744, 0.624639, 0.994138, 0.844019, 0.653348, 0.17508, -0.167665, 0.451802, 0.789089, 0.628527, 1.10864, 0.468193, 1.12456, 2.3863, 1.57828, 1.55935, 2.12638, 2.14047, 2.30608, 1.26256, 0.626594, 1.01762, 0.325947, 0.859646, 0.824716, 0.97, 0.09, 0.52, 0.709415, 0.585444, 0.127952, 0.40585, 0.544471, 0.721226, 0.825799, 1.44406, 1.34637, 0.744225, 0.395008, -1.30581, 0.261318, 0.976181, 0.779046, -0.933086, 0.127672, -0.0676861, 0.0366471, 1.36676, 1.29527, 1.29101, 1.0975, 0.459356, 0.0687985, 0.619291, 0.06, 0.514418, 0.788796, 0.401038, 0.191546, -0.360123, 0.264742, 0.610256, 1.11805, 1.5543, 0.772885, 0.761415, -0.614383, -0.501749, -0.47231, -0.543311, -0.41987, 0.168455, -0.999841, -1.39306, -0.26436, -0.239564, 0.185525, 1.4905, 1.85806, 0.91516, 1.08112, 0.780598, 0.36, 0.593182, 0.274468, 0.615601, 0.187464, 0.470617, 0.114349, 1.81999, 1.59743, 0.320197, 0.614616, 1.17693, 1.42804, -0.571469, -1.57777, -0.777769, 0.085068, 0.226872, -0.601286, 0.0354484, -0.221852, 0.308667, 0.435994, 1.71658, 2.30513, 1.94424, 0.947975, 0.484102, 0.158666, 0.802223, 0.235438, 0.396371, 0.228324, 0.491316, 0.643462, 0.282881, -0.181889, -0.338618, -0.10128, 0.185636, 0.242043, -0.365137, -0.444729, -1.53148, -0.910904, -1.25704, -0.839309, 0.390986, 0.690376, 1.29547, 0.640874, 1.29074, 1.68173, 1.8083, 1.20812, 0.685027, 0.195466, 0.425467, 0.243551, 0.235068, -0.156347, 0.0794523, 0.780592, 0.103988, -0.455611, -0.350312, -0.407779, 0.118394, -0.22415, 0.354376, -0.408961, -0.710024, 0.0249313, -1.79128, -0.967327, -0.753896, 0.282735, 1.20478, 0.32536, 0.145622, 0.905859, 1.58386, 0.348411, 0.0402033, 0.824228, 1.02936, 0.604187, -0.1283, 0.397752, 0.391149, 0.39889, 0.00827976, -0.000732944, -0.500986, 0.603879, 0.861004, -0.864328, 0.875668, 1.27611, -0.0294156, -0.0780622, -0.950163, -0.875807, -0.0364658, -0.504948, 0.577818, 0.0610684, -0.201491, -0.488824, 1.13208, 0.508908, 0.668056, 0.75, 0.249698, 0.763908, -0.0662256, 0.0107731, 0.75569, -0.113784, 0.41536, 1.09849, 0.614376, 0.96295, 1.73829, 2.01249, 1.53496, 0.969445, -0.395423, 0.37275, 0.553671, -0.156262, -0.122674, -0.789762, -0.659825, 0.453834, 0.302786, 0.649381, 0.538183, 0.86628, 0.52, 0.21, 0.566685, 0.763133, 0.310431, 0.783528, 0.436382, 0.326451, 0.855862, 0.841166, 0.438993, 0.607949, 1.98722, 1.9647, 0.615628, 0.00587596, 0.500698, -0.665355, -1.20508, -0.539309, 0.279029, 0.129368, -0.0696895, 0.743492, 0.295504, 0.490667, 0.190949, 0.579407, 0.59, 0.8, 0.98, 0.820926, 0.516094, -0.0646306, 0.721734, 0.961558, 1.00628, 0.664585, -0.0610757, 1.25004, 2.01114, 2.20963, 0.961352, -0.598887, -0.114471, -0.386863, -0.142812, 0.589882, 1.18369, 0.953691, 1.0332, 0.998795, 0.436102, 1.02009, 0.255152, 0.964223, 0.26, 0.64, 0.85, 0.658015, -0.0269663, 0.165439, 0.442532, 0.261095, 0.154142, 0.113389, 1.46999, 1.75374, 1.08759, 2.08292, 0.640038, -0.146805, 0.625253, 0.533016, 0.423837, 1.55497, -0.00965127, -0.290588, 1.06485, 1.33777, 0.708059, 0.349271, -0.341376, 0.576604, 0.619787, 0.73, 0.809436, 0.691324, 0.450833, 0.424257, 0.0662798, -0.115547, 0.4275, 0.601722, 1.76733, 2.15772, 1.32165, 1.17363, -0.299328, -0.0269462, 0.540506, 0.119679, 0.433088, 1.11744, 0.769404, 0.726088, 0.723432, 1.14246, 0.604149, -0.105303, -0.368215, 0.227438, 0.778582, 0.06, 0.27, 0.113049, 0.343749, 1.07906, 0.425315, 1.14856, 0.420932, 0.241203, -0.556491, -0.542664, 0.0145105, -0.789009, -0.156866, -0.221851, -0.820221, -0.381185, 0.55587, 0.16324, 0.308432, 1.96924, 1.35916, 0.701248, 0.912765, -0.439697, -0.395582, 0.452347, 0.782629, 0.19, 0.277583, 0.981988, 1.14077, 1.06048, 1.14344, 1.32455, 0.214572, 0.498974, 0.100423, -0.52067, -1.5748, -0.32301, -0.39576, -0.385596, 0.109414, 0.322263, 0.843834, 0.987377, 0.475308, 0.374405, 1.34191, 0.642438, 0.0927093, 0.23309, -0.284169, 0.267097, 0.0846256, 0.35, 0.315585, 0.0654624, 1.09884, 1.19406, 0.861629, 0.987854, 2.04011, 1.96582, 2.51562, 1.55533, 1.41209, 0.899893, -0.0373546, -0.230484, 0.899968, 0.171354, 0.834016, 0.0517797, 0.520353, 0.109008, 1.29368, 0.8706, -0.224682, 0.48275, -0.129811, 0.616611, 0.301014, 0.03, 0.325023, 0.0629634, 1.41786, 1.68048, 0.659854, 0.784746, 0.987014, 1.93856, 1.65984, 2.28826, 1.84163, 1.40217, 0.86124, 0.734457, -0.390752, 0.64586, 0.378375, 0.682336, 1.37563, 0.466811, 0.69329, 0.356322, 0.226309, 0.376684, 0.472878, 0.536644, 0.64, 0.14, 0.46, 0.988662, 0.515402, 0.983483, 1.33269, 1.0934, 1.94255, 1.91818, 1.15292, 1.73421, 1.70696, 0.828699, 0.438132, 0.707811, 0.727674, 1.04117, 0.607943, 1.53548, 1.09377, 0.662679, 0.387626, -0.244887, -0.348797, -0.212022, 0.157851, 0.110422, 0.56, 0.47, 0.56, 0.362825, 0.540745, 0.332121, 0.112205, 0.709135, 1.05148, 1.53035, 0.344398, 1.16648, 1.23359, 1.12862, 1.28288, 1.60983, 1.1598, 0.635129, 0.851093, 1.25198, 1.28849, 0.889937, 0.0729372, -0.192929, 0.0764879, 0.6527, 0.00734715, 0.251959, 0.69, 0.23, 0.989522, 0.14552, 0.0751691, 0.250737, -0.311255, 0.114298, 0.298449, 0.375283, 0.633847, 0.635768, 0.642854, 1.20064, 0.776707, 1.72873, 0.80209, 1.41249, 0.73182, 0.68388, 0.809408, 1.13993, 0.757028, 0.31104, 0.443259, 0.0762945, 0.212559, 0.28988, 0.42, 0.84, 0.72, 0.49, 0.979047, 0.282005, 0.452737, -0.674093, 0.448848, 0.0295077, 1.0764, 1.16827, 1.05635, 1.22767, 0.990225, 1.19136, 0.751581, 0.816278, 0.686711, 0.820876, 0.00265308, 0.427073, 0.298815, 0.179709, 0.211361, 0.915104, 0.729977, 0.6, 0.75, 0.74, 0.85, 0.01, 0.224348, 0.121785, 0.872433, 0.0442379, -0.21463, 0.723536, 0.95607, 0.129676, -0.0215233, 0.275481, 0.480076, -0.520148, -0.103979, -0.469742, -0.294747, -0.50604, -0.749566, -0.426613, 0.60491, 0.0779207, 0.891559, 0.532179, 0.791972, 0.99, 0.22, 0.02, 0.02, 0.69, 0.54, 0.291808, 0.258503, 0.237575, 0.404142, 0.352322, 0.868062, 0.524477, 0.151216, 0.0897345, 0.605147, 0.605474, 0.29636, -0.405845, -0.470528, -0.477632, -0.0729908, 0.273158, 0.379051, 0.39851, 0.550525, 0.606756, 0.07, 0.76, 0.72, 0.45, 0.92, 0.72, 0.28, 0.96, 0.11, 0.34747, 0.276576, 0.182427, 0.0925278, 0.135496, 0.352062, 0.529933, 0.545792, 0.226567, 0.844634, 0.0538536, -0.0193058, -0.000445077, -0.356633, 0.67935, 0.447968, 0.74, 0.91, 0.88, 0.38, 0.64, 0.04, 123.816]
[0.53, 0.42, 0.04, 0.23, 0.52, 0.25, 0.11, 0.42, 0.24, 0.49, 0.35, 0.9, 0.46, 0.28, 0.55, 0.04, 0.41, 0.09, 0.81, 0.79, 0.02, 0.83, 0.92, 0.32, 0.12, 0.99, 0.61, 0.47, 0.05, 0.9, 0.69, 0.59, 0.28, 0.386656, 0.259234, 0.786098, 0.686407, 0.723002, 0.301956, 0.409586, 0.145278, 0.149497, 0.143457, 0.0266471, 0.0322332, 0.844792, 0.0260834, 0.796999, 0.15061, 0.64, 0.26, 0.72, 0.79, 0.93, 0.82, 0.05, 0.36, 0.33, 0.05, 0.87, 0.32, 0.351494, 0.602358, 0.682178, 0.0248382, 0.618381, -0.040043, -0.387174, 0.254978, 0.0761705, 0.899959, 0.68336, 0.686518, 0.663922, 0.814645, 0.590403, 0.776681, 0.577086, 0.384816, 0.164434, 0.670007, 0.58, 0.43, 0.61, 0.03, 0.9, 0.86, 0.26, 0.0425867, 0.0411516, -0.00617195, 0.652635, -0.0627991, 0.187026, 0.67348, 0.25973, -0.161745, 0.0863116, -0.262621, -0.8201, -0.599964, 0.57084, 1.06767, 0.456255, 0.280241, -0.0791212, -0.165286, 0.106903, 0.497374, 0.509149, 0.204754, 0.67, 0.12, 0.34, 0.52, 0.685929, 0.65339, 0.744043, 0.164259, 0.449051, 0.87044, -0.188679, 0.200242, 0.205908, 0.28366, -0.235079, 0.41424, 0.58984, 1.11448, 0.5152, 0.591994, -0.306747, -0.637353, -0.472008, -0.329583, 0.677583, 0.310976, 0.876981, 0.761107, 0.86, 0.3, 0.0880331, 0.398944, 0.21119, 0.343117, 1.16326, 0.918113, 0.86597, 0.124092, 0.0111716, 0.734723, 1.17902, 1.24473, 1.06716, 1.15019, 1.60585, 1.48321, 1.16842, 1.25536, 1.22909, 0.312526, 0.988025, 1.41452, 1.04749, 0.971594, 0.376811, 0.260274, 0.13, 0.53, 0.17, 0.769417, 0.721604, 0.424954, 1.11242, 1.66269, 0.725603, 0.160966, -0.243982, 0.132975, 0.0533028, -0.392436, 0.0839423, 1.53586, 0.641084, 0.931101, -0.0407024, -0.242641, 1.72195, 1.44647, 1.73508, 1.58564, 1.3711, 0.814587, 0.302822, 0.141916, 0.723612, 0.54, 0.513293, 0.331791, 1.32001, 0.753405, 0.905331, 1.16545, -0.115509, -0.977282, -0.308164, -0.568926, -0.464269, 0.579152, 0.345043, 0.42372, 0.816465, 0.316572, -0.555257, 0.894012, 1.57937, 1.82967, 2.18016, 1.39079, 1.00983, 1.77338, 1.53468, 0.182721, 0.55823, 0.18, 0.367616, 0.727935, 0.471551, 1.38809, 0.932295, -0.272101, 0.372903, 0.310717, -0.143369, -0.1811, 0.789654, 0.36809, -1.20838, -1.04162, 0.231084, 0.622037, 0.51009, 0.947798, 1.16887, 0.857951, 1.0791, 0.566967, 1.40572, 1.39191, 1.27197, 0.616338, 0.833706, 0.208829, 1.00574, 0.0926521, 0.234714, 0.814393, 0.12888, 0.0309726, 0.647244, 0.199292, -0.200031, -0.893997, -0.176175, -1.09896, -0.118048, 0.277011, 1.11002, 1.36436, 1.09605, 1.41756, 0.868304, 0.596769, -0.00483598, 0.842546, 0.470859, 0.408021, 1.46406, 0.875521, 0.767265, 0.715697, 0.934169, 0.385847, 0.423944, 0.139517, 0.941864, 0.710045, 0.268733, 0.252476, -1.11426, -1.4989, -1.20412, -0.883913, -0.314355, 1.62383, 1.01028, 1.37352, 0.123821, 0.671202, 0.452467, -0.644896, -1.39785, -0.422786, 0.333442, 0.509227, 0.893464, 1.0055, 0.870468, 0.124279, 0.813377, 0.100228, -0.193003, 0.937727, 0.674668, 0.39503, 0.091054, 0.426899, 0.529732, 0.558892, -0.792841, 0.815059, 0.584593, 1.16555, 1.29486, 0.0921646, -0.331815, 0.115501, -0.514266, -0.787949, -1.10513, -0.396629, 0.0238784, 0.0802669, 0.396018, 0.374347, 0.634153, 0, 0.273914, -0.0790503, 0.169472, 1.249, 0.492535, 0.343944, 0.747354, 0.748498, 1.4655, 0.151088, -1.02614, 0.696573, 1.40861, 3.16407, 1.99048, 0.479853, 1.0256, 0.498056, -0.0710552, -1.36022, -0.558949, -0.196664, -0.118952, -0.435424, 0.738915, 0.425559, 0.7, 0.83, 0.121504, 0.840234, 0.570504, 0.487023, 0.231959, 0.393642, 0.485953, 0.967727, 1.18608, -0.542109, 0.393252, 2.71799, 2.06621, 3.02777, 0.95136, 0.502739, 2.23649, 1.07583, 0.256665, 0.0293348, -0.694818, -0.896365, -0.0397432, 0.0641515, 0.653196, 0.736837, 0.7, 0.9, 0.12, -0.0543001, 0.653205, 0.714164, 0.471228, 0.766252, 0.81534, 0.581638, 0.0649951, 0.0385257, 0.780607, 2.25923, 0.999836, 2.77526, 0.214212, 0.330595, 1.92895, -0.0737308, 0.49666, 0.466571, -0.662389, -0.122729, 0.549933, 0.0666, -0.0933944, 0.533751, 0.66, 0.5, 0.7, 0.452949, 0.237152, 0.352759, 0.524596, 0.707253, 0.531369, 0.402235, 0.411701, 0.937935, 1.96076, 2.90894, 2.69149, 2.00878, 0.0398313, 0.718007, 1.37486, 0.563232, 0.107066, -0.130151, 0.400463, -0.410546, -0.311657, 0.724468, 0.354182, 0.70314, 0.000698692, 0.24, 0.638056, 0.402131, 0.946792, 0.189138, -0.0203415, 0.286742, 1.27457, 1.59498, 0.84455, 0.524446, 1.39727, 1.89444, 2.6924, 2.6265, 0.183345, 1.01836, 1.03465, 0.449295, -0.854316, -0.58137, 0.178766, 0.0767552, 0.12582, -0.280467, 0.00469035, 0.574613, 0.220569, 0.57, 0.53, 0.687389, 0.798898, 1.19589, -0.143545, -0.681027, -0.208235, 0.800219, 0.0530776, 0.846569, 0.399649, 0.424593, 1.46345, 1.07154, 0.0164666, -0.702921, -0.444153, 0.307687, -0.0590784, 1.0684, 1.28147, 0.759221, -0.00894438, -0.376764, 0.740405, 0.267587, 0.694732, 0.93, 0.284449, 0.266272, 1.44958, 0.940929, 0.752628, -0.798775, -0.247015, -0.088689, 0.777665, -0.0637438, -0.491015, 0.219504, 0.349521, 0.117673, -0.765622, 0.78802, 0.938579, -0.367546, 0.464571, 1.20104, 0.740196, 1.10113, 0.0109877, 0.567417, 0.685565, 0.994352, 0.385691, 0.17, 0.0278099, 0.826793, 1.23731, 0.931113, 0.7497, -0.05957, 0.469757, 0.462258, 0.764245, 0.123932, 0.465489, -0.384727, -1.05006, 0.453741, 0.725382, 0.747519, 0.981697, -0.429516, 0.576587, 1.50146, 1.06237, 0.0937277, 0.115946, 0.971638, 0.0895274, 0.590529, 0.497067, 0.58, 0.736985, 1.03122, 0.980502, 1.18158, 1.15342, 0.87632, 0.646763, 0.538164, 0.0959434, 0.112297, -0.652085, -1.13239, -0.95503, 0.19806, 0.613456, 1.01002, 0.526938, 0.213141, 0.714119, 0.36683, 0.0210604, 0.755444, 1.02539, 0.30604, 0.357521, 0.89295, 0.22, 0.36, 0.9, 0.31187, 1.0287, 1.29895, 1.29488, 1.37951, 1.72582, 0.473709, 0.312413, 0.251929, -0.310884, -0.919164, 0.408217, 1.15165, 0.661607, 0.835857, 0.944103, 0.462327, 0.68086, 0.907277, 0.685984, 0.694019, 0.971444, 0.18948, 0.195724, 0.589182, 0.47, 0.46, 0.71, 0.837454, 0.580522, 0.804923, 1.06988, 1.22948, 1.15032, 0.549291, 1.21533, 0.695025, -0.145511, -0.0483287, 0.234371, -0.18341, 0.744344, 0.190386, 0.61318, 0.738399, 1.04141, 0.600617, -0.138875, 0.752225, 0.703109, 0.534321, 0.474801, 0.693186, 0.94, 0.16, 0.288034, 0.243493, 0.481264, 0.348923, 1.32825, 0.971599, 1.24215, 0.628798, 1.97631, 2.03934, 2.18904, 1.78527, 2.30482, 2.20664, 1.47703, 1.34281, 1.56956, 1.43481, 0.938941, 1.04725, 0.655634, 0.984696, 0.148082, -0.0105602, 0.621009, 0.959954, 0.41, 0.5, 0.32, 0.72, 0.711798, 0.706737, -0.0137412, 0.49611, 0.817614, 1.11963, 0.659544, 0.0275636, 0.729887, 0.57477, 0.529301, -0.187481, 0.567518, 1.46152, 0.693451, 1.21409, 0.699812, 0.598867, 1.00852, 0.727949, 0.325443, 0.81805, 0.609957, 0.95, 0.51, 0.66, 0.83, 0.1, 0.58714, 0.729235, 0.740157, -0.341249, -0.435143, -0.0638663, -0.142566, -0.992123, -1.02067, -0.156235, -0.585885, -0.916376, -0.0814528, -0.807642, -1.13719, -0.360296, 0.218411, 0.730245, 1.01187, 1.02604, 0.510776, 0.809799, 0.671223, 0.74, 0.84, 0.29, 0.35, 0.6, 0.05, 0.10935, 0.766762, -0.0318834, 0.196074, 0.168394, 0.472931, 0.0473059, 0.615447, 0.0131108, 0.311177, 0.564823, -0.601737, -0.332398, -0.137742, -0.297743, -0.216193, 0.293135, 0.137876, 0.517304, 0.915007, 0.602932, 0.82, 0.36, 0.19, 0.7, 0.79, 0.25, 0.19, 0.09, 0.01, 0.307932, 0.172762, -0.0685246, 0.0595947, -0.228312, 0.550235, 0.527538, 0.834153, 0.516486, 0.513315, 0.0514675, 0.181989, 0.59175, 0.127223, 0.859503, 0.241372, 0.11, 0.67, 0.65, 0.4, 0.79, 0.55, -294.71]
[0.61, 0.32, 0.27, 0.6, 0.39, 0.66, 0.37, 0.48, 0.48, 0.04, 0.48, 0.65, 0.21, 0.33, 0.75, 0.41, 0.14, 0.47, 0.62, 0.54, 0.76, 0.54, 0.58, 0.21, 0.84, 0.88, 0.66, 0.16, 0.56, 0.8, 0.29, 0.37, 0.29, 0.904378, 0.519292, 0.099781, 0.0983124, 0.927296, 0.28778, 0.95291, 0.395317, 0.485726, 0.754588, 0.224586, 0.647045, 0.672983, 0.907777, 0.581365, 0.791386, 0.83, 0.87, 0.23, 0.97, 0.96, 0.94, 0.01, 0.53, 0.2, 0.03, 0.72, 0.2, 0.337195, 0.574205, 0.197544, 0.429615, 0.792931, 1.019, 0.68279, 1.25907, 1.36849, 1.23241, 1.48525, 1.18048, 0.560207, 0.515172, 0.98387, 0.550399, 0.0593143, 0.47284, 0.326936, 0.030002, 0.1, 0.4, 0.27, 0.1, 0.27, 0.82, 0.93, 0.871932, 0.628775, 0.517979, 0.625429, 1.18882, 0.94098, 0.911292, 1.67412, 1.89232, 1.36884, 1.52603, 1.29184, 1.3857, 0.793748, 0.670669, 0.882476, 0.305377, 0.108175, 0.414086, 0.614269, 0.58659, 0.962438, 0.413882, 0.34, 0.41, 0.19, 0.52, 0.601635, 0.0813345, 0.0981821, 0.931732, 0.325413, 1.20783, 1.39654, 1.58114, 1.91199, 2.00155, 1.36561, 1.02152, 0.888398, 0.296122, -0.220444, 0.380425, 0.543103, 0.392062, 0.84662, 0.930495, 0.202287, 0.129817, 0.222704, 0.323937, 0.48, 0.1, 0.94941, 0.189674, 0.459014, 0.789778, 0.599868, 0.444624, 0.808641, -0.0712493, 0.523388, 0.755709, -0.0732699, 0.4189, -0.0239901, -0.0244736, -1.44872, -2.49571, -2.23269, -2.78304, -1.2999, -1.30978, -1.03964, -0.434434, 0.234838, 0.104312, 0.601156, 0.398264, 0.45, 0.28, 0.94, 0.260534, 0.763178, 0.307316, 0.0228446, -0.362227, -0.326973, -0.172557, -0.451686, 0.12029, 1.08448, 1.65263, 2.15071, 1.35998, 2.20596, 0.810866, 1.52321, 0.376889, 0.87913, -0.72126, -1.2748, -1.01006, -1.03462, -0.540027, 0.397936, 0.794425, 0.648759, 0.49, 0.349452, 0.643395, 0.30497, 0.442686, -0.0590605, 0.0486344, -0.192393, -0.464294, 0.0460006, 0.775557, 1.40584, 2.88854, 2.49419, 2.70053, 2.41435, 1.53511, 1.77812, 1.68424, 0.525669, 0.640059, 0.550279, 0.292312, -1.59526, -0.791273, 0.416223, 0.534759, 0.0308913, 0.11, 0.704404, 0.225088, -0.0743919, -0.33908, 0.167371, -0.300083, -0.987748, -0.6573, 0.512516, 0.328371, 0.125433, 0.758455, 2.39948, 2.30731, 2.79008, 0.893651, 1.02288, 1.53104, -0.535688, 0.373971, 1.06362, 0.568515, -0.389922, -0.0035641, 0.265222, 0.516496, 0.974036, 0.276193, 0.320325, 1.02573, 0.984886, 0.318331, -0.327501, -0.676948, -0.000434057, 0.898775, 1.12767, 0.886439, 0.23517, 0.687289, 1.26111, 1.95415, 1.63508, 0.880772, -0.0474448, -0.35285, 0.183394, 0.241238, 0.383998, 0.0252433, 0.772482, 1.67433, 0.683277, 0.895967, 0.927799, 0.256247, 0.170344, 0.566203, 0.282634, 0.766251, 0.719224, 0.83948, 1.38399, 1.45057, 1.72832, 1.7391, 1.05959, 1.33649, 2.4277, 0.602958, -0.794911, -1.25986, 0.296758, 1.02145, 0.662405, -0.0510357, 0.0149092, 0.540029, 0.550885, 0.79502, 0.821405, 0.393456, 0.263456, 0.224376, 0.533128, 1.00987, 1.20084, 0.975638, 0.888087, 2.32755, 2.03945, 1.46319, 2.48199, 1.3012, 2.24322, 1.78389, 1.71766, 1.00528, 0.895162, -0.0347185, 1.1347, 0.783618, 0.130113, 0.545546, 0.856825, 0.497912, 0.839681, 0.96984, 0.959909, 0.879849, 1.02445, 0.71, 0.26063, 0.0283765, 0.62355, 0.574958, 1.43805, 2.09347, 2.74756, 1.00842, 1.11898, 1.54859, 0.962248, -0.920899, 1.37421, 2.42174, 1.98389, 0.62284, 0.627129, 2.00312, 1.92409, 2.30783, 1.72273, 0.609149, 0.806931, 0.053135, 0.265326, 0.300806, 0.01, 0.73, 0.0640073, 0.74525, 0.783698, 1.07242, 1.20834, 0.756208, 1.2853, 0.529367, 0.107532, 1.33876, -0.863241, -0.751762, 2.16818, 1.41394, 1.82959, 1.98218, 0.650105, 1.24073, 1.14208, 1.62713, 1.55418, 0.0228348, 0.470901, 1.06691, 0.334065, 0.427526, 0.19, 0.81, 0.7, 0.918892, 0.237602, 1.05424, 0.0476564, 0.57022, 0.645903, 1.45251, 0.775357, 1.18086, -1.0372, -0.58941, 1.50976, 0.628816, 2.1112, 0.938557, 0.854525, 0.0452598, -0.42826, 1.35378, 0.697197, -0.548631, 0.143215, 0.344875, 0.850147, 0.396835, 0.98, 0.77, 0.98, 0.483323, 0.782362, 1.09544, 0.0651295, -0.90806, 0.159468, 0.513265, -0.30222, -0.136551, -0.469211, -0.544723, -0.773273, -0.437891, 0.919629, 1.05142, -0.874031, -1.70193, 0.215474, 0.840041, -0.170651, -0.059592, 0.0778855, 0.288524, 0.375023, 1.07516, 0.989587, 0.92, 0.53761, 0.215317, 0.354011, 1.01744, -0.737533, -0.559474, 0.171902, 0.025588, -0.950535, 0.0556713, -0.466466, 1.73514, 0.880249, -1.13606, -0.839049, 0.546216, 0.187852, 0.188537, 0.0807864, 0.651768, 0.738702, 0.359976, 1.1969, 0.904185, 0.552993, 0.50244, 0.20925, 0.4, 0.4, 0.601244, 0.808584, 0.499338, -0.420105, 0.349903, 0.36865, 0.821304, -0.00936192, -0.310121, 0.140532, 0.332222, -0.948232, -1.023, 0.640344, 0.494653, 0.665562, 0.897159, 0.724846, -1.35964, -0.194756, 0.384495, 0.503966, 0.536679, 0.813335, 0.566119, 0.158727, 0.84, 0.681681, 0.16489, -0.0762422, 0.360606, 0.444947, 0.634906, 0.425682, 0.921464, 0.358473, 0.392462, -0.23893, -0.134178, -1.00387, -0.397975, 1.3397, 0.919518, 0.869977, 1.67067, 1.37992, 0.279536, -0.328582, 0.0981248, 0.488905, 0.119071, 0.0149485, 0.286602, 0.665068, 0.65, 0.802212, 0.775678, 0.580734, -0.266953, -0.362843, 0.41, -0.887461, -0.51374, -0.888315, -1.31494, -0.524632, 0.12505, 0.626289, 0.47557, -0.0897641, 0.59908, 0.773452, 0.999172, 1.28532, 0.912794, 0.474461, -0.146734, 0.867123, 0.33839, 0.621194, 0.750381, 0.709023, 0.43, 0.646196, 0.666719, 0.380008, 0.426695, -0.152104, -0.596929, -1.53781, -2.26785, -1.56055, -1.20992, -0.200824, -0.78347, 0.472742, -0.792575, -0.523752, 0.712578, 0.52265, 0.319805, 0.0991406, 0.858535, 0.369958, 0.384106, 0.996337, 0.812649, 0.104652, 0.865664, 0.95, 0.45, 0.12, 0.363748, 0.238056, 0.12476, 0.122926, -0.942264, -1.63099, -1.87762, -1.86199, -1.12952, -0.92851, -0.122727, 0.250248, 0.242845, 0.168459, 0.0495725, 0.415176, -0.0802343, 0.115065, 0.186604, 0.635675, -0.234376, 0.446209, 0.15236, 0.737754, 0.218815, 0.52, 0.37, 0.35, 0.973801, -0.00914046, 0.39981, 0.0158768, -0.72996, -1.13193, -0.438385, -0.45273, 0.281334, -0.327726, 0.0688646, 0.557836, -0.524643, -0.236169, -0.558477, -0.0709024, -1.07113, -0.620164, 0.0586133, 0.0582602, 0.421608, 0.299258, 0.826547, 0.950917, 0.786483, 0.69, 0.72, 0.14941, 0.488925, 0.307158, 0.388791, 0.156665, 0.118271, -0.244205, 0.272829, 0.439025, 0.213301, 0.512778, -0.544357, -0.705438, -0.618786, -0.29913, -0.354397, -0.901978, -0.185847, -0.122429, -1.2982, 0.273977, 0.427484, 0.14524, 0.564482, 0.201895, 0.729909, 0.79, 0.09, 0.62, 0.24, 0.748953, 1.01188, 1.12938, 0.968992, 1.5435, 1.39499, 1.00482, 1.25263, 0.589287, -0.289906, -0.357294, -0.0800055, 0.667686, 1.38399, 0.361589, 0.342531, 0.515798, 0.671102, 1.11669, 1.05958, 0.019459, 0.323006, 0.67999, 0.84, 0.17, 0.64, 0.16, 0.14, 0.664994, 1.10344, 1.06097, 1.23657, 1.6372, 2.50972, 1.71434, 2.56074, 3.05078, 2.75153, 2.26781, 3.00907, 3.10391, 3.00873, 3.10191, 2.35707, 1.78834, 1.34157, 1.53506, 0.781457, 0.0840819, 0.302093, 0.382101, 0.91, 0.39, 0.53, 0.48, 0.67, 0.54, 0.771791, 1.00508, 1.20116, 1.12684, 0.997583, 1.06901, 0.890428, 1.64735, 1.34267, 1.52831, 0.37646, 1.10763, 1.86664, 2.05907, 1.34985, 1.90907, 1.19335, 1.21321, 0.939235, 0.126336, 0.895579, 0.84, 0.03, 0.6, 0.62, 0.32, 0.92, 0.43, 0.63, 0.23, 0.112838, 0.473324, 1.00716, 0.530218, 0.917187, 0.444109, 0.574555, 0.143265, 0.745972, 0.589571, 1.12061, 0.842421, 0.375541, 1.01792, 1.12345, 0.0833653, 0.78, 0.38, 0.23, 0.05, 0.11, 0.93, -72.79]
[0.43, 0.27, 0.14, 0.9, 0.16, 0.01, 0.39, 0.44, 0.36, 0.12, 0.74, 0.33, 0.4, 0.01, 0.83, 0.35, 0.28, 0.33, 0.37, 0.34, 0.77, 0.71, 0.22, 0.63, 0.59, 0.4, 0.68, 0.82, 0.48, 0.66, 0.9, 0.27, 0.58, 0.762767, 0.38771, 0.269399, 0.332857, 0.563385, 0.746591, 0.568721, 0.0526033, 0.863079, 0.166703, 0.676042, 0.0144567, 0.256816, 0.860713, 0.866481, 0.638985, 0.73, 0.48, 0.58, 0.8, 0.87, 0.64, 0.13, 0.13, 0.52, 0.7, 0.78, 0.66, 0.126167, 0.396152, 0.500171, 0.663815, 0.177887, 0.57125, 0.627138, 0.260434, 0.431855, -0.0514201, 0.481204, 0.673892, 0.61385, 0.0861574, 0.574684, 0.814108, 0.31183, 0.689765, 0.335317, 0.929926, 0.36, 0.46, 0.38, 0.56, 0.03, 0.14, 0.99, 0.382592, 0.220087, 0.640865, 0.0415963, -0.00709116, 0.400588, 0.0287457, 0.130167, 1.05595, 0.6535, 0.635866, 0.249861, 0.207978, -0.224926, -0.184554, -0.203185, 0.430609, 0.580807, -0.0307332, 0.755649, 0.692156, 0.654112, 0.652201, 0.13, 0.66, 0.3, 0.06, 0.07707, 0.868709, 0.591966, 0.740885, 0.379967, 0.686996, 0.0847916, 0.451676, 1.27134, 2.23251, 1.87554, 1.01156, 0.519573, 0.900414, 0.0216955, -0.909682, 0.286369, 0.447531, 0.873821, -0.191261, 0.0896587, 0.76006, 0.137683, 0.519739, 0.15, 0.18, 0.429065, 0.879488, 0.980417, -0.0759361, 0.655571, 0.280605, 0.368703, 1.12752, 0.411952, 1.13157, 0.808263, 2.19103, 2.85441, 1.02782, 0.736724, 0.941864, 2.17574, 1.48048, 1.02558, 0.686764, 0.200329, 0.76271, 0.0721211, 0.041979, 0.760331, 0.453027, 0.14, 0.36, 0.83, 0.319862, 0.916233, 0.435886, 0.013835, 0.60523, 0.277427, 0.925795, 0.604506, -0.0973804, 0.982884, 1.25129, 2.00479, 0.643424, 0.777514, 0.513786, 0.531086, 1.4289, 0.380607, 0.645374, -0.231371, 0.275486, -0.153016, -0.538768, 0.0690544, 0.94044, 0.262162, 0.63, 0.266412, 0.460595, 0.729788, 0.548011, 1.69383, 0.000644707, -0.425558, 0.11377, -0.586898, 0.447655, -0.114268, 0.24135, 1.52195, 1.90042, 2.17549, 1.63573, 0.638379, 0.707722, 1.65386, 0.469786, 0.0230627, 0.916504, -0.933037, -1.14746, -0.0786503, 0.316427, 0.628375, 0.46, 0.229933, 0.282277, 0.0822692, 0.805232, 0.758406, 0.213227, -0.903443, 0.496479, 0.575118, 0.559315, -0.48199, -0.655587, 0.0825412, 2.19287, 1.03785, 1.25955, 0.539289, 0.147877, 0.764509, 0.740188, -0.261509, -0.1989, -1.02751, -1.58835, -0.0877402, 0.212329, 0.993654, 0.412586, 0.409395, 0.691208, 0.717397, 0.570763, 0.820402, 0.680015, 0.556488, 2.30797, 1.23347, 0.830167, 1.39796, 0.740014, 1.33895, 1.08993, 1.76115, 0.720131, 1.57895, 0.714865, 0.502184, 0.495369, -1.0177, 0.338554, 0.770618, -0.417827, -0.939708, 0.0766032, 0.664707, 0.387972, -0.0261466, 0.671662, 0.245371, 0.825772, 0.280906, -0.586514, -0.0984073, 0.940906, 1.25298, 0.14075, 0.220698, 0.970065, -0.565213, 0.760765, 1.27013, 0.390291, 1.86931, 0.1783, -0.432854, 0.163254, -0.293642, 1.31353, 1.68155, 0.472861, 0.385573, 0.0962913, 0.692676, 0.218, 0.412328, 0.33583, 0.658541, -0.114044, -0.844123, -1.04816, -1.4428, -0.209732, -0.818188, -1.4174, -0.818821, 0.0752463, -1.45495, -1.10331, -0.379598, -0.349815, 0.320866, -0.886993, 0.843214, 0.106871, 0.419786, 0.979283, 1.48008, 1.83135, 1.12078, 0.939568, 0.981704, 0.72, 0.0544514, 0.615141, 0.587735, 0.183079, -1.50855, -1.32493, -1.23332, -1.39925, -2.3656, -2.73598, -1.1847, -1.1044, -0.33056, -0.966981, -0.447463, -0.663708, -0.488845, -0.937456, 0.913401, -0.191954, -0.0919017, 0.444193, 1.32864, 1.72425, 0.347363, 0.982547, 0.4, 0.23, -0.0200761, 0.398752, 0.605357, -0.663154, -1.86607, -1.68906, -1.61336, -1.17478, -1.30977, -0.481733, -0.804401, 0.999752, 0.653295, 1.88291, -1.09188, -0.93357, -0.570527, 0.591906, 0.51878, -0.418194, -0.491914, -0.712944, 0.821085, 1.23923, 0.704444, 0.335316, 0.62, 0.65, 0.11, 0.228859, 0.0879477, -0.00751137, -0.963789, -1.2917, -0.835791, -0.412584, -0.316966, 1.03008, 0.825705, 1.01156, 0.733908, 1.5817, 0.040316, -1.2495, -0.70747, 0.0887987, 0.0809217, -0.795054, -0.454265, -0.532029, 0.360806, 0.602764, 0.978886, 0.984896, 0.28, 0.41, 0.59, 0.179822, 0.266567, 0.214248, 0.504141, 0.246592, 1.04322, 1.06232, 0.849455, 0.0104401, 1.4141, -0.0443806, 0.229942, 1.91876, -0.582644, -0.731242, -0.908703, -0.788233, -0.272155, -0.47074, -0.45119, -1.07804, -0.179178, 0.362696, 0.979419, 0.556003, 0.489994, 0.94, 0.292675, 0.271071, 0.152935, 0.612831, 1.53659, 1.52497, 0.584793, 0.635068, 1.62908, 1.75429, 1.98951, 0.0694506, 1.15986, 2.00471, -0.539549, -0.687311, -0.585302, -0.75304, 0.12246, 0.187178, -0.0285047, 0.201322, 0.408753, 1.52421, 1.80107, 0.487009, 0.0544741, 0.15, 0.13, 0.325884, 1.26778, 1.24351, 2.22466, 1.69338, 0.689501, -0.160063, 1.35954, 0.99287, 0.762078, 0.34089, 0.472346, 1.12336, 1.11285, 1.10447, 0.221274, -0.675279, 0.257582, -0.34981, 1.50169, 1.05423, 1.26011, 2.25998, 1.62251, 0.511323, 0.927198, 0.01, 0.864835, 0.977416, 1.02811, 1.28834, 1.66463, 1.03545, 1.52401, 0.799653, 0.436625, 0.573236, 0.865645, 0.62196, -0.350967, 0.994117, 0.436961, 0.978827, 0.618838, 0.0994787, 0.541693, 2.28367, 2.00505, 1.64837, 2.29577, 1.93897, 2.13105, 0.914107, 0.811976, 0.68, 0.201694, 0.856117, 0.296871, 1.37614, 1.62126, 0.902293, 0.337534, 1.20384, 1.04834, 1.10462, 1.71068, 1.50465, 0.95375, 1.32109, 0.475252, 0.47309, 1.01693, 1.78693, 1.77837, 3.13139, 0.877787, 1.87436, 2.22376, 1.88999, 1.00684, 1.01325, 0.0182128, 0.38, 0.334239, 0.301922, -0.09699, 0.544062, 1.84011, 0.465901, 1.19774, 1.56348, 1.2368, 0.887655, 0.662301, 0.704218, 0.439138, 1.03122, 0.0537187, -1.18542, 0.399975, 0.869818, 1.56642, 2.01345, 2.25833, 1.29886, 0.992658, 1.14777, 1.01887, 0.255334, 0.73, 0.33, 0.52, 0.118098, 0.366049, 0.987677, 1.23634, 1.44013, 1.15217, 0.718917, 0.693514, -0.344088, 0.335655, 1.08994, 0.391474, 0.169348, -0.0299857, -0.047239, 1.26787, 0.722454, 0.92706, 1.5889, 0.758087, 1.49988, 1.03555, 0.743665, 1.26817, 0.650977, 0.66, 0.03, 0.79, 0.946605, 0.78189, 1.30934, 0.970585, 1.30351, 1.45047, 1.13545, 1.06693, 1.25656, 1.18802, 0.974497, 1.31567, 1.20419, 0.151559, 0.319049, 0.219821, 1.10953, 0.996025, 0.739693, 1.16415, 0.998216, 1.11704, 1.17636, 0.348665, 0.56758, 0.97, 0.92, 0.209065, 0.173219, 0.24407, 1.10645, 1.28027, 1.48661, 1.47283, 0.806377, 0.54243, 0.68967, 0.996618, 0.676716, 0.889421, 1.20451, 0.0304741, 0.182295, 0.196917, 0.257127, 0.305526, 0.247935, 0.296105, 1.22276, 1.16912, 0.732555, 0.898584, 0.920252, 0.99, 0.76, 0.61, 0.42, 0.342161, 0.431949, -0.343882, -0.0983589, -0.233182, -0.675105, -0.855403, -1.67506, -0.444758, -0.562265, -0.14085, -0.271953, -0.0628876, 0.0533158, -0.187435, -0.958741, -0.256397, -0.0213073, 0.0799563, 0.734054, 0.336682, 0.702448, 0.330099, 0.29, 0.27, 0.54, 0.28, 0.19, 0.837979, -0.0969465, 0.369038, -0.539911, -0.21656, -1.01563, -1.65392, -1.03931, -0.196091, -0.630863, -0.0268133, 0.313764, -0.00938956, 0.636927, 0.0686196, 0.271, 0.267212, 0.0538227, 0.3817, -0.0235301, 0.128961, 0.131757, 0.478478, 0.93, 0.29, 0.87, 0.8, 0.85, 0.64, 0.334197, 0.747346, 0.0757976, 0.078199, 0.892834, 0.633349, 0.86136, 0.48101, 0.49935, 0.405954, 1.01923, 0.573273, 0.393884, 0.858472, 0.501767, 0.245303, 1.00625, 0.506394, -0.016992, 0.386319, 0.0379684, 0.29, 0.15, 0.65, 0.5, 0.32, 0.83, 0.19, 0.96, 0.39, 0.77895, 0.354874, 0.38038, 5.88759e-07, 0.0177435, 0.13653, 0.680864, 0.461463, 0.0721008, 0.247719, 0.711436, 0.713279, 0.748595, 0.267336, 0.376744, 0.978935, 0.73, 0.38, 0.15, 0.02, 0.41, 0.85, -69.1959]
[0.11, 0.66, 0.27, 0.83, 0.3, 0.65, 0.82, 0.82, 0.31, 0.35, 0.9, 0.12, 0.56, 0.02, 0.48, 0.13, 0.26, 0.97, 0.64, 0.15, 0.93, 0.07, 0.37, 0.18, 0.38, 0.24, 0.7, 0.83, 0.45, 0.28, 0.59, 0.83, 0.21, 0.351531, 0.48529, 0.413203, 0.116069, 0.723795, -0.0367756, 0.331818, -0.091904, 0.715075, 0.700102, -0.0432422, 0.289617, -0.0445743, 0.677046, 0.384744, 0.567551, 0.68, 0.56, 0.85, 0.92, 0.22, 0.33, 0.35, 0.83, 0.27, 0.99, 0.61, 0.9, 0.316727, -0.0832491, 0.828544, 0.660785, -0.130928, 0.476088, -0.0624289, -0.361181, -0.00246505, 0.515334, 0.0587715, 0.661653, -0.108668, 0.0864613, 1.03062, 0.357554, 0.826149, 0.251157, 0.544804, 0.599993, 0.33, 0.52, 0, 0.03, 0.88, 0.98, 0.75, 0.7025, 0.0501981, 0.965229, 0.46991, 0.427488, 0.203473, -0.273005, 0.165344, -0.456255, 0.029024, -0.265432, 0.48605, 0.464987, 0.754154, 0.706879, 1.04801, 0.572524, 0.523414, 0.0370326, 0.13121, 0.28992, 0.210028, 0.972845, 0.7, 0.14, 0.1, 0.55, 0.34792, 0.688838, 0.181539, 0.286714, 0.276297, 0.23195, -0.540001, -0.653723, 0.193932, -0.168604, -0.159128, -0.430883, 0.289096, -0.122754, 0.459781, 0.59275, 0.632252, -0.501633, 0.136514, 0.934757, 0.731486, 0.30107, 0.629938, 0.504189, 0.35, 0.03, 0.450871, 0.0904808, 0.149209, 0.387284, 0.285086, 0.545731, 0.277123, 0.0683175, -0.367582, 0.122543, 0.379981, -0.57562, -0.510782, 0.248668, 1.05707, 0.67676, 0.288935, 0.330017, -0.311874, -0.123707, 0.729328, 1.1682, 1.23045, 1.3107, 0.120513, 0.236502, 0.35, 0.77, 0.75, 0.0501978, 0.465484, 0.341357, 0.583378, 0.185181, 1.03611, 0.0982442, 0.40238, 0.237343, 0.18506, -0.467409, -0.506826, 0.00367573, 0.457798, 0.158644, 0.245685, 0.493254, 0.704341, 1.60404, 2.15036, 1.7931, 1.51225, 1.37359, 0.743882, 0.401605, 0.144554, 0.68, 0.661034, 0.233783, 0.482346, 0.201751, -0.148853, 0.715594, 0.383528, -0.0197395, 0.109583, 0.444858, 1.08416, -0.235927, -0.347349, -0.574843, -0.285237, 0.20537, 0.5674, 0.872862, 1.59954, 1.56316, 1.31412, 1.3699, 2.06342, 1.7827, 0.422537, 0.831033, 0.582658, 0.65, 0.323611, 0.684163, 0.205455, -0.0838233, 0.735284, 0.175513, 0.627622, -0.297753, 0.409593, 0.62114, 0.938223, 0.981645, 0.83114, -0.361855, -0.039799, 0.764338, 1.00432, 1.71888, 1.46281, 0.322523, 1.25856, 2.14357, 2.25134, 1.37143, 0.501275, 0.586727, 0.261439, 0.737225, 0.886113, 0.462934, -0.119452, -0.431091, -0.211882, 0.355325, 0.0879645, 0.170696, 0.309095, 0.214222, 1.13509, 0.705439, 0.737875, -0.21556, -0.151733, 0.699736, 0.650765, 0.646781, 0.729786, 0.217593, 0.379084, 1.01025, 1.10404, 0.981685, 1.21959, 0.481831, 0.805308, 0.185499, 0.396929, 0.37803, 0.478293, 0.340912, 1.02358, 0.430377, 0.742464, 0.158272, 0.259543, 1.20538, 0.651824, 0.209008, 0.773371, 0.0777672, 1.21704, 0.889156, -0.0726053, 0.674324, 0.0640972, 0.750851, -0.395642, 0.203612, 0.328355, 0.111043, 0.541165, 0.557157, 0.72152, 0.429252, 0.6293, 0.685332, -0.219337, 0.512414, 1.25992, 1.5343, 1.32923, 0.916508, 1.71245, 1.48096, 1.31542, 1.14309, 0.332816, 0.670362, 0.401179, -0.0675293, 0.425864, 0.22989, 0.129664, 0.0523523, -0.599702, -0.681154, 0.133751, 0.0233686, 0.556521, 0.55582, 0.154197, 0.1, 0.792992, 0.75613, 0.7308, 1.135, 1.65474, 2.10061, 1.34642, 1.97358, 1.78534, 1.83548, 1.54003, 1.9577, 1.26683, 0.323693, 0.347037, -0.120241, 1.03402, 0.609019, -1.06097, 0.0447131, 0.218277, 0.114895, -0.204654, 0.0718124, 0.767641, 0.931345, 0.66, 0.6, 0.919792, 0.713969, 0.692763, 0.724544, 1.54919, 2.35548, 2.36118, 1.42749, 1.52934, 1.59931, 1.39586, 0.53057, 0.134266, -0.578233, 0.605968, 0.218926, 0.777917, 0.541212, 0.186119, 0.04782, 0.444574, 0.963779, 0.119403, -0.305075, 0.671932, 0.330635, 0.95, 0.3, 0.49, -0.0498364, 0.0722317, 1.62714, 2.11731, 1.60068, 2.2044, 1.5023, 1.92936, 0.276103, 0.404777, 0.117535, -0.0278142, 0.200781, -0.0920826, 0.436467, 1.10995, 1.06472, 0.505487, 0.0768476, -0.114342, 1.14322, 0.514099, 0.661735, 0.277567, 0.201063, 0.12, 0.23, 0.14, 0.739193, 0.0420287, 0.594888, 1.96728, 1.68101, 1.6268, 0.913281, 1.36095, 1.67256, 0.263434, 0.317213, 1.19949, 0.806051, 0.220299, 0.122725, 1.81812, 1.2551, 0.908683, 0.243377, 0.516851, 1.56085, 1.40498, 0.785071, 0.644865, 0.405397, 0.840762, 0.33, 0.00290461, 1.03041, 0.498381, 0.926581, 0.187058, 0.584914, 1.0443, 1.73232, 1.04681, -0.00705305, -0.197696, 0.198829, 0.155001, -0.103842, 0.705424, 1.34193, 0.850696, 0.310269, 0.576113, 0.51231, 0.307313, 1.02214, 0.64902, 0.701207, -0.0873857, 0.10011, 0.958283, 0.17, 0.11, 0.728108, 0.0914759, 0.426914, -0.323011, 0.473867, 1.17982, 1.24322, 0.888692, 0.376124, -0.210687, -0.928769, -0.0959288, 0.282094, 0.254589, 0.100327, 0.191824, 0.263068, -0.281139, 0.536681, 0.232115, -0.124962, 0.0529942, -0.214025, -0.25419, 0.911226, 0.2618, 0.8, 0.0020353, 0.788476, -0.100335, -0.417231, -0.482379, -0.356555, 0.341739, -0.0582752, 0.587358, 0.665429, 0.885125, 0.278189, 0.93421, 0.860725, 0.761031, 0.0395913, -0.0436702, 0.489639, 0.0805858, -0.31245, 0.206025, -0.243036, 0.195793, 0.263989, 0.189967, 0.231466, 0.91566, 0.27, -0.0270712, 0.756541, 0.183579, -0.0547635, 0.0334203, 0.676154, 0.165362, -0.644403, 0.36708, -0.43954, -0.691352, -0.196873, -0.225315, -0.0203554, 0.315673, 0.739078, 0.284677, 0.0257584, -0.0209591, -0.0342965, 0.102335, 0.0209353, -0.336605, -0.50545, 0.0190676, 0.306652, 0.311219, 0.41, 0.686296, 0.107506, 0.521137, -0.0941295, 0.0548418, 1.22286, -0.0215574, 0.302624, 0.124325, 0.377856, -0.854882, -0.495808, -0.536008, 0.712287, 1.45777, 1.04801, 0.937618, 0.222178, 0.0782993, 0.670865, 0.525541, 0.161026, 0.261615, 0.619084, 0.546509, 0.177359, 0.84, 0.02, 0.27, 0.40577, 0.632613, 0.0352672, 0.893637, 0.963905, 1.33327, 1.32087, 0.620762, 0.498963, 0.154025, -0.354655, -0.377674, 0.719295, 0.800569, 1.79721, 0.626182, -0.0844787, 0.0787224, -0.383721, 1.20066, 0.450729, 0.936089, 0.11858, 0.522068, 0.168626, 0.61, 0.67, 0.03, 0.677201, 0.385755, 0.00466384, 0.711912, 0.741654, 0.701281, 0.491025, 0.207301, 0.146832, 0.532285, -0.0527697, 0.0700949, 0.108735, 0.371146, 0.281587, 0.0575782, 0.565447, 0.00985582, 0.578358, 0.170675, 0.540668, 0.108889, 0.897715, 0.0921824, 0.552902, 0.39, 0.25, 0.250871, 0.335226, 0.727023, 0.080325, 0.070337, 0.57397, 0.960549, 0.170414, 0.591706, -0.0399433, -0.211872, 0.516205, 0.713225, 0.297537, 0.593475, 0.9835, 0.50661, 0.925145, 0.980509, 1.35167, 0.72597, 1.01971, 0.949476, 0.592948, 0.0661882, 0.659952, 0.35, 0.19, 0.71, 0.64, 0.96515, 0.0421607, 0.529509, 0.104184, 0.138826, -0.0761247, 0.145625, 0.957515, 0.537689, 1.37905, 0.467133, 1.04612, 0.775322, 0.566269, 1.09488, 1.19965, 0.997255, 0.617722, 0.431011, 1.0428, 0.97223, 0.878138, 0.879929, 0.14, 0.96, 0.68, 0.46, 0.58, 0.368291, 0.431836, 0.550116, 0.833623, 0.248159, 0.421172, 0.2482, 0.109851, 0.110967, 0.306515, 0.368751, -0.551785, -0.519678, -0.357885, 0.027472, -0.22989, 0.084574, 0.313469, 0.783691, 0.896282, 0.248809, 0.458107, 0.983958, 0.16, 0.74, 0.56, 0.77, 0.72, 0.36, 0.081596, 0.913349, 0.00136201, 0.24438, 0.353024, 0.516356, 0.0109726, -0.0889564, 0.156365, -0.00267439, 0.0510818, -0.341836, 0.231307, 0.460289, -0.229744, 0.319606, 0.406913, 0.66306, 0.268599, 0.149269, 0.621473, 0.8, 0.18, 0.28, 0.89, 0.13, 0.41, 0.23, 0.96, 0.31, 0.399447, 0.29634, 0.315024, 0.242632, 0.714213, 0.734503, 0.436757, 0.403796, 0.412086, 0.466692, -0.0966237, 0.642391, 0.297377, 0.603259, 0.903666, 0.190385, 0.26, 0.83, 0.33, 0.82, 0.12, 0.36, -110.026]
[0.52, 0.12, 0.24, 0.45, 0.96, 0.02, 0.73, 0.58, 0.05, 0.77, 0.58, 0.11, 0.81, 0.5, 0.7, 0.8, 0.53, 0.27, 0.59, 0.16, 0.97, 0.18, 0.18, 0.77, 0.81, 0.65, 0.52, 0.13, 0.71, 0.76, 0.86, 0.74, 0.42, 0.39329, -0.0137794, 0.900521, 0.516296, 0.385083, 0.344014, 0.42015, 0.862481, 0.426757, 0.316325, 0.279531, 0.314749, 0.30812, 0.846504, 0.385884, 0.0599649, 0.61, 0.5, 0.47, 0.58, 0.39, 0.05, 0.81, 0.68, 0.14, 0.01, 0.16, 0.94, 0.649845, 0.395875, 0.698839, 0.362062, 0.534283, -0.286955, 0.586386, 0.254926, 0.752159, 0.135477, 0.539278, -0.119436, 0.101972, 0.435916, 0.679478, 0.581119, 0.543184, 0.869107, 0.134897, 0.58002, 0.75, 0.3, 0.82, 0.11, 0.37, 0.7, 0.62, 0.926298, 0.301289, 0.680459, 0.159094, 0.912146, 0.429948, -0.487418, 0.153089, -0.109466, -0.0562935, -0.200606, -0.465826, 0.351238, 0.34832, 0.60214, 0.212022, 0.177604, 0.24904, 0.47383, 0.650039, 0.788058, 0.803442, 0.947156, 0.95, 0.04, 0.13, 0.32, 0.258557, 0.0572592, 0.945845, 0.153635, 0.176458, 0.119568, -0.133489, -0.884942, -0.117867, -0.934445, -0.247067, 0.201088, 0.342835, 0.630002, 0.483426, 0.748309, 0.16797, 0.0169487, -0.0489073, 0.906881, 0.3279, 0.143235, 0.149522, 0.422902, 0.69, 0.34, 0.469501, 0.299739, 0.0295648, 0.396362, -0.0122646, -0.0684985, 0.6429, 0.0754256, -0.25597, 0.426484, 1.50766, 0.396358, 0.0624879, 1.77509, 1.69221, 1.28249, 1.2324, 1.37002, 0.843299, 1.59621, 0.989815, 0.278067, 0.282932, 0.476898, 0.620841, 0.77938, 0.08, 0.18, 0.51, 0.769537, 0.215519, 0.402432, -0.181983, -0.310365, 0.331014, -0.604065, 0.122894, 1.19519, 0.868499, 0.25655, 0.0466358, 1.42959, 1.10695, 0.637014, 0.953712, 0.547776, 0.196794, 0.814764, 1.1297, 0.916947, 0.29045, 0.408483, 0.126912, 0.638734, 0.490083, 0.62, 0.0813909, 0.636045, 0.515768, -0.086931, 0.134827, -0.685867, -0.563623, -0.2319, 0.615744, 0.345284, 0.128454, 0.407511, -0.0714655, 0.116635, 0.94923, 1.88195, 0.178573, 0.857878, -0.456165, 0.469674, 0.525225, -0.0762337, 0.810875, 0.570075, 0.497798, 0.873496, 0.503189, 0.27, 0.331143, 0.0927707, 0.320409, -0.195035, 0.438025, -0.794892, -0.460901, 0.235553, -0.394045, -0.129875, 0.427268, 0.300382, -0.286493, -0.204157, -0.826591, -0.386828, 0.19897, 0.0225067, -0.401769, 0.15463, -0.2234, 0.133947, 0.663073, 0.877991, 0.991215, 0.548186, 0.254032, -0.0296807, 0.499581, 0.476179, -0.336794, 0.121606, -0.842415, -0.0212173, -0.344716, 0.762941, -0.506013, 0.158743, 0.266421, -0.264199, -0.209499, -0.150269, -1.24724, -0.414979, -0.627961, -0.833564, -0.194679, -0.771974, -0.0529377, 0.387986, 0.707896, 0.39905, 1.00102, 0.997695, 0.570173, 0.761959, 0.407237, 0.449953, -0.659442, -0.0199877, -0.549748, -0.445149, 0.115279, 0.659092, 0.238288, 0.519618, 0.0236763, 0.163542, 0.347016, 0.296184, -0.473608, -1.23928, -1.67639, -0.737159, -0.359045, -0.381593, -0.091821, -0.384401, -0.292963, 0.258291, 0.472796, 0.492696, 0.50692, 0.39197, 0.924377, -0.257886, -0.113505, -0.0805763, 0.249929, 0.321267, 0.960297, 1.3882, 0.812467, 0.672904, 0.938696, 1.27577, 0.324275, 0.895603, 0.431907, -0.407614, -0.909355, -0.515276, 0.160109, -0.414351, -0.16883, 0.0812475, 0.210431, -0.369551, 0.661242, 0.72005, 0.58473, 0.99, 0.551968, -0.20447, 0.197027, 0.653781, 1.04956, 1.67097, 1.54599, 1.16508, 1.46155, 0.803212, 1.32382, 2.25132, 2.345, 2.31433, 0.484724, -0.418215, 0.522004, 0.0562489, 0.790198, -0.626087, -0.56857, 0.252689, 0.558196, 0.161349, 0.560291, 0.0557039, 0.46, 0.74, 0.0280397, 0.27788, 0.569913, 0.551335, 1.2016, 1.83852, 1.79281, 0.0608016, 0.193312, 1.15906, 2.12913, 3.31328, 2.43682, 2.3971, 1.06171, 0.297757, 1.22356, 1.65128, 1.91852, 0.530859, -0.397389, -0.0277836, -0.0950998, -0.385637, 0.26939, 0.512151, 0.25, 0.62, 0.82, 0.495823, 0.320536, 0.260241, 0.840882, 1.17698, 2.11345, 1.46598, 1.05819, 2.08612, 2.58085, 2.62751, 1.20904, 2.15356, 1.23954, 0.068033, 0.855918, 0.187962, 0.896047, 0.939869, -0.228342, 0.388804, -0.101741, -0.074968, 0.829195, 0.0694275, 0.99, 0.97, 0.95, 0.438527, 0.511615, 0.797203, 0.575121, 1.0204, 1.34573, 1.4311, 2.53291, 3.49393, 2.91264, 2.78247, 2.65293, 1.58705, 0.872385, 0.703711, 0.991577, -0.000861521, 0.228731, 0.0141442, -0.482834, 0.171248, 0.37328, 0.707631, 0.340251, 0.738781, 0.0303516, 0.15, 0.62874, 0.631261, 0.0444363, 0.494163, 0.846932, 0.710514, 1.47291, 2.5662, 1.69173, 2.29713, 1.86566, 1.79957, 0.413681, 0.605048, 0.190084, 0.628617, 0.521141, 0.278384, 0.0950432, -0.150085, -0.617357, -0.143717, 0.304954, -0.301742, -0.406352, 0.843899, 0.909237, 0.06, 0.26, 0.171757, 0.692667, 0.216664, 0.0791059, 0.889714, 0.410573, 1.64141, 0.349315, 1.19324, -0.396746, -0.284883, 0.966747, 0.559993, 0.0379216, -0.0254687, -0.195762, 0.313197, 0.378811, 1.4684, 1.60587, 1.19757, 0.502418, 0.209169, 0.0894095, 0.0609413, 0.596773, 0.82, 0.824253, 0.902933, 0.187847, 0.422777, 0.958008, 0.69193, -0.432695, 0.224034, 0.912402, 0.707617, 0.397082, 0.497978, 0.722449, 0.647689, 0.760136, 0.573245, 0.558278, 0.259075, 0.0272472, 1.22327, 1.06057, 0.791273, 0.407128, -0.0364917, 0.200958, 0.460475, 0.473533, 0.28, 0.537655, 0.704799, 0.499292, 0.639179, 0.573738, 0.597942, 0.368749, 0.0329336, -0.0550358, 0.256802, 0.160107, 0.382518, 0.177549, 0.13666, 1.48135, 0.648605, 0.936773, 0.724472, 0.987108, 0.828754, 1.65238, 0.800187, 0.177037, 0.430263, 0.0869299, 0.387142, 0.616739, 0.91, 0.279787, 0.998244, 1.11641, 1.20319, 0.656851, 0.476057, 0.177494, -0.0163127, 0.0764092, -0.293104, -0.222053, -0.582367, 0.289522, 0.997528, 0.746826, 1.5759, 0.745501, 0.147551, 0.938002, 1.2661, 1.51544, 0.050769, 0.123491, 0.142732, 0.62245, 0.853646, 0.05, 0.56, 0.24, 0.184819, 0.47882, 0.585099, 1.03861, 0.911559, 0.472177, 0.826173, 0.137289, 0.648907, 0.522186, 0.0971128, 0.530573, 1.15563, 1.06045, 1.66143, 0.287501, 0.859019, 1.09596, 0.760036, 0.803162, 0.524329, 0.399975, 0.380359, 0.857233, 0.3297, 0.29, 0.85, 0.5, 0.912126, 0.834916, 0.782584, 0.915977, 0.499, 0.26089, 0.62022, 0.499899, 0.261331, 0.311857, 0.327063, 0.492206, 0.599919, 0.986565, 0.215291, 0.542781, 0.933688, 0.733775, 1.45626, 0.425977, 0.529928, 0.195206, 0.513628, 0.367111, 0.390143, 0.63, 0.48, 0.959501, 0.500781, 0.922666, 0.860794, 0.708291, -0.11455, 0.674608, 0.398604, 0.546191, 0.603084, 0.218568, 0.136419, 0.358649, 0.0713907, 0.480864, -0.493681, 0.809661, 0.966587, 1.40814, 0.754293, 0.913825, 0.46098, 0.737294, 0.786953, 0.420354, 0.270001, 0.01, 0.02, 0.23, 0.38, 0.632109, 0.247224, -0.342609, -0.467054, 0.0925179, 0.560712, 1.03173, 0.865342, 0.045636, 0.323802, 0.494223, 0.287789, 0.660174, 0.258472, 1.24319, 0.222179, 0.90648, 1.21824, 1.1266, 1.21426, 0.470205, 0.359967, 0.0599505, 0.39, 0.73, 0.69, 0.73, 0.44, 0.272546, 0.905956, 0.00782039, 0.435479, -0.446539, -0.291436, -0.577921, -0.252592, 0.14189, 0.832703, -0.215482, -0.52881, -0.715372, 0.244704, -0.264114, -0.376978, -0.139499, 0.944222, 1.28888, 0.215878, 0.701695, 0.162273, 0.892636, 0.67, 0.05, 0.11, 0.83, 0.53, 0.39, 0.25965, 0.266053, 0.0118825, 0.144936, 0.343669, 0.373321, 1.08556, 0.870544, 0.754275, 0.897582, 0.695863, -0.421154, -0.250974, -0.425364, -0.0239914, -0.109544, 0.128186, 0.468048, 0.478744, 0.230527, 0.254064, 0.81, 0.18, 0.88, 0.51, 0.52, 0.57, 0.65, 0.75, 0.3, 0.50713, -0.070723, 0.31073, 0.661915, 0.179064, 0.396664, 0.722792, 0.159373, -4.64328e-06, 0.757215, 0.365783, 0.341631, 0.750702, 0.381018, 0.826702, 0.321358, 0.49, 0.73, 0.43, 0.33, 0.44, 0.56, 192.401]
[0.25, 0.64, 0, 0.32, 0.22, 0.45, 0.53, 0.09, 0.95, 0.47, 0.08, 0.19, 0.34, 0.36, 0.23, 0.44, 0.82, 0.9, 0.75, 0.46, 0.39, 0.48, 0.65, 0.62, 0.68, 0.19, 0.69, 0.82, 0.13, 0.87, 0.4, 0.66, 0.33, 0.885594, 0.120538, 0.300105, 0.684548, 0.890414, 0.0345216, 0.616138, 0.600805, 0.376392, 0.782003, 0.475652, 0.69284, 0.663421, 0.69305, 0.205956, 0.606382, 0.01, 0.6, 0.16, 0.63, 0.38, 0.78, 0.97, 0.34, 0.88, 0.99, 0.7, 0.99, 0.157766, 0.650227, 0.67525, 0.369787, 0.817933, 0.613724, 0.174351, 0.124415, 0.205682, 0.333355, -0.226088, -0.145237, 0.430305, 0.425171, 0.701647, 0.132564, 0.734563, 0.140969, 0.204611, 0.119977, 0.04, 0.02, 0.97, 0.36, 0.43, 0.16, 0.78, 0.0556682, 0.249913, 0.264341, 0.81383, 0.667971, 0.48138, -0.246299, -0.492103, -0.955484, 0.0984723, 0.602644, 0.26454, 0.575835, 0.643022, 0.420215, 1.20099, 1.13947, 1.32508, 0.830591, 0.795834, 0.587013, 0.797738, 0.655615, 0.46, 0.81, 0.53, 0.04, 0.409631, 0.966125, 0.175644, 0.970166, -0.201509, -0.416713, 0.104437, -0.505743, -0.0906782, -0.813392, 0.85301, 0.405084, 0.574429, 0.365389, 1.00519, 1.13882, 1.1959, 1.49197, 1.30485, 0.902391, 0.432314, 0.643075, -0.0757136, 0.738498, 0.89, 0.02, 0.112753, 0.571495, 0.0816362, -0.0419191, -0.0261167, 0.324073, -0.148426, 0.282922, 0.149059, -0.195752, 0.545437, -0.724104, 0.041739, 0.225389, 0.789375, 1.30538, 1.43315, 1.14313, 0.130988, 0.808293, 1.11517, 0.716957, 1.03655, 0.288898, -0.0307525, 0.692422, 0.15, 0.77, 0.94, 0.800511, 0.39951, 0.229299, -0.217622, 0.0061674, 0.231402, 0.836456, 0.624344, 0.648926, 0.0602605, -0.466926, 0.580558, -0.0171239, 0.0468634, 0.865497, 1.01707, 0.672763, -0.0425931, 1.14108, 0.709236, 0.0424487, 0.798187, 1.502, 0.569569, 0.627994, -0.0572159, 0.03, 0.136765, 0.332242, -0.25344, 0.400295, 0.330827, -0.363032, 1.69183, 1.01382, 1.64134, 1.35948, 1.18111, -0.186151, -0.823373, -0.442564, 0.837331, 0.667557, 1.31115, 0.864758, 0.0301349, -0.231184, -0.145386, 0.994617, 1.36605, 1.04692, -0.316196, 0.246742, 0.529118, 0.59, 0.997306, 0.507781, -0.15958, -0.0596075, 0.210313, 0.642232, 0.446891, 0.52661, 1.23848, 0.785641, 0.65553, 0.533232, 1.1566, 0.931988, -0.256656, 0.860423, 0.185094, 0.636404, 0.444701, 0.101413, -1.20162, 1.43782, 2.23805, 0.403091, 0.103849, -0.18446, 0.427591, 0.393641, 0.206108, 0.731066, 0.298706, -0.623945, -0.0294179, 0.585217, 1.2246, 0.262564, 0.358997, 1.86026, 1.93723, 2.07507, 0.63996, -0.947233, -1.25902, -1.18336, -1.05314, 0.033221, 0.0753769, -0.193041, -0.00110825, 0.979624, 0.398095, 0.115127, -0.142623, -0.133472, 0.350054, 0.0358955, 1.02756, 1.00609, 0.0382847, -0.115181, 0.122376, 0.566917, 0.665731, 0.356103, 0.667551, 2.34397, 3.18928, 1.49955, 0.590872, -1.20136, -0.16762, -0.561517, 0.0195964, -0.0147083, 0.89896, 1.24521, 1.06022, 1.09851, -0.459044, 0.0640168, -0.472052, -0.111433, 0.0673937, 0.480983, 0.347409, 0.512443, -0.0448357, -0.267456, 0.409849, 1.36782, 1.48772, 1.29557, 0.879725, 1.52859, 1.41993, 0.543995, 0.550172, -0.672425, -0.834793, -0.55045, -0.133776, 0.957369, 1.05594, 1.52958, 1.36049, 1.16233, 0.373752, -0.751175, 0.0801685, 0.391418, 0.661082, 0.66, 0.706535, 0.259534, 0.63708, -0.181423, 1.72012, 1.76089, 0.694016, 0.815158, 0.554295, 1.56574, 3.20432, 1.30402, 0.694337, -2.49366, -2.2506, -0.236168, -0.220484, 0.312427, -0.189203, 0.613897, 1.62936, 1.47491, 0.809953, 0.223055, 0.775531, 0.224429, 0.53, 0.92, 0.135141, 0.979389, 0.920878, 0.419434, 1.99497, 2.52444, 1.81734, 0.704922, -0.0465198, 1.92131, 1.65649, -0.00709374, -1.58024, -3.65037, -0.320826, -0.696537, -0.770703, -0.476473, 0.690572, -0.203942, 0.798349, 2.57321, 1.17357, 0.997517, 0.166266, 0.827493, 0.08, 0.99, 0.37, 0.617921, 0.339435, 0.792869, 2.2044, 2.64354, 1.76229, 0.706631, 2.50248, 2.03601, 1.77333, -1.15573, -0.391285, -1.87263, -0.518326, -0.500845, 0.308922, 1.2104, 0.645942, 0.272156, 1.23301, 2.75419, 1.11772, 1.01203, 0.202591, 0.370551, 0.53, 0.85, 0.39, 0.297552, 0.271061, 1.37197, 1.65969, 2.30705, 1.73732, 1.60833, 2.4054, 2.8759, 0.217491, -1.17882, -0.674595, -1.61685, 0.742805, -0.622867, 0.639343, 0.958983, 1.42947, 0.782614, 0.708351, 1.79231, 1.37694, 0.878767, 0.694223, 0.949905, 0.200159, 0.73, 0.886766, 0.667745, 0.493024, 0.569712, 1.05832, 1.55066, 1.41189, 1.4283, 1.79526, 1.36234, -0.116193, -1.63841, -2.38604, -1.81098, 0.19637, 0.42524, 1.32084, 0.35872, 1.46055, 1.3763, 1.19883, 1.14996, 1.03264, 0.7133, -0.0904737, 0.113021, -0.00160343, 0.39, 0.27, 1.04044, 0.0428151, 0.145494, 1.02112, 1.48863, 1.77212, 0.947508, 2.25569, 1.36939, 0.802112, -1.59458, -1.66144, -0.0339731, 0.534431, 1.12256, 1.04969, 0.495344, 1.41782, 0.302763, 0.180554, 0.522481, 0.598169, 0.390776, 0.310353, 0.79136, 0.428698, 0.81, 0.759304, 0.731916, -0.420257, -0.750789, 0.0475095, 1.33863, 1.20244, 0.890955, 1.19609, 1.67771, 2.04206, 0.20672, 0.489383, 0.45994, 0.691677, -0.292907, 0.390661, 0.679312, 0.904561, -0.109885, -0.27319, 0.408083, 0.319948, 0.448376, 0.191296, -0.156514, 0.766062, 0.43, 0.158832, 0.538278, -0.732317, 0.357336, 0.766435, 1.41169, 0.230012, -0.506186, 0.59926, 0.748073, 0.508494, 0.698091, 0.936917, 0.484547, 0.70003, 0.68662, 0.541689, 1.10653, 0.0760345, 0.0418296, 0.446931, -0.0894047, -0.0605531, -0.775869, 0.599463, 0.557717, 0.115359, 0.98, 0.442658, 0.432432, -0.280947, -0.391227, 0.264977, -0.218889, -0.0421608, 0.0581886, 0.307653, 1.41205, 0.637443, 1.29884, 0.948076, 0.630361, 1.51352, 0.731835, 1.11535, 1.40628, 0.656512, 0.375655, 0.436478, 1.01561, -0.159494, 0.475751, 0.371508, 0.0173695, 0.66, 0.68, 0.47, 0.510575, -0.387871, -0.636722, 0.0169427, -0.12817, 0.166109, 0.930309, 1.01891, 1.50053, 1.01977, 0.495139, 0.270553, 0.943602, 1.30474, 1.39408, 0.212964, 0.927813, 0.59793, -0.186762, 1.44815, 0.349003, 0.578811, 0.462513, 0.195768, 0.832064, 0.08, 0.02, 0.94, 0.705268, -0.0434561, 0.56819, 0.0257192, -0.248516, 0.239037, 0.766866, 0.672992, -0.450088, 1.09015, 0.876005, 0.492236, 0.980685, 0.123159, 1.09341, 0.161077, -0.0377049, 0.247711, 0.786011, 1.23805, 0.861016, 0.19432, 0.39355, 0.100982, 0.0576305, 0.44, 0.11, 0.752753, 0.873583, -0.0498878, 0.347634, 0.385375, 0.543151, 0.324943, 0.403811, -0.287284, -0.60318, -1.02108, -0.99446, -1.14051, -0.580348, 0.91086, -0.00703525, -1.04154, 0.268075, 0.704669, 0.998394, 0.617873, 0.487969, 1.02304, 0.435476, 0.757593, 0.720051, 0.52, 0.96, 0.82, 0.71, 0.738729, 0.183669, 0.760156, -0.0350889, -0.263776, -0.947509, 0.46288, 1.30012, 0.691544, 0.841932, 0.911768, 0.397072, -0.635321, -0.500356, -0.25888, -0.0461232, 0.907751, 0.279753, 0.453577, 0.106959, 0.30707, 0.683337, 0.639985, 0.55, 0.05, 0.89, 0.07, 0.55, 0.950242, 0.111057, 0.209058, 0.22008, 0.179179, 0.733539, 0.696704, 1.08348, 0.223154, 0.505624, 0.812334, 0.369853, -0.821794, -0.69928, -0.273595, 0.708507, -0.10684, 0.4154, -0.162245, 0.0780863, 0.400088, 0.00365214, 0.370439, 0.12, 0.47, 0.19, 0.91, 0.48, 0.6, 0.0504101, 0.273431, 0.905297, 0.287153, 0.530006, 0.656154, 0.576846, 0.161332, -0.0485338, 0.504916, 0.184845, 0.436432, 0.469572, -0.0847708, -0.0836555, 0.453721, 0.0296985, 0.532666, 0.341222, 0.0131528, 0.228176, 0.15, 0.09, 0.53, 0.02, 0.31, 0.85, 0.89, 0.07, 0.44, 0.349613, 0.639017, 0.124968, 0.285384, 0.807326, 0.572849, 0.97383, 0.834446, 0.450538, 0.307634, 0.4784, 0.0987747, 0.332827, 0.540028, 0.0751707, 0.188538, 0.27, 0.62, 0.48, 0.79, 0.43, 0.31, 218.243]
[0.51, 0.96, 0.98, 0.79, 0.38, 0.06, 0.91, 0.01, 0.13, 0.81, 0.51, 0.69, 0.86, 0.77, 0.42, 0.41, 0.55, 0.35, 0.58, 0.99, 0.61, 0.8, 0.74, 0.84, 0.38, 0.13, 0.56, 0.93, 0.73, 0.71, 0.31, 0.52, 0.53, 0.974806, 0.135643, -0.0631709, 0.269566, -0.00735058, 0.782854, 1.24012, 1.09354, 1.2458, 0.706103, 1.3898, 0.688967, 0.411461, 0.549348, 0.240908, 0.824466, 0.89, 0.42, 0.04, 0.69, 0.4, 0.36, 0.65, 0.05, 0.12, 0.72, 0.26, 0.55, 0.244712, 0.0501048, 0.459421, 1.16099, 1.07402, 1.33631, 1.48949, 1.45611, 1.67669, 0.801939, 0.785333, 1.04419, 1.02153, 0.263072, 0.225186, 0.45674, 0.389261, 0.608035, 1.01219, 0.150061, 0.99, 0.22, 0.33, 0.68, 0.29, 0.43, 0.16, 0.265003, 0.601957, 0.901447, 0.291119, 0.960466, 1.00886, 1.18926, 1.43392, 2.11801, 2.06216, 2.54516, 1.2626, 0.909294, 0.836811, 0.586735, 1.35969, 1.73032, 1.78028, 0.886628, 0.841195, 1.04957, 0.894573, 0.477749, 0.86, 0.25, 0.02, 0.82, 0.940053, 0.237775, 0.493896, 0.780567, 0.100907, 0.861448, 0.785114, 1.35135, 1.45959, 1.10782, 1.0258, 1.44475, 0.949295, 0.506531, -0.353986, -0.161454, 1.36599, 2.30449, 1.55937, 1.09137, 0.348139, 0.861549, 0.860298, 0.075724, 0.72, 0.43, 0.0720788, 0.171117, 0.267047, 0.0681577, 0.521248, -0.229024, -0.0118675, 0.77608, 1.61846, 1.58133, 0.754533, 0.884685, 1.01968, 0.550139, 0.201033, -0.104039, 0.812092, -0.293809, 1.92524, 1.64465, 0.667608, 0.667177, 0.460182, 0.196458, 0.521813, 0.30471, 0.21, 0.28, 0.94, 0.179612, -0.0476401, 0.275427, 0.444048, -0.372549, 0.257508, 1.60742, 0.753852, 0.783877, 0.364211, 0.818385, -0.88518, -0.24691, -0.803714, -1.10154, -0.600938, 0.479773, -1.49924, -1.24815, -1.60004, -0.720802, 0.118409, 0.408512, -0.202775, 0.797346, 0.157855, 0.85, 0.942756, 0.560424, -0.000469938, -0.063213, 0.445948, 0.390181, 1.79449, 1.68809, 0.360609, -0.9305, -0.781149, -0.288374, 0.351599, -0.862243, -1.09564, -0.917264, -0.449392, -0.961931, -1.93091, -2.87932, -2.78917, -1.1216, -0.487393, 0.235443, 0.637175, 0.326031, 0.564733, 0.87, 0.181006, 0.514466, 0.794907, -0.00565271, 0.741073, 1.4707, 1.15133, 0.953499, -0.626216, -0.650503, 0.0511963, 0.0578627, -0.342551, -1.06573, -1.09163, -1.18849, -1.73614, -1.3996, -0.916913, -1.33149, -1.1312, -1.98218, -1.18443, 0.00364953, 0.214044, 0.714742, 0.725363, 0.489292, 0.213142, 0.28355, 0.362715, 0.667448, 0.839462, 0.833039, -0.0434875, -0.679758, -1.35254, 0.121862, 1.20737, 0.652525, 0.32326, -0.2823, -1.64947, -2.87614, -2.05959, -1.10946, -1.1308, -1.05204, -1.02541, -0.359023, -1.48553, -0.100069, 0.186872, 0.669409, 0.505637, 0.388951, 0.956327, 0.786253, 0.644806, 0.41252, -0.373073, -0.501682, -1.18909, -0.579314, -0.234553, 0.504236, 0.669932, -0.0720476, -0.380822, -0.23293, -0.949541, -1.3726, -0.289648, -0.591835, -0.741424, -0.467605, 0.45645, 1.13104, 0.362006, 0.406256, 0.0671627, 0.785062, 0.43455, 0.779792, 0.55667, 0.217955, 0.439553, -0.267896, -0.19193, -1.47831, -1.48016, 0.233639, -1.13379, -1.00123, 0.21899, -1.05856, -0.258884, 0.188109, -0.237964, 0.391403, -0.573808, -0.101915, 0.47745, 0.0200961, 1.50118, 1.73772, 0.847162, 1.56285, 0.618001, 0.0397157, 0.205381, 0.88, 0.864886, 0.41696, 0.7219, -0.315887, -0.61201, -1.35595, -0.630254, -0.0198968, -0.859336, -0.0537778, 0.0877017, 0.299125, 0.427017, -0.158198, 0.173677, 1.32884, 0.246918, -0.116168, 0.259582, 0.345163, 0.471656, 1.44373, 1.90809, 2.1861, 0.574991, 0.0665793, 0.81, 0.02, 0.939559, 1.08339, 0.25168, -0.936117, -0.450873, -0.771035, 0.241986, 0.0610397, -0.110521, 0.525017, 0.347419, -0.284367, 1.2672, 1.68414, 0.72064, 0.722753, -0.00103728, 0.488891, -0.182307, -0.535011, 0.968194, 0.820535, 1.94939, 2.69947, 0.936353, 1.11181, 0.88, 0.72, 0.38, 0.238716, 0.398788, -0.440601, -0.823195, 0.00495096, 0.370482, -0.201025, -1.46004, -0.676536, -1.23035, 0.373855, 1.79555, 1.53738, 1.53187, 0.338694, -1.63926, 0.155882, 0.339638, 0.570819, 2.2509, 0.759873, 1.03812, 1.28256, 0.804462, 0.88673, 0.5, 0.93, 0.49, 0.960621, 0.115491, -0.759548, -0.877492, 0.535487, 1.43341, 0.0928952, -0.150307, -1.04299, -0.383242, 0.712837, -0.395474, 0.406117, 1.08064, 0.411464, -1.6076, 0.390288, -1.03224, 0.369277, 1.45857, 1.49249, 0.970574, 0.630026, 0.00512278, 0.487612, 0.828848, 0.24, 0.853532, 0.682658, 0.49038, -0.763598, 0.911604, 1.83107, 0.906664, 0.696463, 0.497979, 0.537855, 1.56892, 0.7887, 0.731588, 1.31561, 0.455826, -0.472844, -0.275894, 0.139974, -0.779923, 0.781988, 0.677136, 0.77136, 1.09686, 0.464775, 0.323238, 0.69673, 0.489501, 0.17, 0.65, 0.215092, 0.491936, -0.502191, 1.98494, 2.14575, 0.728679, -0.270932, 1.04993, 2.0194, 2.9974, 2.89979, 2.08175, 1.86651, 0.59753, 0.383359, 0.658008, 0.153444, 0.626821, 1.3514, 0.853417, 1.07677, 0.871688, 1.83757, 0.479552, 0.46783, 0.700681, 0.59, 0.417096, 0.7403, 1.1199, 1.02138, 1.33401, 1.49659, 1.53914, -0.064537, 0.0481571, -0.172446, 2.2934, 1.93429, 2.39803, 1.10722, 0.887541, 2.04084, 1.49685, 0.654265, 0.75225, 1.37062, 0.930107, 1.17875, 1.47965, 1.42296, 0.33328, 0.287236, 0.835411, 0.77, 0.376266, 0.905188, 0.673536, 0.919867, 0.864501, 0.219234, 1.15422, 1.12758, 0.647886, 1.52491, 1.86145, 1.99805, 1.76775, 1.47932, 0.993263, 1.634, 1.48506, 2.28451, 1.46061, 0.789252, 1.39618, 1.68484, 1.40589, 1.13628, 0.617343, 0.714024, 0.671071, 0.36, 0.634886, 0.168785, 0.21599, 0.163205, 1.02484, -0.141341, 0.746415, 2.3249, 2.1138, 2.31719, 2.48154, 2.66188, 2.87451, 2.10558, 1.37593, 1.57767, 1.21514, 0.805041, 1.57296, 1.25952, 1.14331, 1.03922, -0.202778, 0.297628, 0.306739, 0.616984, 0.79, 0.96, 0.82, 0.228199, 0.614429, 0.466415, 0.278479, -0.0550877, 0.321229, 1.7433, 1.1083, 0.608099, 1.79225, 2.85558, 2.47973, 1.90638, 1.44461, 0.561993, 1.83749, 2.11813, 1.13064, 0.981359, -0.322303, 0.651505, -0.202093, -0.0644823, 0.665118, 0.342782, 0.4, 0.31, 0.86, 0.606752, 1.02448, 0.897359, -0.00129065, -0.645418, -0.580895, -0.373982, -0.402612, -0.878884, -0.316596, 0.760744, 1.32215, 1.09668, 0.623683, 0.974774, 1.78732, 0.528595, 0.617685, 0.792663, 0.383406, 0.438025, 0.631, -0.0516944, 0.347901, 0.325098, 0.07, 0.46, 0.782079, 0.444325, 0.44136, 0.346059, 0.613637, 0.243664, 0.0470128, -1.44918, -1.44976, -1.66257, -1.15417, -1.32566, -1.47197, -1.68022, -2.83184, -0.984385, -0.615955, -0.0945765, 0.149106, 0.201351, 0.184657, 0.184403, 0.978017, 0.485327, 0.371927, 0.350102, 0.01, 0.88, 0.91, 0.4, 0.261229, 0.198544, 0.270093, 0.43845, -0.172678, -0.579041, -0.154403, -0.289293, 0.494093, 0.996535, 0.403291, -0.129214, -0.238289, -0.0529647, 0.133375, -0.559466, 0.507985, -0.179333, -0.280388, 0.657939, 0.850239, 0.337407, 0.18006, 0.03, 0.11, 0.6, 0.35, 0.9, 0.193251, 0.408726, 0.590789, 0.340119, 0.423171, 0.173376, 0.47692, 0.904541, 1.30988, 0.421956, 1.21945, 0.830653, 0.618655, 1.30417, 0.729583, 1.1141, 0.794642, 0.328936, 0.0264172, 0.0978833, 0.467291, 0.415573, 0.156489, 0.15, 0.87, 0.9, 0.97, 0.69, 0.33, 0.479984, 0.346692, 0.15201, 0.674529, 0.820975, 1.37937, 1.22562, 0.434895, 0.572906, 1.34036, 1.41824, 1.67922, 1.01592, 0.406843, 0.1188, 0.884177, 0.00993123, -0.106286, 0.76274, 0.684578, 0.0945607, 0.65, 0.37, 0.19, 0.18, 0.49, 0.12, 0.46, 0.18, 0.38, 0.889954, 0.895853, 0.356153, 0.790647, 0.982608, 0.564706, 0.492319, 0.683595, 0.236067, 0.831624, 0.836792, 0.426797, 0.619185, 0.455058, 0.23775, 0.557028, 0.88, 0.66, 0.96, 0.58, 0.86, 0.2, -277.697]
