 785 16 16 11
[0.41, 0.67, 0.34, 0, 0.69, 0.24, 0.78, 0.58, 0.62, 0.64, 0.05, 0.45, 0.81, 0.27, 0.61, 0.91, 0.95, 0.42, 0.27, 0.36, 0.91, 0.04, 0.02, 0.53, 0.92, 0.82, 0.21, 0.16, 0.18, 0.95, 0.47, 0.26, 0.71, 0.566802, 1.85014, 0.896705, 1.81255, 1.54826, -0.0349463, 0.24557, -1.04047, -0.90779, -0.886854, -0.661711, 0.406818, -0.128125, -0.138559, 0.120353, 0.479327, 0.68, 0.47, 0.44, 0.62, 0.57, 0.37, 0.59, 0.23, 0.41, 0.29, 0.78, 0.16, 0.624603, 1.53352, 1.10327, -0.134147, -1.93883, -0.955422, -0.0296987, 0.350163, 0.644651, -0.759162, -5.16036, 0.406162, 0.663612, 0.868683, 1.3375, 1.18651, -0.0866971, 0.361244, 0.524072, 0.289951, 0.23, 0.84, 0.54, 0.56, 0.4, 0.66, 0.76, 0.112476, -0.418881, 0.511494, 0.779632, 0.113868, 0.650973, 0.1349, -1.16228, -0.824369, 5.10591, 6.33972, 0.830187, -0.0115483, -2.26632, -3.35768, 0.600824, 1.9454, 2.18797, 0.103785, -0.0940824, 0.293607, 0.567638, 0.0936248, 0.45, 0.24, 0.72, 0.7, 0.342989, 0.88495, 0.740158, 1.87917, 0.116988, 3.77283, -0.182077, 6.43239, -2.12666, 0.857219, 0.480681, 2.94801, 3.95163, 3.21669, 6.41521, -1.35877, -1.53067, 1.55921, 2.77592, -4.83977, -4.09642, -2.93249, 0.634598, 0.284314, 0.37, 0.57, 0.874741, 0.532572, 1.43791, 1.07009, 1.15836, 0.96083, -0.336203, -1.42699, 1.09169, 1.16724, 0.702565, 0.823101, 7.52332, 0.128953, -2.32323, 1.76797, 1.08428, 4.05984, 6.99184, -3.30565, 0.95952, 5.77187, 0.752718, -1.03338, 3.15354, 2.51042, 0.41, 0.02, 0.5, 0.910009, 0.534386, 2.03601, 1.69036, 3.84759, -2.65895, 7.3534, -2.21595, -2.72981, -0.53304, -3.4759, -1.52299, -0.193045, -4.29859, 1.13587, 2.62635, -1.89819, -9.88858, -1.27094, -13.649, -7.09921, 0.147005, 1.46368, 1.92013, 1.40783, 1.13931, 0.1, 0.237668, 0.300812, -1.23232, 1.12769, 5.58081, 4.28487, -0.314785, 5.9875, 5.74073, 2.22033, -6.124, -3.08891, 0.563686, 3.38477, 5.74755, 3.20813, -3.99951, -1.23367, 2.85378, 1.87409, 4.1102, -1.93837, 0.767174, -1.9936, -1.24795, -2.99393, 0.914876, 0.48, 0.106502, 0.434864, 0.0756464, 2.92918, 1.36316, 0.0830579, -0.567966, 3.58554, -3.00979, 3.04879, -0.372615, -2.31424, -4.63914, -0.142655, -1.28154, -2.53096, -1.7086, -6.76915, 1.18897, -2.83341, 1.23405, -6.10496, -1.67627, -6.87217, -2.1624, -7.55529, -2.84564, 0.68409, 1.07553, 0.546314, -0.246065, -0.226359, 0.869318, 1.49266, -5.07572, -2.22607, -0.893489, -0.17107, -0.551614, 0.569745, 2.42549, -2.49974, 4.72864, -6.18212, 7.41075, -0.296153, -2.84462, -6.50134, 2.87472, 0.450341, -3.55636, -9.28596, -9.38425, -1.66861, 0.854328, 0.551862, 1.58969, 1.12673, 0.824728, 0.85285, 5.44615, 4.63331, -2.71044, 6.34257, -2.83606, -7.59116, -3.04767, -3.35858, -2.07299, 2.27629, 5.38336, 4.79781, -5.32206, 2.31493, 0.518289, -1.60038, 2.51865, 1.54679, -3.12396, -9.82026, -3.01744, 0.666168, 1.08005, 0.400286, 0.976422, 2.13435, 1.68843, 3.45072, 5.1309, 0.760005, 2.301, 5.00918, -1.4167, 8.98174, 0.377755, 3.92236, -7.12475, -2.19347, 3.20595, 6.3406, -1.98445, 9.61903, 3.55485, 10.0024, 14.2678, 13.7887, 12.2303, 7.1998, 1.78075, 1.53011, 0.655015, 0.16, 2.10585, 2.58949, 3.52432, 4.81664, -4.83786, -1.33426, 2.76422, -3.46884, -5.76254, -4.26084, -1.70897, 0.491449, -3.18162, -0.0378187, -2.91983, 0.455554, 2.60521, -2.09204, -0.83358, 6.92688, 9.99326, 4.81892, 11.2457, 6.78736, 0.673461, 0.476449, 0.66, 0.44, 1.25426, 2.69087, 3.37567, 2.80293, -4.31405, -5.31313, -4.63538, 1.96963, 6.94992, 3.62784, -2.52606, 6.29574, 2.67574, 3.25262, 2.32091, 0.127561, 2.28487, -0.0973561, -0.631367, 2.78739, 0.827601, 0.534631, 5.73571, 2.21187, -1.50687, -0.188439, 0.74, 0.72, 0.59, 0.932373, 1.89365, -0.0759599, -2.56398, -6.36604, 0.770398, -4.60764, 1.82178, -2.13462, -5.8632, 0.161356, -1.66587, 4.05127, -3.39342, -2.38836, 3.60636, 5.37099, 3.27135, -3.65262, 3.81744, -2.71023, -0.986061, -2.6672, 0.939219, 0.380456, 0.81, 0.03, 0.32, -1.29078, 2.22751, -1.7292, -1.70596, 5.04712, -0.305921, 0.710233, 0.725513, -4.19946, -4.19911, 4.19908, 1.23115, 2.43358, -0.139424, -1.00573, 8.34801, 0.834651, -0.403723, -6.94933, 2.59019, 0.0690502, -2.83, 0.580134, 3.50797, 0.339933, 0.940196, 0.95, 0.264925, -1.39358, -1.50106, -0.240898, 5.8238, 11.1838, 2.04941, 1.44288, 15.3183, -3.27463, 7.38931, -3.80543, -2.9854, 4.29068, 4.87877, -0.892162, 5.54109, -2.84566, -1.95793, -4.24833, 0.166786, -0.0659842, -8.31263, 0.199048, 4.86019, 1.51457, 0.27484, 0.43, 0.58, -0.614911, -0.528924, 0.126137, 0.477583, -0.654877, 5.97949, 12.9182, 14.3667, 14.0488, 15.4433, 4.75376, 9.59044, 7.18155, 11.5273, 3.12429, 0.824321, -5.48614, 2.45923, -5.47625, -2.08503, 5.45244, 0.181777, 6.07814, 6.49039, 0.566237, 0.195637, 0.3, 0.959345, -1.47123, -2.4123, -0.728549, 2.27743, -6.64087, 5.91812, 1.53272, 6.52308, 9.65716, 19.788, 16.8809, 4.77609, -3.71608, -2.25077, -0.900054, 1.00218, -1.43146, 2.17389, -0.504519, -0.901099, 4.49598, 4.93371, 6.27219, 5.11049, 3.47599, 0.830143, 0.57, 1.65534, 2.06444, -5.71583, 0.972361, 1.52777, -1.39203, -1.99102, -7.26882, -4.53419, -2.57595, 2.90792, -4.44325, 0.519108, 1.90949, -6.55635, 3.54363, 3.74755, 4.9694, 0.785974, -0.974163, 3.07598, 6.95617, -0.627182, 1.53297, 2.9365, 1.84809, 0.615574, 0.37, 0.909812, -0.712825, -7.17115, -1.80312, 7.5164, 2.35276, 8.57847, -1.54803, -1.69204, -4.37252, -5.18058, -1.10319, -4.17984, 10.0183, 3.41697, 1.22915, 7.9533, 3.49221, 3.8898, -0.507133, 4.31131, -0.913217, -2.2646, 0.953231, 2.55195, 0.871953, 0.69, 0.32, 0.63, -2.52203, -2.29814, -1.17133, 5.4735, -1.73661, 4.95707, -4.72644, -1.6183, -1.19398, 2.87728, -2.3531, -6.50088, -2.73504, 2.78516, -5.41659, 0.331399, 3.55635, 6.39389, -1.40584, -8.0009, -2.07375, 0.132878, 0.418515, 1.6903, 0.950657, 0.01, 0.93, 0.34, -0.434601, 0.63161, -0.728742, 1.64812, -0.944476, -2.1916, 2.00239, 3.40164, 2.42901, -4.51128, 2.99568, 2.28993, 4.05749, -6.86639, 3.38797, 0.266099, 1.85007, 6.32917, 0.043995, -0.589483, 0.458122, 2.14039, 0.184351, 0.874583, 0.500495, 0.13, 0.75, 0.724741, 0.252767, 0.82838, 0.291353, 2.00614, -2.08171, 1.68896, -5.05907, 3.74673, -1.20329, 1.10927, 6.91984, -1.07933, 3.4656, -0.55481, 5.90559, 0.984494, 0.401991, 2.68542, 3.5341, 3.00927, 1.3241, -0.229013, 0.448292, 0.486997, 0.920675, 0.05, 0.64, 0.81, 0.03, 0.0775562, -0.121144, 1.24409, 2.43667, 1.31228, 1.72298, -0.948844, 0.130986, 8.11029, 3.09562, 0.9411, -1.50244, -2.67906, -5.21647, -2.6653, -1.33527, 3.70211, 2.36372, 0.601282, -1.66431, -0.373914, 0.343402, 0.0100945, 0.92, 0.59, 0.7, 0.28, 0.27, 0.59293, -1.22109, -1.69256, -0.851254, -1.89297, -1.06112, 0.394594, -3.11965, -7.5775, -4.9361, -0.471635, 2.47728, 5.91938, -0.299618, -0.0274814, -1.12511, -1.09527, -1.48569, -1.3985, -0.458854, 0.353137, 0.939027, 0.0252632, 0.18, 0.32, 0.5, 0.05, 0.75, 0.39, 0.0359778, -0.199266, 1.74949, 0.127738, 0.136774, -0.762598, -1.46639, -2.10031, -6.1666, -6.91117, -6.00887, -3.33192, -3.99533, -2.15278, -0.758834, -1.08166, -0.90248, 0.780286, 0.955278, 0.520814, 0.667358, 0.4, 0.45, 0.08, 0.18, 0.7, 0.01, 0.23, 0.32, 0.72, 0.50642, 0.442404, 0.0849089, 0.646134, -0.852577, -0.788527, 0.262121, -0.392689, -0.355433, 0.815667, -0.26193, 0.221879, -0.235873, -1.11194, 0.365348, 0.881179, 0.43, 0.37, 0.09, 0.63, 0.49, 0.81, 439.323]
[0.42, 0.08, 0.6, 0.21, 0.58, 0.54, 0.88, 0.46, 0.9, 0.49, 0.43, 0.3, 0.2, 0.48, 0.67, 0.36, 0.83, 0.35, 0.26, 0.85, 0.38, 0.53, 0.29, 0.24, 0.48, 0.23, 0.59, 0.57, 0.66, 0.44, 0.55, 0.18, 0.26, 0.126099, 0.349984, 0.616939, 0.109392, 0.566634, 1.06135, 0.777482, -0.0290792, 0.219229, -0.0437884, 0.323097, -0.0110932, 0.00298298, 0.46877, 0.428305, 0.695163, 0.26, 0.06, 0.73, 0.29, 0.04, 0.05, 0.26, 0.12, 0.75, 0.93, 0.65, 0.36, 0.363298, 0.356021, -0.00740959, 1.09093, 0.317275, 0.947768, 0.398944, -0.667853, 1.90791, 0.50919, 1.91119, 0.838153, -0.892008, -1.03989, 0.439765, 1.21157, 0.0861236, 0.318915, 0.911289, 0.499992, 0.62, 0.34, 0.93, 0.53, 0.16, 0.52, 0.08, 0.711347, 0.388715, -0.0955914, -0.501785, -1.73345, -0.615106, 1.44537, 1.1898, 2.71917, -0.525942, -2.03178, -1.19569, 3.95216, 1.91145, 2.87828, -1.51321, 4.99103, 5.1617, 0.0710433, 0.476744, -0.413453, -0.361424, 0.656988, 0.43, 0.09, 0.02, 0.61, 0.890631, 0.602785, 0.972236, 2.07931, 5.20107, -2.82529, -1.33081, -0.50851, 1.75841, 4.17191, 1.62413, -1.5596, 0.672688, 1.88605, 3.72292, 2.00262, 4.33687, 3.76564, 6.93804, 3.26881, -0.0672079, -0.00347089, 0.207052, 1.3189, 0.22, 0.38, 0.369137, 0.0995299, 0.285578, 0.257216, -0.202142, 3.98189, 5.62205, -1.86098, 3.05459, 5.94475, -5.58399, 5.67852, 0.447371, -5.57722, -3.47689, 1.90609, 4.00247, 3.71061, -1.77614, -1.70079, -1.53927, -5.04453, -0.0444747, 0.409673, 1.354, 0.660436, 0.85, 0.1, 0.84, 0.74011, 0.858429, -0.208124, -0.37743, 0.925842, 0.822672, -1.99994, 5.79289, 4.44122, -3.79056, 6.32074, 3.81387, -3.64131, 4.50641, 4.45678, 1.63703, 0.0264886, 6.65859, -0.25136, 3.68352, 2.55608, 2.46308, 2.15356, 1.88029, -0.147114, 0.733405, 0.85, 0.720873, 0.664478, 3.15992, 2.51253, 2.04056, 2.98598, 0.778105, -3.18847, 0.565236, 1.96856, 1.41495, -2.63663, 5.06419, 4.47617, 3.782, -0.145284, 5.0901, 0.210017, 1.68497, 1.23247, -1.55835, 5.14036, -0.483358, 0.87765, 5.74851, 1.79816, 0.487502, 0.26, 0.651595, 0.981732, 2.19875, 3.76351, 5.57922, 4.39402, 0.824063, -1.30534, -0.34581, 2.55418, 2.32788, -1.19467, 4.92847, 2.94255, -1.03741, 5.7877, 1.88732, 2.47256, -3.702, 4.20412, -3.97946, 5.82499, -0.301189, 6.93345, 6.76632, 3.82956, 2.55943, 0.104895, 0.276843, 0.525735, 2.81727, 3.37204, 7.14201, 3.47885, 6.44082, 1.9985, 7.69539, 2.73702, 0.216266, 5.76953, -2.59085, -0.420868, 5.05634, 0.694624, 0.333342, 1.5405, -1.10393, 1.62009, 0.709871, 0.828082, 7.43287, 11.2612, 5.68229, 4.27569, 1.50215, 0.20566, 0.0358358, 0.631042, 2.76684, 2.49438, 3.33945, 1.18836, 4.36846, -5.13332, 4.12583, 1.46227, 10.777, 9.63811, 8.62954, -2.21255, 1.5596, -3.39058, 0.637246, 1.52682, -0.497531, 3.20786, 2.38028, 6.64225, 5.18112, 4.07205, 2.61383, 2.03804, 1.11565, 0.395891, -0.00941354, 0.481736, 2.00013, -0.252351, -0.960728, 1.78882, -1.19861, -2.68154, 2.58723, -1.93659, 10.8571, 0.289726, 7.36263, 0.884653, -3.94885, -4.04035, 5.28935, -3.14571, 1.39607, 3.23781, 2.23887, 3.46953, 0.251993, 2.39391, 2.69653, 0.19315, 1.10966, 0.46, -0.269247, 0.270383, 1.61903, -1.69241, 0.886502, 2.75631, 0.618374, 0.56086, 2.49766, -0.345152, 7.02147, 0.464819, 2.87089, -7.48617, 9.62197, 1.64218, 1.71178, 5.22131, 3.54563, 1.81858, 0.800313, 5.8768, 2.24269, 1.54473, 0.477013, 0.254061, 0.25, 0.1, 0.0755628, 0.249477, -0.0107699, -0.730312, -3.2777, 5.22726, 4.08824, 2.08042, -0.223769, -3.0847, -1.45233, -0.0766718, 0.469343, -6.25857, 2.03114, 1.5177, -3.22364, 2.37539, -2.13195, -2.01238, -0.53728, 3.05609, 2.83757, 2.62775, -0.0237805, 0.72013, 0.76, 0.26, 0.96, 1.07452, 0.343628, 0.0772321, -2.45474, 3.13173, -3.35016, -1.25859, -4.53981, -0.370451, -1.90058, 3.45544, -2.45636, -8.33155, 3.78691, -4.0161, 1.50691, 2.01703, -0.311094, 1.60101, -3.05795, 0.0444785, 4.53646, 1.36052, -0.0593085, 0.651645, 0.89, 0.61, 0.72, 0.822069, -1.02953, -1.84739, 1.18117, -8.19523, -1.73443, -5.56668, -3.18971, -7.12761, -0.759603, -4.43363, -2.54028, -2.90628, -0.113822, -0.137319, -1.72822, 1.26974, -2.01217, -0.964527, -3.29332, -1.90296, 3.43089, -0.230226, -0.917479, 0.532908, 0.769728, 0.89, 0.0818205, 0.385001, 2.06668, 0.974875, -3.67534, -7.74666, -6.6761, 0.36269, -4.13261, 1.8426, -0.833722, 1.50054, -3.28184, -1.26456, -0.122665, -0.147865, 3.0981, 0.745019, -1.57044, 1.20462, -2.1328, 0.160578, 3.53802, -1.74176, -2.7986, 0.108827, 0.658793, 0, 0.67, 0.282473, 2.84321, 3.48422, -1.80593, -1.71964, -6.81434, -6.47689, -4.90228, 0.381748, 4.40188, -0.97656, -6.80059, -7.03175, 1.75444, 1.14186, -0.3529, 3.90303, -2.69403, -0.398818, -2.23295, -3.10799, -3.75438, -7.78091, -4.02802, 0.623217, 0.744502, 0.69, 0.386384, 0.672928, 3.26329, 3.53438, -0.199616, 3.5207, -0.285362, 0.0209282, -3.04445, 5.50053, -11.3566, -3.5295, -13.8034, -6.40373, -5.49242, -0.671155, 6.10625, 1.359, -1.1498, -1.23125, 1.60622, -0.645318, -5.95073, -5.07857, -1.75107, -0.982826, 0.0919274, 0.11, 0.411729, -0.044222, 2.52027, 2.72096, 3.50318, 2.83421, 2.87919, 0.798118, -0.919396, 0.671097, 0.744502, -0.624959, -10.7661, -6.12263, -0.853944, 1.74329, 3.18609, -2.02078, 0.47417, -2.25487, 1.38402, 0.191193, -2.35447, -0.669392, -0.467951, -0.716557, 0.752758, 0.95, 0.677539, -0.0745395, 2.38603, 3.47752, 4.72914, 6.91517, 6.15644, 4.41027, 1.80839, 4.3287, 6.48827, 5.91356, 1.33876, -7.0664, -1.68959, -5.75111, -2.40915, -0.0517823, 3.54269, 4.21786, 3.00454, 3.32024, 0.685915, 0.967262, -0.26201, 0.374167, 0.38, 0.81, 0.57, 0.844217, 0.0478437, 1.66809, -0.631838, 4.29865, 5.1044, 4.28539, 2.66056, -3.54732, 4.59535, 1.31885, 1.10688, 2.22719, -1.54971, -0.575933, 1.02174, -1.60261, 0.00444403, 8.40498, 5.41207, -0.127047, -0.317806, 1.80898, 0.204505, 0.154009, 0.1, 0.99, 0.37, 0.969284, -1.22572, -1.78435, -1.97328, 1.44267, 1.6763, 2.90219, 0.580047, 9.37242, 3.15602, 2.50859, 8.06041, 6.5956, 6.39057, -2.8285, 0.910667, 1.13989, -1.54703, 1.1895, 1.62017, -3.04434, -1.60634, 2.21372, 0.543427, 0.386355, 0.74, 0.33, 0.909137, -0.0360722, 0.17788, -0.682173, -5.64714, -4.02289, -3.31487, 4.5969, 3.4616, 3.96131, -0.802204, 0.310132, 4.23647, 7.17391, 2.24353, 5.68229, -3.18922, -2.33981, 2.21344, 1.44583, 0.73937, -1.05569, 0.872126, 0.784283, 1.41752, 0.28917, 0.4, 0.05, 0.91, 0.92, 0.433775, -0.697988, -5.01265, -1.32353, 1.34528, -0.380732, 4.67321, 0.0910145, -2.27536, 4.04647, 5.25584, 5.17659, 3.75843, 7.49545, 1.57042, 2.60558, 1.64885, 2.71765, 0.460861, 0.734679, 0.926071, 0.551525, 0.799966, 0.08, 0.67, 0.08, 0.77, 0.03, 0.817979, 1.87027, 3.96582, 2.95556, 3.04567, 2.24869, 0.352788, 4.53848, 9.87537, 9.22808, 2.35041, 6.91525, 5.00882, 8.09866, 5.80199, 6.92028, 4.95366, 3.14292, 1.99156, 1.07393, 0.260169, 0.0181155, 0.0343896, 0.99, 0.36, 0.8, 0.98, 0.32, 0.87, 0.843902, 0.383307, -0.277679, -1.72828, 1.04729, 1.2708, 2.72068, -1.19293, 1.82681, 5.38068, 5.57246, 3.61089, 3.87038, 4.70584, 3.92961, 5.00182, 1.18595, -0.307819, 0.242019, 0.55056, 0.460059, 0.07, 0.29, 0.81, 0.95, 0.78, 0.76, 0.53, 0.99, 0.84, 0.650486, 1.1185, 0.927711, 2.72864, 1.62905, 1.94352, 1.73212, 1.18714, 1.15079, 1.19014, 1.39526, 0.813378, 1.40907, 2.93208, 1.20463, 0.438926, 0.46, 0.77, 0.17, 0.29, 0.16, 0.74, 22.2458]
[0.69, 0.12, 0.46, 0.93, 0.91, 0.15, 0.49, 0.57, 0.4, 0.52, 0.36, 0.51, 0.87, 0.26, 0.62, 0.55, 0.83, 0.94, 0.8, 0.97, 0.65, 0.65, 0.13, 0.61, 0.78, 0.78, 0.78, 0.4, 0.11, 0.47, 0.45, 0.7, 0.75, 0.612316, -1.22457, -0.664582, -1.37479, -0.394988, 0.152311, 0.592371, -0.066063, 0.446412, 1.05022, 0.384593, 0.0191432, 0.593758, -0.0734572, 0.41127, 0.357033, 0.87, 0.05, 0.79, 0.21, 0.38, 0.51, 0.47, 0.08, 0.46, 0.76, 0.59, 0.89, -0.0750062, -0.54969, 0.538667, 0.650779, 0.568129, -0.085352, 1.03403, 0.407796, -0.183805, 0.0467914, -1.29493, 0.404799, 0.653508, 0.654854, 0.289173, 2.52786, 1.05517, 0.956, 0.252019, 0.960036, 0.81, 0.21, 0.55, 0.47, 0.24, 0.18, 0.35, 0.633457, 0.666918, 0.871286, 1.5005, 2.59454, 2.01214, 0.94473, 0.395703, -2.12396, 0.967177, 4.11014, 2.79092, 2.76756, 2.99101, 1.85964, 3.61255, 1.4329, -0.396412, 0.0688201, 0.850824, 0.910044, 0.819094, 0.238825, 0.73, 0.61, 0.45, 0.73, 0.812104, 0.64953, 0.607092, 1.30628, 3.2411, 1.88578, -0.413635, 0.735635, -2.02019, -1.64618, -4.08824, -0.330405, 0.145138, 3.59339, 1.57847, 2.04745, -0.766482, 1.32327, 1.87991, -0.585471, -1.88296, 0.0138945, 0.566796, 0.752598, 0.31, 0.58, 0.934434, 0.0624013, 0.968227, 1.30606, 1.65878, 3.83507, 2.62115, -4.44041, 0.576058, 3.75321, 0.0265213, 1.96021, -0.110764, 0.620305, 5.77526, 5.48979, -2.31306, -4.0838, 3.56186, 0.550105, 1.7558, -0.50627, -2.50774, -1.33671, 1.06588, 0.455107, 0.9, 0.99, 0.85, 0.860371, 1.35489, 1.41525, -0.551015, 0.0516676, -1.75372, 1.21282, 0.633002, 2.7727, 2.84145, 3.07887, 0.705498, -0.249574, 3.43613, -0.0352212, -2.28918, -8.2041, -1.79335, -1.95282, -6.08193, -8.95782, -7.36885, -3.04854, -0.204369, 0.859378, 0.800203, 0.11, -0.162524, 0.456322, 0.00911242, 2.99117, 1.05856, -1.27716, 0.88268, 2.8181, 6.13011, 0.74792, -2.87591, 5.05943, -0.118819, 3.91256, 3.93479, 3.35542, 2.06149, 4.90725, 1.02661, 0.156704, 4.90739, 4.74682, 2.08722, -7.18981, -3.89508, -1.42488, 0.554732, 0.84, 0.669156, 0.74358, -0.135446, 1.6397, 2.99787, -3.06608, 1.30289, 3.0013, 0.32431, 0.189297, 3.8545, 2.25266, 7.17189, -0.933476, 2.12852, -4.33811, -4.37403, 2.09132, 2.54247, -1.32526, 5.3878, 1.44325, -0.743723, -4.91677, -1.57848, -4.01244, -1.43793, 0.489483, 0.458873, 1.15196, -0.0220724, -0.0436584, 3.21063, 0.730861, -5.25243, 2.16328, 1.72936, -1.19626, -2.56359, -0.221526, 2.23305, -2.27094, 1.98139, -0.698329, 2.18544, -3.09056, 2.85027, -0.58115, 2.29418, -1.80612, -1.26828, -0.420853, -4.15144, -1.50233, -0.0679853, 0.609103, 0.301827, 1.70014, 1.44132, 3.29644, 2.4571, 1.44645, 2.76438, -2.16518, 0.799342, -5.84675, 2.06571, -2.51693, -1.69334, 3.60262, 1.01244, 1.08912, -1.04408, 6.85272, 6.53879, -1.40661, 5.92669, -2.70355, -0.26506, -0.796889, -0.660852, -1.30776, -0.0649156, 0.465132, -0.143312, 1.59509, 2.39101, 1.91071, 1.84578, 5.68256, -4.36313, 2.30496, 4.69283, 6.7559, 2.41591, -0.416449, 2.5164, 5.16768, 8.56723, 10.8049, 1.06334, 10.3408, 2.88617, 8.11701, 5.23759, 6.17235, 9.29522, 1.72233, -2.11722, -3.42806, -0.303105, 0.87, 0.37447, 1.37747, 2.67106, 3.25713, 0.995267, 5.28331, 5.43185, 2.20734, 0.687524, 2.16705, -1.83141, -7.22442, -2.75663, 2.70327, 6.46531, 8.02369, 4.41426, -0.719102, 2.51367, 7.22416, 7.68649, 11.8401, 12.5465, -0.687037, -2.22191, 0.457896, 0.45, 0.21, 1.33838, 1.67503, 1.43307, 2.27522, 0.106419, -2.73148, 0.491614, 3.61282, 0.135429, 6.07821, 2.88567, -2.88398, 3.37644, 3.38931, 1.93377, 4.93188, 2.93834, -2.96264, 4.40884, 4.83051, 5.00352, 3.55111, 4.99296, -2.39264, -1.79743, 0.960817, 0.57, 0.98, 0.45, 1.12559, 0.431504, 0.237333, -3.48867, -4.29944, -0.997994, 1.25333, -7.06641, -2.38048, -2.91479, 0.345538, -4.12279, 5.12169, 5.72558, 7.89701, -0.469535, 5.8932, 4.20876, -0.563942, 5.99634, -3.24571, -7.23928, -5.1048, -2.90507, 0.142335, 0.95, 0.41, 0.22, -0.117605, 0.521292, 0.447047, -3.64284, 2.67576, 5.51688, -3.39791, -2.04126, 0.519991, 3.92608, 3.65376, -0.602761, 4.43108, 10.4769, 11.1723, 3.92694, 2.04368, -4.35422, -5.75182, -1.02235, -3.38467, -6.91301, -3.38485, -0.272403, 0.157773, 0.32992, 0.23, 0.866919, 0.750092, 1.07653, -1.07458, -2.46613, -1.18827, -4.06162, 1.98546, 0.17516, -1.67252, 0.615835, -6.13109, 0.269877, 6.36572, 1.59669, 0.924279, 0.32176, 3.0632, -9.75414, -3.80485, 1.36492, 6.02265, -0.221897, -0.114702, 0.615244, -0.11515, 0.0595619, 0.84, 0.75, 0.779722, 0.421311, -5.9325, -4.76818, -6.19661, 1.12705, 12.0608, 3.78037, 1.17856, 0.708678, -1.72929, 3.18398, 4.12288, 5.12569, -2.37774, -5.26581, -2.43759, 1.96435, -2.62477, -3.03275, 0.160671, -4.51019, -1.02395, -2.87928, -0.0971377, 0.820706, 0.75, -0.566501, -1.53039, -2.03315, -6.84352, -3.94235, -3.09022, 1.22975, -0.231101, 5.49234, 7.72129, 1.24959, 4.71441, 2.52327, -8.16667, -4.69584, -0.892438, -6.47665, -0.214571, 4.1439, 0.375493, 0.338505, -1.48378, -7.50585, -3.10545, -0.715769, 0.412954, 0.554272, 0.68, -0.308156, -1.02731, -1.99808, -0.760203, -1.79126, -1.06229, -2.2378, -11.5735, -7.91383, -3.66103, -1.12629, 1.88202, -0.529959, -2.49702, -8.55538, -0.193792, 1.69595, 1.21151, -2.18207, -5.29917, 1.62299, -0.91603, -4.66579, -4.57683, -0.173845, 0.920943, 0.402528, 0.13, -0.181857, -1.63453, -1.6806, 0.65493, 1.11738, 0.709882, 2.6438, -3.69347, -4.06352, -4.572, -1.04061, 1.65373, 2.84863, 2.16188, 2.25186, 3.00239, 1.06961, -6.47512, -1.00038, 2.80785, 0.0516142, -4.73021, 0.255373, -1.47307, -0.670488, 0.561622, 0.42, 0.63, 0.47, -1.68001, -2.56099, 0.0194413, 1.83422, -0.632379, -1.34614, -4.94868, 1.58305, 1.62246, -3.217, -9.58479, -6.49652, -9.90924, -2.20068, -7.03401, -2.67688, -2.69275, -0.272453, 3.20336, -4.62436, 2.2113, 3.8766, 3.40312, -0.402754, 0.775022, 0.15, 0.5, 0.19, 0.299661, -1.10102, -3.41269, -2.09364, -4.01708, -5.70008, -1.04236, -1.06829, 1.8836, -2.12915, 1.2403, 4.01045, -2.26867, -2.46912, 1.82717, -3.00473, -3.60811, -1.94555, -1.78045, -0.496238, 1.97232, 3.58947, 4.42065, 2.52577, 0.513782, 0.47, 0.52, 0.584434, 0.785661, -1.52253, -1.79391, -3.16415, -3.81468, 0.0140678, -3.31138, -3.0636, -3.44786, 4.98536, 0.309983, 1.25972, -4.18264, -1.45664, 2.80778, -0.246207, -7.48733, -1.24247, -2.60914, 0.164332, 2.26532, 1.13865, 0.430744, 1.79623, 0.639555, 0.1, 0.61, 0.85, 0.73, -0.795905, 0.699382, 3.08465, 1.98609, 1.62521, 1.82413, -0.187179, 9.52539, 5.905, -1.91869, 0.915846, 3.85038, 1.55872, 1.94072, -1.2916, 5.12177, 3.73797, 3.68437, 2.45051, 2.1803, 0.823869, 0.0314782, 0.109984, 0.69, 0.98, 0.98, 0.03, 0.52, 0.583044, 0.190244, 0.481489, 1.22573, 2.84271, -0.512646, -0.262691, -0.0806953, 0.878618, 2.02537, 5.21916, 7.77764, 3.07675, 7.13762, 3.94409, 1.82153, 4.55775, 6.06436, 4.67866, 1.01581, 0.390707, 1.00219, 0.728816, 0.35, 0.57, 0.83, 0.62, 0.02, 0.62, 0.141598, 0.92092, 0.444883, 3.03887, 0.480977, 2.91312, 5.02242, 10.4632, 5.0073, 4.65753, 1.27966, 0.838314, 5.57557, 3.5327, 1.2135, 3.35113, 2.19691, 2.96744, 0.498323, 0.52992, 0.313714, 0.31, 0.89, 0.52, 0.3, 0.72, 0.64, 0.07, 0.95, 0.28, 0.825143, 1.18533, -0.318557, 0.291472, 1.65124, 1.56654, -0.752853, -0.838982, 0.341755, 1.65135, 2.01721, 2.08091, 0.89905, 1.80921, 1.41182, 0.83482, 0.03, 0.61, 0.9, 0.62, 0.07, 0.97, 889.807]
[0.23, 0.9, 0.17, 0.4, 0.03, 0.66, 0.83, 0.61, 0.59, 0.45, 0.86, 0.51, 0.65, 0.01, 0.4, 0.09, 0.97, 0.83, 0.5, 0.58, 0.21, 0.75, 0.81, 0.87, 0.71, 0.87, 0.99, 0.04, 0.79, 0.38, 0, 0.3, 0.61, -0.0533849, -1.39944, -0.570385, -1.15089, -0.293736, 0.201298, 0.606768, 0.253681, 1.19652, 0.611041, 0.626899, -0.0235015, 0.752093, 1.12021, 0.888851, 0.634235, 0.46, 0.38, 0.7, 0.38, 0.76, 0.55, 0.17, 0.71, 0.6, 0.52, 0.58, 0.33, -0.30008, -0.914601, -0.615079, 0.396105, 1.56368, 0.812079, 1.12019, -0.145173, -0.302692, 2.19931, 1.15175, -0.765983, -0.716128, -0.934945, -0.270746, -0.832237, 0.363312, 0.797297, 0.276318, 0.980029, 0.89, 0.48, 0.79, 0.47, 0.49, 0.31, 0.69, 0.78878, 1.13388, -0.0257097, -0.532295, 1.15258, 0.03247, -1.79033, -1.06036, -2.64468, -3.78552, -1.06213, -2.27672, -4.91565, -0.963874, 1.60517, 1.12336, -2.31223, -2.48261, -1.31068, -0.651252, 1.01673, 1.05113, 0.669461, 0.48, 0.69, 0.3, 0.11, 0.179388, 0.81153, 0.138383, -1.55154, -3.33772, -0.0626371, -2.65549, -7.57285, -4.09618, -4.87242, -0.483704, 2.65751, 0.841766, 1.21928, 4.27171, 2.20426, -2.41245, -2.61231, -4.53696, -0.0157893, 1.57466, -0.129375, 0.493166, 0.358861, 0.4, 0.7, 0.761116, 0.950605, 0.56166, 0.332951, -0.18741, -3.87708, -4.10036, 0.992445, 1.39546, 0.0552633, 2.03389, -6.69437, -10.4617, -4.26846, -0.66708, -1.30904, 1.92583, 0.954881, 1.40007, 1.40626, -0.320903, 1.84897, 2.74344, 2.19646, -0.76914, 0.907717, 0.78, 0.83, 0.25, 0.649931, 0.401897, 0.174583, 0.378856, -0.682627, 2.54914, -0.443617, -0.826596, 0.534712, 1.01907, 0.652988, -3.34646, -2.72955, -5.08261, -4.67407, -0.92111, -0.978412, 4.65206, 3.35705, 1.65803, 3.18087, 0.769147, 0.71839, -0.00186915, 0.650222, 0.253569, 0.18, 0.609123, -0.0633915, -0.941341, 3.26729, 1.1513, 4.07057, 4.42187, 2.57491, 3.47601, -0.901916, -0.421064, 1.72879, -3.98739, -1.22318, -0.642903, -1.70045, -1.96032, -5.98129, 3.52276, 1.48482, -2.35333, -1.09709, 6.32339, 7.52768, 0.9662, 0.267119, 0.691923, 0.38, 0.763159, 0.626573, 0.266468, 3.31642, 7.48463, 3.23177, 2.41455, 2.60289, 3.38885, 0.0149109, -0.722652, -0.681883, -1.63759, -3.55779, -2.40792, -2.52329, 0.582444, -4.45588, 1.06408, 2.89895, 2.37759, 1.39547, 5.05006, 4.59611, -0.177194, 0.926349, 0.479532, 1.05754, 1.49988, 1.25148, 1.9372, 2.50192, 3.89806, 0.317754, -1.22782, 0.372481, -2.86669, 2.46566, 2.65303, 3.23273, -3.5223, 1.46127, -0.76742, 0.792955, -0.554866, 1.34308, 2.98409, 5.70089, 0.672608, 4.07983, 4.40611, 4.30429, 3.71784, 0.541578, 0.559819, 0.763775, 1.30564, 2.96522, 2.76572, 1.64876, 0.316669, 2.31483, 4.28956, 0.675489, 5.253, 1.27896, 1.45549, 6.00419, 1.64032, -2.79209, 5.81516, 4.57477, 3.3696, 4.62534, -3.13828, -6.02598, -1.82202, 4.40023, 1.75795, 6.28546, 3.2522, -0.011769, 0.182286, 0.679156, 1.85397, 2.85526, 2.22505, -1.65511, -2.86954, 0.420843, 1.52055, -0.441068, 4.25203, 0.186224, 2.47762, -0.2951, 0.601659, 3.87968, 4.60984, -0.568191, -5.12344, -6.0129, -0.0238156, -8.53276, -0.399678, -0.5776, -1.17035, -0.411932, -1.97049, -1.08804, 0.655361, 0.02, 1.86522, 2.56587, 1.23679, -3.89887, -1.61571, -4.04991, -0.0145634, 0.553929, 0.238294, 3.45186, 3.84565, 10.4913, -3.1936, -1.43864, 3.30736, 3.00415, -0.855163, -0.743716, -5.20007, 5.89277, 1.35235, -3.21297, -2.06088, -2.59441, -1.16976, 0.316934, 0.56, 0.09, 0.881902, 1.20045, 1.18944, -3.64613, -0.184509, -2.51347, -1.20377, -1.19206, 0.498539, -0.593269, 4.08502, -2.07148, -6.43688, 0.186483, -0.0870818, -1.3037, 4.81144, -0.229824, -2.72133, 0.706029, -0.406232, -4.2592, -2.09761, -1.9848, 1.00478, 0.651527, 0.38, 0.7, 0.24, 0.177722, 1.30414, -4.2415, -1.17269, 0.532873, 1.34196, 0.838637, -1.71634, -3.70603, -3.32852, -2.90453, -0.819271, 4.32054, -2.72084, 0.953971, 1.41696, -2.41157, 2.64331, -0.175966, -1.09318, -4.01513, -3.61898, -1.99585, 1.0487, 0.535809, 0.69, 0.03, 0.29, 0.820822, 1.53002, -4.21096, -3.65146, 1.48311, -0.29116, -2.95395, -6.03904, -1.64717, -3.32693, -1.15353, -4.35173, 1.3932, 4.67687, 3.04672, -3.09314, 2.77974, -2.787, 0.259145, 1.15512, -0.445751, -3.37223, -1.48889, -0.0716623, -0.146216, 0.890288, 0.66, 0.856254, 1.35079, 0.266672, -4.87523, -1.26652, -2.71034, -9.0155, -9.84655, 0.609356, -0.366152, 0.212883, 0.909418, 2.11308, 0.841239, 3.28274, -0.787195, 2.21336, 1.70312, -3.57479, -0.497216, 1.72317, -1.35557, -3.08837, -4.4427, -1.72708, -0.826919, 0.187637, 0.31, 0.38, 1.40801, -0.893091, -1.17804, 0.436759, -0.946009, 0.828495, 3.15446, -6.18306, 5.52918, 3.19778, 4.39077, 0.956416, 1.76196, -0.28477, 3.5956, 8.23617, -2.18621, 2.47917, 1.51633, -3.64225, -5.47994, -6.86451, -3.38428, -2.60463, -0.232535, 0.745588, 0.92, 0.392186, 0.660668, -1.11518, -0.0386693, 1.53817, -6.17274, 3.04046, 0.390033, -6.31676, 0.340682, 3.69385, 6.96903, 7.76191, 6.65102, 6.93908, 3.7436, -0.164146, 2.31088, 0.585664, 4.27774, -0.908968, -1.26226, -2.98151, -3.0919, -2.79336, -0.0467414, 0.872847, 0.3, -0.271531, 0.372019, 1.91808, -1.05105, 1.87314, -2.07676, 0.729953, -3.65384, -4.49596, 0.0728437, -3.05338, -1.70854, -0.132441, -1.82215, 0.0377596, 1.54318, 3.64053, -3.11347, 0.815146, 1.24951, -0.855418, -0.652368, 2.15175, -0.804938, 0.603155, 1.05075, 0.41997, 0.67, 0.209197, 1.11649, 0.571432, -0.896116, -4.72105, 0.411867, -3.77824, -3.23871, 1.51832, -3.89177, -4.1076, 0.156322, -6.64202, -2.12972, 2.25298, 1.4257, -3.12712, -3.15971, -4.7186, -0.422318, 1.41527, 0.379955, 1.98774, 2.44156, 0.581892, 0.251686, 0.15, 0.92, 0.11, 0.87861, -0.0205161, -1.42569, 0.0583145, 3.21341, -1.95641, 1.89426, 3.20998, -0.963717, -0.505266, 4.07238, 2.19381, -0.787806, -2.94023, -0.268548, 1.05029, 4.48972, -3.03082, -2.88088, 1.10973, 3.47994, 3.38948, 0.282961, 0.303455, 0.472471, 0.79, 0.16, 0, 1.36854, 1.19305, -0.657571, 1.14053, -2.63901, -1.54295, 0.968539, 1.18959, 3.94846, 2.06275, -1.63646, -1.52348, 4.25404, 0.752727, 2.41663, 3.72857, 5.0406, 1.04816, -0.132808, 0.131976, 5.11353, 2.62401, -0.53013, -0.0125515, 0.878892, 0.29, 0.61, 0.601116, 0.155292, -1.03143, -2.83116, 0.813733, -1.06268, -1.84143, -2.10714, -0.681655, -0.564064, -3.16709, 1.38417, 1.69542, 2.18529, 0.145976, 7.40133, 3.3012, -0.0375624, -0.556529, 1.52471, 2.02306, 3.76014, 0.531977, 0.741805, -0.461345, 0.931202, 0.66, 0.51, 0.4, 0.94, -0.930293, -1.5698, -0.27704, 1.8766, -0.643233, -2.24922, 2.20901, -0.53471, 0.840813, -0.229186, 0.37828, -0.219378, 1.51059, -6.47683, 0.0287051, 1.03862, -1.6723, 1.40381, 0.884704, 2.00107, 0.319758, 0.376959, 0.199934, 0.93, 0.92, 0.62, 0.14, 0.27, -0.0577704, -0.733679, -0.80588, -0.319461, -2.6824, -2.61451, 4.62865, -0.572696, 1.23256, 2.49242, -0.184221, -4.55198, -0.0986669, -0.869351, 3.24255, 2.66325, -0.134774, -1.7285, -2.18671, -0.70349, 0.0472591, 0.116025, 0.414669, 0.62, 0.27, 0.77, 0.17, 0.4, 0.42, -0.0733013, -0.0364254, 0.124753, -0.346024, -1.16268, -0.963764, -0.0330798, -2.08727, 0.116878, -2.0377, -0.617581, 0.299244, -2.74621, 0.284641, 1.69402, 0.838812, -0.343238, -1.06637, 0.289613, 0.886079, 0.178822, 0.85, 0.28, 0.43, 0, 0.55, 0.71, 0.7, 0.52, 0.75, 0.324957, 0.911434, 1.82153, 1.84397, 2.55093, 1.60685, 1.37331, 0.348827, 1.81103, 1.32344, 0.377531, 1.31352, 0.558905, 1.95909, 0.813067, 0.63504, 0.57, 0.48, 0.56, 0.7, 0.5, 0.82, 2351.35]
[0.93, 0.99, 0.32, 0.44, 0.31, 0.75, 0.04, 0.5, 0.26, 0.66, 0.38, 0.01, 0.23, 0.43, 0.41, 0.8, 0.95, 0.18, 0.59, 0.63, 0.28, 0.29, 0.88, 0.54, 0.13, 0.79, 0.69, 0.66, 0.79, 0.77, 0.37, 0.02, 0.15, 0.954692, 0.445442, 0.864237, 0.691755, 0.324864, 0.423364, 0.452117, 0.907489, 0.83187, -0.0901689, -0.0339605, 0.0146597, 0.76421, 0.543161, 0.788704, -0.00195485, 0.1, 0.28, 0.56, 0.05, 0.65, 0.23, 0.69, 0.15, 0.53, 0.05, 0.84, 0.78, 0.643344, 0.706643, 0.622887, 0.696828, -0.278552, 0.117858, -0.549747, -0.698312, -1.16328, -3.4027, -1.05465, -1.73722, -1.44517, -1.86459, -1.32461, -1.64179, -1.24045, -0.21287, 0.337849, 0.600026, 0.71, 0.27, 0.37, 0.43, 0.68, 0.33, 0.95, 0.866324, 0.0811373, 0.796502, 0.732745, 0.805095, 0.347753, 0.173998, 1.72156, 7.18636, 3.42938, -4.68626, -2.31515, -0.48073, 1.31688, 1.41986, -4.79019, -2.74792, -0.141558, 0.555578, 0.701978, -0.0407925, 0.816385, 0.290028, 0.24, 0.94, 0.82, 0.67, 0.259274, 0.384517, 0.875484, 0.822247, 1.17532, 3.05376, 7.86474, 2.34407, 1.77395, 1.90145, 2.38299, 4.4522, -2.4827, -0.276302, 0.304831, 2.18152, 4.63555, -2.40559, 0.480466, 0.612918, 3.07864, 1.60513, 0.0137212, 0.56887, 0.41, 0.35, 0.970745, 0.244988, -0.317302, 0.0966055, -1.28725, 1.16863, 3.02983, 6.38345, -1.87061, -2.90579, -0.54027, -0.175151, -2.4815, -1.91388, 1.41927, 6.5523, 0.817267, -1.36976, -2.48279, -6.79843, -8.3028, -5.2005, -2.85628, -1.35639, -0.272956, 0.536947, 0.72, 0.5, 0.41, 0.409793, -0.0741264, 0.858113, 0.0988671, 2.00364, 1.17468, 3.47166, 5.88011, 4.81628, -0.31169, -1.75945, -0.122578, 2.80316, 0.637869, 5.08766, 0.809428, 7.50588, 1.35035, -0.590797, -0.31694, 1.70492, 2.88889, 0.120088, 0.187727, 0.0466179, -0.507735, 0.43, 0.836817, 0.125321, 3.2244, 1.80048, 1.62444, 0.682011, 3.37739, 1.73229, -3.08543, 6.36796, 1.79296, -1.94846, 4.2702, 2.63688, -4.18274, -0.0194435, -8.44253, 0.49585, -1.16876, 1.64755, -5.70258, -0.997853, 0.0493167, 3.05665, 4.77473, 3.07903, 0.122288, 0.51, 0.0157171, 0.358053, 4.01834, 1.90395, -1.46568, 2.48404, 0.265396, 1.04947, -0.198307, -1.67604, -3.95819, -0.0937833, -1.07255, 2.15041, -0.729736, 3.03658, 1.47576, 3.39348, -0.738045, -1.3004, -2.6836, 4.49559, 3.76064, 6.81025, 2.29011, 4.42757, 1.97177, 0.820006, 0.632946, 0.324913, 1.40569, 2.49705, -2.45741, -0.483107, 0.892573, 2.49158, -2.32348, 4.32724, 0.748084, -1.91905, 2.03434, 3.44339, 5.30154, 4.01065, 0.0138122, 3.05727, 2.96658, 6.09535, 5.69851, 2.6752, 2.27715, 1.1251, 3.28196, 0.643796, 1.02633, 0.237559, 0.683481, -0.000924023, 0.613823, 1.50486, 2.52023, -1.38901, -1.95137, -0.278638, -1.57821, 4.20589, -2.84892, -6.21763, -10.184, 0.539553, -1.87574, 6.29529, 4.58077, -2.46457, 2.53236, -1.31659, 2.19952, 1.41874, 1.28562, 6.48105, 2.46165, 1.07236, 0.529433, 0.644606, 0.49118, -1.43067, 0.899921, 3.87916, 4.48359, -0.31635, 6.29596, -1.28049, -3.26637, -2.58267, 1.88436, 2.24141, -1.23428, -3.01982, -0.407026, 2.08458, 2.42911, -3.02254, -3.79732, -6.9607, -4.23889, -5.89816, -8.2622, -0.0579505, 4.48748, 4.41723, 0.541501, 0.51, -0.427977, -1.7529, 0.27766, 2.66359, 0.323165, -4.71512, -4.22083, -5.38385, 1.28059, 2.78137, 4.2358, 4.68022, -4.54561, -0.224308, 1.44073, 0.49701, -2.42061, 5.48989, 4.59772, -6.94626, -5.21654, -8.00581, -11.5135, -1.07189, 1.90564, 0.972683, 0.55, 0.02, -0.0502897, -1.16605, 0.420648, -0.238979, -0.311368, 0.750395, -3.28313, -2.52953, 0.206984, -2.96917, 7.41974, -1.3409, 1.23138, 2.57681, 1.44166, 7.57087, -1.47318, 2.61354, -3.40035, -1.90603, -5.83076, -4.40074, -7.52231, -2.29866, 0.87265, 0.332465, 0.97, 0.51, 0.01, -0.501193, -0.170107, -1.51349, 1.29961, 2.98253, -1.26751, 1.43482, 1.3966, 4.44937, 3.83735, -0.446937, 7.3134, -4.54522, -3.5732, 0.766765, -1.17311, -2.22092, -2.54034, -1.34279, 1.32684, -0.358773, -2.91203, 0.174153, 1.48346, 0.325265, 0.8, 0.45, 0.28, 0.363306, -0.256572, 1.55417, 0.712892, -2.1903, -5.00326, 2.81574, 1.14081, -0.593578, -1.26261, 1.42483, 4.25793, -3.66242, 0.101541, 0.183726, 0.126324, 0.62273, -3.49925, -0.556625, 3.31845, 3.42017, 0.402992, 3.49529, 2.67153, -0.268496, 0.859896, 0.88, 0.757723, -0.708281, 1.66561, 6.13641, 2.40785, -3.60786, 4.25639, -0.939804, -4.32742, -0.818793, -0.991153, 6.76778, 4.83387, 0.217836, 1.65592, 1.66035, -4.6526, 2.34263, 3.21296, -0.352011, -3.85376, 4.8093, 1.72325, 3.01504, 1.70902, 0.345404, 0.120994, 0.82, 0.83, -0.7051, 4.1945, 8.31694, 2.74927, 4.9315, 0.392008, -12.71, -5.7127, -4.43799, -7.25181, -2.93253, -2.27073, 3.27978, -4.64253, -2.16303, 2.82382, 4.83818, -2.15822, 6.39984, 1.98778, 2.68892, 3.10879, 2.17685, 0.792374, 0.515929, 0.112233, 0.2, 0.858094, 2.51877, 6.54939, 7.51937, 6.46748, 9.37569, -2.58726, -1.36438, -3.51979, -11.9396, -8.83958, -11.4882, -7.13248, 11.0456, -1.76408, 5.56355, 6.36349, 2.02817, -0.824596, 2.70665, 2.49442, 1.69676, -0.120567, 1.55195, 2.52074, 2.59645, 0.683865, 0.22, 1.55829, 2.08752, 2.17643, 0.48374, 0.869605, 3.66725, -0.61275, 11.8843, 0.25478, 0.476792, 4.92575, 0.0556374, -9.91595, -0.514683, 6.22449, 3.18616, 1.61835, -1.89043, 1.46984, 5.98898, 0.817861, 1.06285, 1.19784, 4.29487, 1.53949, 0.931182, 0.966606, 0.42, 0.515169, 0.229784, 3.11918, 4.23151, 4.13679, -0.849747, -4.54801, -0.866861, -7.50364, -0.852194, -0.464782, -0.124788, -7.55101, -5.42377, -7.67738, -0.230379, -4.69612, 3.81025, -0.367247, 2.87372, 0.998671, 3.77565, 0.943819, 0.122756, 2.30563, 0.379203, 0.41, 0.3, 0.9, 1.12355, 3.34676, 5.11458, -2.73377, -2.75268, -0.419747, -0.292735, -6.12489, -3.49283, -1.15126, -0.398529, 1.11512, 5.10723, 0.150494, 0.40692, 1.46567, 2.9161, 0.828283, 2.47126, 2.80445, -0.282987, -3.1915, 0.0581518, 0.681547, 0.554364, 0.25, 0.36, 0.8, -0.497042, -0.560613, 1.65095, -1.44384, 2.66497, -0.347789, 3.15656, 3.74538, -2.03007, 4.89595, 0.0457868, -6.54004, -1.66199, 4.15392, -5.87102, 1.18374, -2.94774, 3.00943, 5.16034, -1.49604, -2.37574, -3.1394, -0.748169, 0.946996, 0.661085, 0.78, 0.99, 0.730745, 0.383092, 3.121, 5.4112, 0.595703, -0.484874, -3.04431, 2.42153, 0.287358, 5.75998, -3.43156, 2.88737, -0.19922, -1.38809, -3.33099, -5.76408, 0.559567, 2.68209, 1.72429, 3.25373, -2.41214, -1.1099, -1.08154, 0.75195, 0.20026, 0.790613, 0.01, 0.12, 0.76, 0.64, 2.41169, 3.76768, 1.71855, 1.71487, 1.50908, 4.03613, 0.801544, -3.23625, 3.2601, 7.06856, 3.34029, 2.42902, 3.22537, 6.84832, 0.629937, -3.12755, 0.657269, -0.950555, -0.272028, -1.52172, -0.310034, 0.523636, 0.77003, 0.75, 0.13, 0.09, 0.71, 0.42, 0.688684, 1.03407, 1.57831, -0.815229, 1.7879, 5.92153, 8.65028, 2.98646, 3.95521, 3.70762, 1.39796, -2.09784, -0.667588, -4.73517, -4.73052, -5.31067, -4.17661, -3.82257, -1.8452, -0.00684462, 0.242048, 0.207875, 0.743758, 0.13, 0.82, 0.4, 0.16, 0.88, 0.19, 0.873196, 0.432739, -0.674299, 0.185026, -0.747895, -1.60721, -3.34675, -2.0027, 1.53045, 0.192677, -2.0388, -0.641039, -3.99888, -4.29935, -1.53626, -3.00474, -0.66033, 0.156158, 0.0265404, 0.324611, 0.151337, 0.77, 0.52, 0.65, 0.91, 0.38, 0.1, 0.67, 0.55, 0.87, 0.241623, 0.281394, 0.603618, 1.09142, 1.11888, 0.787114, 1.29599, 1.32701, 0.217578, -0.374726, -0.578291, 0.225888, 0.300965, -0.208508, -0.0378486, 0.405608, 0.45, 0.18, 0.15, 0.74, 0.52, 0.46, 933.922]
[0.24, 0.66, 0.81, 0.44, 0.4, 0.34, 0.96, 0.76, 0.27, 0.05, 0.18, 0.91, 0.41, 0.65, 0.91, 0.71, 0.59, 0, 0.17, 0.16, 0.43, 0.24, 0.64, 0.05, 0.57, 0.02, 0.66, 0.75, 0.46, 0.32, 0.89, 0.46, 0.45, -0.177371, -0.767886, -0.852228, -1.01023, -0.206754, 0.939413, 1.39544, 2.10433, 1.12762, 1.74148, 1.94536, 1.29258, 1.34707, 1.44598, 0.938384, 0.320745, 0.32, 0.56, 0.96, 0.1, 0.76, 0.92, 0.5, 0.9, 0.95, 0.52, 0.5, 0.15, 0.50831, 0.36257, 0.579372, 1.87698, 1.54763, 0.784213, 0.997063, 1.81699, 0.320988, 0.903607, 2.33591, 0.908857, 1.23496, 1.44077, 0.383212, -0.400121, 0.941332, 0.602344, 0.0416585, 0.100042, 0.5, 0.82, 0.21, 0.93, 0.38, 0.54, 0.93, 1.0953, 1.15773, 1.24282, 1.95243, 3.78965, 1.38696, 2.14596, 3.40035, 5.57575, 3.31576, 1.46518, 1.31923, 2.95197, 1.939, 0.38423, -2.6633, -0.828196, 0.0602377, 1.7579, 0.759251, 0.674581, 1.06036, 0.723009, 0.61, 0.51, 0.18, 0.63, 0.0298113, 0.115514, 0.762227, -0.276926, -1.66956, -0.331234, 0.10341, -1.49112, 1.50923, 3.30404, 4.64881, 5.84291, -2.12365, 5.32146, 6.56917, -1.68918, -2.25748, 0.779033, 2.02654, 1.01987, 0.413077, 0.707616, 0.663287, 0.561126, 0.46, 0.4, 0.969885, 0.419941, 0.280359, 1.57789, 1.06878, 0.817116, 1.9523, 2.45557, 4.19439, 4.04388, -4.50515, -1.01402, 2.8176, -2.09648, 1.84177, 2.04744, 1.68434, 1.07144, -1.28706, -0.467603, -0.342565, -3.31711, 1.10804, -1.33263, 0.139221, 0.130341, 0.97, 0.09, 0.52, 0.709415, 0.883133, 0.320434, 0.218571, 0.850243, -0.351552, 3.78517, 7.56017, -1.1455, -4.74086, 3.58287, 0.10571, 1.27927, -2.14599, 1.57367, -5.86764, -2.66555, -1.21715, -2.72336, 0.779803, 4.38882, 5.20265, 1.83961, 1.91881, -0.0369779, 0.780593, 0.06, 0.54283, 0.823565, 2.14143, 0.548797, -0.415972, 1.93761, -0.887876, 2.61149, 6.37557, 1.27805, -0.328072, -3.05599, -3.84958, -0.513298, -1.32189, -5.25266, -5.5137, -3.43511, -2.83328, 0.104375, -0.791245, 3.35309, 2.79397, 3.42266, 5.25215, 2.66237, 1.07246, 0.36, 0.680092, 0.506302, 1.83264, -0.42755, 0.630002, 1.62228, 0.13062, 3.73236, 1.4315, 2.40463, 0.399148, 1.13734, 0.784165, -5.06749, -2.22695, 0.957192, -4.46172, -0.956284, -1.24774, 3.95309, 1.87895, 4.50644, 1.67607, 7.83817, 6.6405, 2.33093, 1.2947, 0.0884737, 0.800779, 0.460695, 2.3455, 1.07368, 3.02354, 0.234078, -2.49595, -2.92353, -5.76568, 0.910294, -0.981411, 2.18753, -3.6793, -3.23548, 1.0125, -4.79185, -0.753822, 1.53431, 0.395773, -2.19331, 3.29103, -1.19189, 0.761491, 3.79626, 3.6648, 2.49244, 1.3698, 0.0821555, 0.287034, -0.381863, 1.97035, 0.0381025, 1.02925, -0.64441, -1.54122, -4.2957, -0.208654, 2.05789, -0.10996, -2.71473, 1.11874, -1.9787, -2.41707, -1.94074, -5.16373, -2.80481, -0.0460202, -6.40655, 0.723332, 4.25377, 3.50936, 0.361856, 1.26478, 0.181547, 0.321869, 0.805176, 0.908314, -0.112473, 1.05853, 0.806722, 3.60405, 2.30889, -0.108416, -0.190222, -1.74547, 0.0854155, -1.02649, -3.4074, 2.82704, 5.69897, -1.16193, -0.695499, -3.50422, -4.03559, -3.28987, -2.96909, -0.051036, 5.4087, 0.986211, 0.445431, 0.571011, -0.557653, 1.01913, 0.75, -0.11678, 0.886279, 2.16196, 2.44974, 5.18693, 5.81531, 3.25139, 3.26862, 5.689, 5.91385, 6.44097, 2.26603, -2.74817, 3.06065, 4.81828, -1.80939, 4.02282, 3.03469, 1.1774, -1.80564, -2.79149, 4.54798, 2.14578, 2.82657, 1.25319, 1.05204, 0.52, 0.21, 0.26318, 0.218651, 1.55324, 0.36284, 1.25476, 7.44807, 5.18268, 2.72721, 2.61483, 2.9595, 6.27985, 4.73438, 1.29697, -3.03995, 3.14686, 0.0468608, -0.463305, 1.61378, -7.88758, -2.43851, -1.70686, 1.52815, 0.925622, 0.788595, 1.76204, 1.25865, 0.59, 0.8, 0.98, 0.64411, 0.514916, -1.25427, 0.620746, 2.16455, -1.10449, -1.37675, 1.73693, 3.05128, 2.73174, 2.29189, 1.04426, -6.67057, -2.16449, 0.859528, -1.07326, -3.67952, -1.24666, 4.81002, 4.04835, 1.42589, -1.17289, 0.596634, -0.0982975, 1.3122, 0.26, 0.64, 0.85, 0.528526, -0.0502656, -0.246439, 2.22896, -1.52826, -3.49383, -0.467688, 1.60447, -6.93742, -2.57002, 0.840824, 1.06228, -1.07951, -1.16395, -1.32634, -1.46544, -1.59363, -2.3895, 1.03553, 0.757741, 5.11523, -1.03128, -2.4662, -2.55679, 0.879506, 0.619765, 0.73, 0.810002, 0.395369, 2.99748, 2.72703, 1.50467, -0.233718, 4.10336, 1.37052, 0.654282, -5.05251, -0.354477, -2.18693, -2.04726, 2.02321, -0.331682, -5.19754, 0.319678, 2.97972, 1.09674, 1.99008, 0.987605, 6.02909, 2.41981, -0.451763, -1.84133, 0.177453, 0.778558, 0.06, 0.27, 0.139383, 4.44437, 4.06715, 2.31826, -0.702746, -0.268475, -0.453819, -1.32001, 0.959292, -1.27721, -4.86337, 3.1345, 2.82899, 0.173673, -3.82398, -0.0333057, -1.10571, 0.860851, 8.76535, 2.91247, 1.15796, 1.26206, -1.69952, -4.35813, 0.113595, 0.77812, 0.19, 0.635955, 2.30044, 4.92856, 1.43876, 0.118184, 5.83562, -0.579546, 1.69786, 2.0092, -1.31299, -6.91428, -1.84279, 1.7614, -0.329952, -5.61505, -1.59135, 3.9656, -0.355579, -2.90853, -1.59285, 3.58803, 1.84614, -2.5001, -0.973022, -1.3976, -1.12356, 0.0497174, 0.35, 1.04086, 0.206979, 1.96868, 0.172959, -2.36746, 0.267242, 2.75276, 4.53464, 5.26384, 0.195374, -0.738189, 2.14543, -2.55861, -3.27826, -0.485194, -0.43408, 2.79112, 3.9275, 2.74959, -1.50941, 7.02465, 0.834666, -0.998656, 1.85126, -0.56546, -0.10788, 0.294101, 0.03, 0.427415, -0.636623, 2.01349, 1.95797, 2.35081, 2.52617, 1.51609, 1.9461, -0.80897, 4.37152, 7.45037, 3.70683, 7.43285, 1.86429, -2.66595, 1.47557, 2.29984, 4.60311, 5.69375, 1.01691, 2.00986, -0.651316, 0.579078, 0.301775, -0.932191, 0.0229231, 0.64, 0.14, 0.46, 0.86921, 0.364184, 1.13808, 0.674999, 4.2774, 3.20063, 3.59578, 4.20692, -3.80589, 3.05114, -0.749435, 2.35491, 5.82831, 3.60276, 1.68834, 7.08442, 2.84228, 1.81695, 4.82743, -1.71768, -4.28209, -1.78545, -0.296308, -0.559872, -0.184662, 0.56, 0.47, 0.56, 0.266405, -0.832542, 0.295722, 0.040617, 1.87169, 0.469322, 7.79826, 2.94852, -1.04552, 1.97224, 3.53534, 4.83834, 4.90731, 5.03153, 3.00246, 5.30457, -2.61701, 1.32715, -1.58084, -1.71488, -2.19462, -0.49093, 1.2364, -1.07464, 0.0656554, 0.69, 0.23, 0.989885, 0.127789, 0.554354, 2.62144, -1.37755, 0.553966, -0.188042, 0.130956, -0.266157, -0.100462, -0.0462552, 6.94007, 0.747796, 1.60276, 3.64123, 2.54105, 2.04629, -3.30782, -2.19023, 1.02111, 0.843812, -0.249287, 0.454437, 0.0956709, -0.183814, 0.28863, 0.42, 0.84, 0.72, 0.49, 1.80877, 2.27256, -0.71792, -2.91617, -0.562298, -1.5686, 2.26112, 1.27161, 4.62748, 7.15891, 1.94204, 2.18144, 2.64139, 6.0361, 3.50582, -0.791407, -3.68976, -1.93258, -1.10171, -0.335455, 0.305255, 0.866988, 0.729978, 0.6, 0.75, 0.74, 0.85, 0.01, 0.360146, 2.42392, 3.5933, 1.66901, -2.33376, -1.014, 4.58404, 3.15048, 4.2548, 3.95336, 2.4509, 0.180112, 3.30645, -0.960661, -0.361184, -1.09316, -3.07888, -2.21308, -0.860543, -0.247993, 0.909023, 0.625963, 0.809403, 0.99, 0.22, 0.02, 0.02, 0.69, 0.54, 0.326936, -0.0578969, 0.212468, -1.98813, -0.355907, -0.749248, -1.78136, -2.78316, -1.20686, -1.76752, 0.0710376, 1.99122, -1.89794, -1.56728, -0.279914, -1.58439, -0.321653, -0.363878, 0.283482, 0.519738, 0.602018, 0.07, 0.76, 0.72, 0.45, 0.92, 0.72, 0.28, 0.96, 0.11, 0.341811, 0.171369, 0.262758, 0.588572, -0.459688, 0.200858, 1.50735, 1.39502, 0.769264, 0.860877, -0.127253, 0.267694, 0.0603862, -0.497101, 0.558559, 0.444735, 0.74, 0.91, 0.88, 0.38, 0.64, 0.04, 139.926]
[0.53, 0.42, 0.04, 0.23, 0.52, 0.25, 0.11, 0.42, 0.24, 0.49, 0.35, 0.9, 0.46, 0.28, 0.55, 0.04, 0.41, 0.09, 0.81, 0.79, 0.02, 0.83, 0.92, 0.32, 0.12, 0.99, 0.61, 0.47, 0.05, 0.9, 0.69, 0.59, 0.28, 0.419004, 0.460134, 0.920599, 0.884704, 0.684742, 0.0868773, 0.676105, -0.103222, -0.518892, -0.557012, -0.0754568, 0.0603425, 0.763147, -0.148952, 0.831827, 0.0677019, 0.64, 0.26, 0.72, 0.79, 0.93, 0.82, 0.05, 0.36, 0.33, 0.05, 0.87, 0.32, -0.0158806, -0.219861, 0.314784, -0.609306, -0.63987, -0.717869, 0.599255, 0.279289, 2.48992, 3.9578, 3.49783, 2.49988, 2.16253, 0.684891, 0.333209, 0.881237, 0.215179, 0.0849327, 0.19537, 0.670007, 0.58, 0.43, 0.61, 0.03, 0.9, 0.86, 0.26, 0.124905, -0.257698, -1.76284, -1.41943, -2.49308, -3.0047, 0.612064, 0.536779, 0.714812, 1.99929, 0.692891, 0.302258, 2.97887, 3.01098, 1.90413, -0.845972, 0.14661, -1.30003, -0.499636, 0.223911, 0.654143, 0.407081, 0.12333, 0.67, 0.12, 0.34, 0.52, 0.579953, 0.627435, 0.263853, -1.94458, -2.42432, -2.61689, -0.861385, -0.101715, 0.471867, 3.36126, -0.0373195, 1.33314, -2.78621, 1.367, 1.78292, -0.641381, 0.600759, -2.16854, -0.191004, 2.90167, 0.732416, 0.850653, 1.28834, 0.619814, 0.86, 0.3, 0.0869521, 0.398359, -0.0405565, 1.41206, 1.9411, 2.87664, 1.24369, -0.0431463, 0.452621, 0.972183, -6.96994, 1.16634, 7.53184, 4.94209, 5.81482, -1.11741, 0.220093, 4.17396, 1.47558, -2.95684, -4.18469, 1.17172, 2.16821, 0.616993, -0.0795832, 0.170238, 0.13, 0.53, 0.17, 0.76941, 1.17261, 1.28341, 2.54019, 3.26303, -2.07136, 0.774906, 3.50633, -1.2278, -0.964752, 4.80834, -1.65754, 2.77571, 2.03708, -0.654821, -5.11896, -1.18212, -3.83292, -5.89698, 0.119383, 2.64525, 2.40276, -1.13145, -0.884851, 0.731554, 0.88342, 0.54, 0.699809, 0.64563, 1.8611, 0.406573, -0.5955, 1.54313, -2.66571, -0.422286, 1.71982, -1.96609, 2.15438, -0.532166, 2.80416, 2.01738, 1.24699, 1.80069, -0.0996321, 0.296497, -1.49496, -1.54114, -0.611898, -5.43576, -3.83553, -0.204973, 4.71191, 2.1063, 0.722897, 0.18, 0.697177, 0.887148, 0.586035, 2.13747, 1.88999, -0.952467, -2.21287, 3.18123, 1.30896, 0.0909326, -2.14644, -3.91569, -0.871237, 0.487315, -0.957925, 1.575, -4.56779, -0.96912, 1.22032, 3.05179, 2.25343, -2.96534, -4.0511, 2.18647, 5.59114, 2.08091, 1.93076, 0.0780384, 1.00355, -0.10443, 2.28974, 3.98663, 1.71911, -1.77753, -3.47603, -2.51027, -3.12138, -5.55302, -2.87426, -5.3503, 7.50478, 2.10775, -3.34055, -0.13126, -1.83811, 3.52249, 2.70277, 2.24054, -0.10125, -2.42558, -4.01483, -0.455224, 3.38961, 2.03994, 1.31, 0.504563, 0.576105, -0.411375, 2.65838, 1.40917, 1.171, -4.65026, -4.39103, 3.30622, -2.513, -4.46574, -4.13288, -1.78985, 5.50905, 6.54727, 0.47204, 3.68434, -0.460188, -4.51829, 0.38007, -0.670261, -1.40126, -0.662844, 1.45599, 2.22413, 2.98425, 2.5327, 1.23728, 0.0887789, 0.514505, -0.985889, 1.29651, 2.4251, 0.893726, -4.7824, -0.357396, 6.19608, -2.4158, -3.13081, 1.67291, 2.6527, 5.13902, 9.88502, 2.84029, 1.59554, 0.767508, -1.04374, 0.799038, 0.596351, -0.648632, 3.94543, 0.0229999, 1.90848, 3.46144, 1.53386, 1.42192, 0, -0.457597, -1.66434, 2.18091, 3.60288, -0.126265, -0.279099, 2.34873, 5.40851, 0.730164, 1.91438, -0.317605, -3.02162, 1.84067, 5.33023, 2.07012, 1.87113, -1.94893, -1.84578, 4.34005, -4.26954, -0.719682, 1.22701, -4.0001, -1.53169, 0.851224, 0.741986, 0.7, 0.83, -0.400302, 0.292725, 3.50617, 0.253877, -2.0615, -0.111789, -3.15907, 2.9829, 1.82595, 0.192337, 2.33357, 6.90234, 11.615, 10.2523, 2.97669, 3.78507, 0.917655, 3.03066, 0.662013, 1.64893, -3.78588, -6.11874, -2.72727, -1.83922, 0.520282, 0.681875, 0.7, 0.9, 0.12, 0.275289, 0.830668, 0.541907, -2.01068, -3.54334, -5.53175, 0.895336, 1.30368, 3.72132, 3.35554, 7.6214, 6.25127, 8.25508, 3.47008, 1.94394, -1.49607, -1.50182, 0.781878, 0.954858, -5.25381, -2.57589, -0.495263, -0.951458, -0.507946, 0.515493, 0.66, 0.5, 0.7, 0.404227, 0.610515, 0.0664038, 0.143614, -6.51439, -6.31993, -0.374182, 4.32611, 0.540551, -1.50619, 7.75803, 10.3631, 6.49171, 2.21012, 1.11428, 2.70571, -1.28567, 0.685424, 5.2839, 2.24909, 2.1389, -1.94489, -0.403531, -0.883321, 1.04527, 0.00068638, 0.24, 0.641269, 0.401033, 2.89785, 1.267, 1.04345, 0.270526, 6.58834, 0.281171, -2.9295, -3.15165, 1.13377, 7.17818, 2.49337, -0.902792, -1.49825, -0.0745136, -1.1056, 0.936435, -1.26398, -2.79006, -0.960198, 2.38653, 0.984565, -0.462341, -0.385424, 1.26755, 0.220562, 0.57, 0.53, 0.907836, 3.87559, 2.06864, 2.06117, -0.253121, -3.09605, -2.52783, -5.13718, -7.56603, -0.0767937, 5.16033, 4.65666, -1.28336, -2.53266, -0.134247, -2.61082, 2.62121, -4.4402, 1.7709, 0.982986, 4.75527, 2.19739, -1.08589, 0.699746, 0.137655, 0.696542, 0.93, 0.379682, 1.26899, 4.80926, 2.60715, 2.14254, 5.95852, -1.37107, 1.27746, -4.76797, -10.5669, -4.22684, -6.85416, -3.61293, 1.97437, -4.9748, 2.97112, 1.32482, -4.45678, -2.07383, -4.28763, 2.54124, 4.87121, 3.94667, 5.05415, 3.00262, 0.83295, 0.39977, 0.17, 0.220544, 0.65452, 2.81673, 0.613752, -1.06326, 1.73588, 1.09383, 4.87318, 1.99153, -1.44906, -1.32923, -6.777, -3.09861, 0.870148, 2.77203, 2.65733, -0.142337, 3.65122, 4.74435, 2.12311, 0.115951, 1.71209, 3.8915, 5.29738, 1.11877, 0.358353, 0.499855, 0.58, 0.764195, 0.163237, 2.12382, 3.04981, 0.63358, -0.628123, -2.70564, 4.62755, 0.624313, 7.60278, 4.05997, -5.57595, -2.92888, -1.74926, 0.6905, 7.56457, 0.819971, 5.62704, 2.31311, -1.66513, -6.4881, -2.14433, 1.22419, 0.637304, -0.501941, 0.671892, 0.22, 0.36, 0.9, 0.00347073, 2.45855, 2.27102, -0.787927, -0.447783, 0.729831, -0.590002, -0.241395, 1.30283, 0.952298, -4.40123, 2.85617, 7.33373, -0.754267, 0.169332, 3.15732, 0.379351, -2.18153, 0.630006, -5.91421, -4.04254, -0.617463, -0.917867, -0.45405, 0.211281, 0.47, 0.46, 0.71, 0.760244, 1.29655, 3.84786, 1.86762, 3.24348, -0.0829284, -0.206159, -2.55349, -2.95618, -0.276579, -0.187542, -3.66688, -3.16541, -1.86738, 1.18713, 3.12376, 2.70332, -1.32957, -3.37299, -5.60281, -2.16752, -1.73528, -0.241023, -0.629021, 0.454595, 0.94, 0.16, 0.286953, 0.26337, 1.76377, 5.46305, 6.30415, 1.89709, 1.06324, -2.79561, 2.0342, 7.07222, 4.23062, 4.93876, 5.24343, 3.3209, 2.3784, -4.02677, 3.5594, 1.51033, -0.104434, -0.537204, -2.58356, -1.13126, -1.29036, -0.137959, 0.278187, 0.958353, 0.41, 0.5, 0.32, 0.72, 1.76107, 4.77199, 0.425711, -1.60159, 2.03671, 4.69091, 2.84235, -0.931043, 1.78056, 3.01667, 0.521011, -0.758186, 0.808635, 1.63358, 1.8798, 2.47825, 0.72663, -3.37131, -1.49147, 0.0578736, -0.554991, 0.757758, 0.609958, 0.95, 0.51, 0.66, 0.83, 0.1, 0.763608, 3.26962, 3.19535, 2.56332, 1.40627, 3.21948, 1.87306, 4.29472, 1.03698, 2.83388, 1.95262, 2.19815, 7.62253, 1.01674, -3.34118, -2.48742, -2.55406, -1.59725, -0.0980271, 0.663923, 0.480129, 1.01855, 0.702786, 0.74, 0.84, 0.29, 0.35, 0.6, 0.05, 0.210467, 0.356367, 0.396225, -0.684711, 1.50392, -0.626209, -1.66249, -4.01271, -0.677073, 2.11061, 1.62419, -0.484467, -0.943486, 0.36924, -0.808337, -3.55862, -0.472995, 0.672931, 0.531629, 0.862421, 0.608249, 0.82, 0.36, 0.19, 0.7, 0.79, 0.25, 0.19, 0.09, 0.01, 0.28682, -0.439717, -0.950096, -0.860797, -1.74104, -1.46577, 0.998553, 2.11354, -0.091907, 0.221308, 0.131895, 0.345614, 1.07847, -1.72775, 0.816784, 0.237508, 0.11, 0.67, 0.65, 0.4, 0.79, 0.55, -113.411]
[0.61, 0.32, 0.27, 0.6, 0.39, 0.66, 0.37, 0.48, 0.48, 0.04, 0.48, 0.65, 0.21, 0.33, 0.75, 0.41, 0.14, 0.47, 0.62, 0.54, 0.76, 0.54, 0.58, 0.21, 0.84, 0.88, 0.66, 0.16, 0.56, 0.8, 0.29, 0.37, 0.29, 0.880414, 0.370466, 0.000143082, -0.0485832, 0.952514, 0.628918, 1.52926, 1.15662, 0.841439, 1.13349, 0.812552, 0.842705, 0.954728, 0.806131, 0.525892, 0.817887, 0.83, 0.87, 0.23, 0.97, 0.96, 0.94, 0.01, 0.53, 0.2, 0.03, 0.72, 0.2, 0.584827, 0.867346, 0.277906, 0.79475, 1.09719, 2.18071, 2.43031, 1.49656, 1.15078, 0.599471, 2.36673, 1.64995, 0.431496, 0.242845, 1.72356, 1.83515, 0.981685, 0.833682, 0.316053, 0.030002, 0.1, 0.4, 0.27, 0.1, 0.27, 0.82, 0.93, 0.851157, 0.74699, 0.752773, 0.763359, 1.11365, 1.01202, 2.3325, 2.50059, 1.71497, 0.800511, -1.08626, -0.471307, 0.459119, 1.22185, 3.12024, 3.85684, 4.33127, 3.05939, 1.854, 1.15658, 0.922929, 1.18906, 0.52834, 0.34, 0.41, 0.19, 0.52, 0.558213, -0.0141243, 0.0192267, 2.31584, 6.10058, 3.04815, 3.98102, 2.4255, 3.0564, 4.12099, -2.64371, -4.72844, -1.5593, -2.50638, -6.23354, 1.84554, 2.69729, 3.45105, 3.81252, 3.58869, 1.85115, 1.57874, 0.582104, 0.197668, 0.48, 0.1, 0.949503, 0.189724, 0.317652, 0.89616, 0.982266, 4.62677, 5.5972, -0.06551, -0.956007, 0.332814, -1.3881, 4.47959, 1.63932, 4.65838, 0.287887, -1.66253, -1.45322, -5.82669, -1.74476, 1.24201, -0.62132, -2.00239, -0.850804, -0.920998, 0.201267, 0.474343, 0.45, 0.28, 0.94, 0.260529, 1.06367, 0.471066, -0.169844, -1.17713, -1.05079, 1.20595, 3.21801, 4.68972, 2.35986, 2.62836, 0.0491077, 2.66157, 8.63729, -0.810978, 1.5061, 0.218698, 2.85186, -0.0765885, 1.52557, -1.62269, -2.71603, -2.87387, -0.959245, 1.22896, 0.467986, 0.49, 0.341476, 0.618193, 1.09699, 0.271825, -0.629456, -4.3387, -0.0011693, -0.422864, -1.51393, -1.69965, 1.63587, 1.22918, 5.84706, 5.08839, 2.37865, 2.30638, 6.08985, 7.35813, 0.133749, -0.548786, 1.82383, 1.54393, -2.62537, -6.42141, -1.98981, 1.18036, -0.341989, 0.11, 0.714444, 0.461851, -0.761783, -1.35579, -1.11345, -3.60463, -1.47006, -3.32542, 0.134706, -2.23853, 2.17782, 2.06373, 7.38409, 3.65434, 5.63803, 0.892993, 0.559656, 5.39517, -1.64982, -4.05719, -1.01059, 0.593771, -5.41851, -4.42637, 0.303072, 2.05354, 1.57884, 0.262657, -0.524224, 0.646795, 0.852625, 0.498478, -1.06824, -4.0603, -1.57767, 4.6024, 3.54362, -2.26786, -0.767697, -0.503471, 6.20813, -2.43877, -3.29777, 3.32909, -2.43521, -4.00884, 0.750767, -2.3979, -2.5053, 0.457874, -1.01579, 5.2764, 2.60449, 0.877074, 0.835282, 0.234395, -1.21301, -0.591979, -0.405929, 0.885516, -2.69562, -5.63032, 0.571795, -1.29235, -3.21502, -0.517184, 2.72971, -0.776139, 2.47522, 2.35733, -3.15955, -1.01671, -1.72657, -0.306602, 2.67678, 1.25763, 2.38484, 0.212309, 4.89055, 6.42061, 2.83805, 0.949385, 0.226954, 0.220702, -0.889384, -0.81252, 0.564532, 0.374437, -1.49284, 2.68475, -3.81653, -0.748551, -1.7964, -4.89712, 2.85938, 0.547199, 2.95506, 0.28705, 2.31592, 1.71579, 1.30873, 1.42646, -2.37184, 1.04773, -3.15393, 0.631543, 0.980888, -0.732808, 1.93592, 1.45817, 0.439366, 0.71, -1.24134, -2.15164, -0.348697, 1.86203, 2.57009, 6.19627, 3.7871, 3.6852, 1.79524, 1.70741, 1.84702, -7.71467, 3.13061, 5.31016, 0.16541, 1.10692, 1.29452, 1.54662, 4.18408, -0.611296, 1.4493, 5.12115, 0.0858569, -3.36073, -0.465206, 0.848035, 0.01, 0.73, -0.17752, 0.0692559, 0.889244, 3.00116, 1.27098, -1.1915, 2.88187, 0.568065, -5.09551, 3.01518, 0.15325, -4.87302, 9.20085, 6.7017, -5.32088, 6.04586, 1.20638, 3.38826, 7.44997, -0.0528702, 1.93446, 2.51703, -0.12166, 0.0617728, -0.991274, 0.89465, 0.19, 0.81, 0.7, 1.07934, -0.197297, 4.2005, -0.603515, -0.109209, -4.75747, -0.450334, -6.0453, 0.00306262, 0.350489, -2.66984, -0.331183, -1.179, 0.978539, -0.700681, 0.216415, 4.52852, -5.02476, 1.10946, 0.168871, 1.19611, -2.26334, -0.653944, -1.72673, 0.61217, 0.98, 0.77, 0.98, 0.951988, 0.00179934, 3.74891, 2.1729, -1.81139, 0.857968, -1.93538, -0.13996, 1.84699, 0.592784, -3.48845, 0.844482, 0.685432, -3.28289, 2.35451, -0.708826, -4.1987, -2.63066, 2.00277, -0.981103, -3.45757, -2.37054, -1.52278, -1.56315, 1.21635, 0.989572, 0.92, 0.489558, 1.42642, 1.21086, 2.10728, 0.500908, -1.03951, 3.38386, 4.05312, -9.12147, 2.217, -3.20191, 2.58234, 1.90278, -1.4655, -7.18118, -0.761437, -2.39398, 0.419339, -2.14631, 1.95535, 4.1125, -0.665203, 2.25497, 2.48233, -0.0832477, 0.888327, 0.209221, 0.4, 0.4, 1.58734, 1.48081, -1.59587, 2.09301, 0.295005, -2.86645, 0.949308, 5.06001, -0.168631, 1.76572, 1.52591, -2.18915, -1.72219, 2.5993, -1.45047, 0.0273643, 8.20424, -1.46542, -2.98588, 3.127, -2.14838, -0.493262, 0.25816, -0.173381, 0.412485, 0.153616, 0.84, 0.0387147, 0.0118351, 0.674289, -1.06607, 0.888069, 9.27084, 0.0625789, 5.27437, 2.97395, 0.476792, -0.214492, -3.6227, -5.4633, -0.344944, 4.49466, 6.94538, 3.02714, 1.97671, 2.5737, -1.38282, -0.472796, -2.84202, -2.38412, 1.95269, 1.4711, -0.598168, 0.625536, 0.65, -0.499029, -0.710069, 2.06315, 0.587302, 0.477271, 4.66753, 1.95203, -2.32798, -6.60369, -3.48334, -1.9465, 0.252637, -2.18347, 1.15175, 3.50011, 1.87895, 0.0325695, 4.41208, 3.30069, 1.14768, -1.47575, -1.29334, 2.48382, 1.1659, 1.03133, 0.266907, 0.701195, 0.43, 0.462491, 0.0788953, 2.37654, 2.57075, -0.16361, -3.13706, -1.4571, -0.955176, -5.96025, -1.64786, -2.91723, -2.54808, 4.06241, -2.44823, -1.966, 3.24881, 0.0501984, 1.65934, 0.774512, 2.70457, -1.29952, 1.01259, 3.39019, -0.316934, -0.687197, 0.745929, 0.95, 0.45, 0.12, 0.469226, 1.15975, 1.87829, -2.18353, -5.2909, -6.71205, -2.94564, -3.39748, 1.13644, -6.36349, -1.49347, 3.71126, 2.46448, -3.8944, -0.872335, -1.78059, -2.54354, 0.823991, 3.74329, 3.05122, -0.208284, 1.33117, 1.68226, 0.259321, -0.0685465, 0.52, 0.37, 0.35, 1.06299, 0.694782, 3.98029, -0.386179, -2.50941, -4.82881, -3.38398, -0.263695, -2.38665, -3.94205, -0.702658, 1.71841, -9.35871, -2.96597, 0.584888, -0.196427, 0.505919, -2.04979, 1.61151, -0.274072, -1.28321, -1.01824, 3.93288, 2.93953, 0.605055, 0.69, 0.72, 0.149503, 0.429278, 0.99114, 3.00523, -0.290618, -0.387782, -0.96171, 2.33986, -1.03415, -2.01801, -1.24861, -4.31473, 3.35133, -7.43455, -3.03216, -4.47978, -3.43249, -3.47632, -2.0314, -6.74576, -4.80151, -2.39118, 0.374247, 0.466398, 1.88721, 0.728691, 0.79, 0.09, 0.62, 0.24, 1.08633, 1.9757, 2.45073, 1.5688, 1.55449, 4.44333, -2.29163, 2.55293, -4.72203, -7.11576, -3.45248, -3.16327, -2.16508, 3.81228, 0.507011, 0.508824, 2.18474, -0.650684, 0.881389, 1.32895, 0.658444, 0.185107, 0.67999, 0.84, 0.17, 0.64, 0.16, 0.14, 0.702993, 1.84656, 1.29557, 1.79213, 5.77605, 6.14966, -1.94374, 4.53401, 5.39477, 5.44854, 3.97647, 6.234, 0.0385598, 5.66162, -0.0702586, 1.69672, 4.72663, 5.97068, 6.28957, 1.91779, 0.00707745, 0.452266, 0.337937, 0.91, 0.39, 0.53, 0.48, 0.67, 0.54, 0.793364, 1.30981, 1.34773, 3.68169, 3.30874, 4.54552, 6.07875, 10.5826, 7.39336, 9.99548, 6.29123, 3.3072, 8.49469, 4.1189, 0.462615, 3.40137, 2.72176, 3.05907, 1.09052, 0.123434, 0.926882, 0.84, 0.03, 0.6, 0.62, 0.32, 0.92, 0.43, 0.63, 0.23, 0.111944, 0.338404, 0.12702, -0.568776, 0.658147, 0.265047, -0.323413, 0.0373724, 0.0887905, 1.14272, 2.49149, 1.26552, 0.952024, 0.9542, 1.55411, 0.0937116, 0.78, 0.38, 0.23, 0.05, 0.11, 0.93, 473.646]
[0.43, 0.27, 0.14, 0.9, 0.16, 0.01, 0.39, 0.44, 0.36, 0.12, 0.74, 0.33, 0.4, 0.01, 0.83, 0.35, 0.28, 0.33, 0.37, 0.34, 0.77, 0.71, 0.22, 0.63, 0.59, 0.4, 0.68, 0.82, 0.48, 0.66, 0.9, 0.27, 0.58, 1.20307, 3.12223, 2.10014, 3.03263, 2.25724, 0.711392, 0.647205, 0.169764, 0.98926, 0.420014, 1.13571, 0.200368, 0.0476433, 0.337432, 0.986034, 0.728911, 0.73, 0.48, 0.58, 0.8, 0.87, 0.64, 0.13, 0.13, 0.52, 0.7, 0.78, 0.66, 0.608335, 2.35718, 0.860881, 0.0774994, -0.633372, 2.07791, 3.11134, 1.06208, 0.274437, -3.85493, -3.09302, 2.42559, -0.160964, 0.75492, 2.14122, -0.459853, -1.38339, -0.138244, 0.312835, 0.929926, 0.36, 0.46, 0.38, 0.56, 0.03, 0.14, 0.99, 0.357476, 0.204074, -0.0910757, -0.673067, -2.06068, 2.35187, 4.42919, 3.41425, 5.59856, 5.5354, 3.64592, 0.471568, 3.73665, 3.18662, 1.40983, -0.700886, 0.0991313, 0.245349, -3.45027, -0.64763, -0.941207, 0.122341, 0.48074, 0.13, 0.66, 0.3, 0.06, 0.0734009, 0.808796, 0.862389, 3.78123, 7.88891, 6.14591, 4.60078, 6.73137, -1.37442, 2.26045, -0.462045, 0.795473, 6.54035, 1.79518, -5.28605, -11.3507, -1.87808, -5.4408, -0.0223605, -4.1068, -6.64723, -2.49999, -1.5485, 0.866727, 0.15, 0.18, 0.427343, 0.878555, 1.25201, -1.17955, 0.339875, 4.20486, 4.67757, 5.32722, 3.35531, 0.14682, -3.76736, 7.24877, 7.45007, 6.24064, 3.17358, 3.68489, 3.67684, 0.845035, 5.23743, 0.267688, -2.97696, 1.65455, -2.06511, -2.35245, 0.973534, 1.06535, 0.14, 0.36, 0.83, 0.319854, 0.972723, -0.0355139, -0.728653, 2.17231, 1.52721, -0.778401, -0.871689, 4.05977, 1.75178, -1.28482, -2.92848, -3.28199, 2.14651, -0.256896, 0.988043, -2.95724, -5.71223, 1.05374, -4.60263, -1.17316, -1.25763, -1.46257, -0.0843216, 1.55774, 0.618507, 0.63, 0.290055, 0.510517, 0.644731, -0.225102, 4.51987, 1.31439, 0.0883862, -2.48291, -0.389074, 2.70285, 0.314222, -2.28806, 11.6139, 1.28973, 0.747199, 2.17166, -0.809726, 0.442565, 5.03471, -3.12348, 5.2722, 1.32589, -8.78061, -2.92773, 2.20705, -0.0105364, 1.01119, 0.46, 0.223379, -0.209305, -0.263063, 3.71928, -0.799925, 0.763333, -2.5604, 2.01926, -0.44291, -2.47273, 4.36266, -4.16646, -6.63212, 0.757081, -4.72049, 0.271334, 3.15323, -0.676631, 1.76208, 0.433308, 3.29665, -0.439745, -6.64669, -4.82454, 3.45073, 0.641864, 1.2897, 0.407214, -0.653977, -0.440995, 2.58001, 2.94549, 1.25352, 3.83047, 4.56072, 4.94341, 5.80046, 3.30151, 5.485, 1.51533, 6.01021, 3.7414, 5.57056, 2.90432, 3.52396, 4.89369, 1.13374, 0.742814, -1.3926, 2.48811, 1.10896, 2.81746, -1.09336, 1.28468, 0.887863, 0.379299, -1.70742, -0.512784, 1.24188, 0.257069, 0.586939, 2.80693, 1.33286, -0.406801, 6.6026, -1.72259, 2.53597, -1.72831, 2.45699, 3.69094, 4.74098, -2.42202, -1.22978, 0.604309, -1.95442, 2.05944, -1.82724, 2.77359, 0.199702, -0.837381, 1.79001, 1.74061, 0.83238, 0.216542, -1.16017, -0.99588, 1.44181, 0.63404, -1.82754, -0.496485, -2.87758, -2.34685, 3.35736, -1.79102, -2.04178, -7.98599, -7.52901, -9.59295, -5.20852, -5.8204, 4.19922, 1.13006, 2.88414, 3.05776, 4.83522, 4.50433, 3.24691, 3.99115, 5.11826, 4.91472, 1.30791, 0.72, -1.45103, -0.885866, 0.037464, 1.08204, -6.44653, -5.21157, -4.35871, -8.2984, -8.69105, -7.46138, -9.66686, -10.2499, -0.557557, -11.3175, -1.38513, -3.18966, -2.97287, -3.77316, -2.65845, -2.19483, 1.49745, -0.55389, 3.4433, 4.62268, 0.291311, 1.56186, 0.4, 0.23, -0.181715, -0.694244, -1.53866, 0.207694, -4.93853, -6.13048, -7.28451, -8.91482, 2.51337, -0.807295, -8.76845, -5.07356, 4.37081, 3.88418, -6.69216, 0.697372, -4.20385, 0.502989, -1.32806, -2.4019, 1.07389, -1.12455, 4.46853, 2.95733, -1.53637, 0.421895, 0.62, 0.65, 0.11, -0.412394, -1.59442, 0.637142, -3.37668, -2.12096, -2.00875, -4.66923, -6.08553, 1.0131, -6.47475, 0.40356, -0.911373, 4.25808, 3.73371, -6.1744, -2.00578, -1.76915, -1.89989, -5.70225, -3.06797, -3.53731, 2.59414, -1.05461, 0.562587, 0.992513, 0.28, 0.41, 0.59, -0.542033, -0.458605, -0.0584725, 2.95888, -6.09004, 2.87322, 0.41987, 1.52171, -1.00859, 1.92625, 1.29301, -2.26963, 4.65059, 1.04861, 1.59578, 1.05054, -4.7508, -1.97046, -1.05429, -3.5321, -8.21765, -0.10467, -2.28424, 2.91834, 0.79334, 0.48999, 0.94, 0.32499, -1.12541, -1.3324, 0.348575, 6.43845, 3.33365, -6.2092, -0.559686, 3.11147, -0.726054, -1.55926, -0.550369, 5.28949, 4.91987, 4.7132, -2.33069, -6.74222, -9.72599, 0.641421, 3.55838, 0.74061, -6.41271, -3.16196, 3.10103, 9.05202, 2.93882, 0.0545179, 0.15, 0.13, -0.967331, 0.89441, -1.08248, 6.427, 8.23864, 2.59392, 1.63465, 6.63001, -3.48023, -1.30498, -1.00445, 3.54223, -3.50164, 1.18198, 1.89203, -6.74141, 1.43048, -0.160525, -9.20666, -1.00066, 5.92899, 3.24704, 5.98892, 10.4245, 1.51598, 0.978721, 0.01, 1.58466, 0.940767, 0.553928, 3.84069, 5.67441, 5.45596, 8.82388, 1.88659, -0.865107, 1.08911, 3.26479, 6.9793, 3.07769, -0.768385, -1.76109, 0.468135, -2.51206, 0.0589287, 4.60502, 0.180533, -1.26155, 1.42265, 7.42085, 7.65949, 6.51723, 4.65788, 1.2119, 0.68, 1.65848, 2.76776, -1.12097, 3.87238, 7.47094, 1.58914, -0.0623411, 1.73535, 1.04511, 4.28605, 3.87989, 0.168306, 5.12165, 6.1967, -3.45555, 0.177226, -3.15498, 0.177556, -0.840513, 3.36712, -4.35495, 5.53895, 6.47284, 6.71976, 3.50279, 2.94354, 0.097405, 0.38, 0.539903, 0.796926, -2.32999, 0.565364, 8.14091, 2.73795, 6.71293, 4.83383, 8.64069, 5.77305, 5.15989, 2.91084, -0.175721, 1.26824, -2.73665, -3.05483, -0.214394, -2.11555, -3.74032, 3.32234, 5.2477, 4.62719, 1.58528, 5.31961, 4.22111, 1.19129, 0.73, 0.33, 0.52, -0.47086, 0.594515, 1.39076, 4.60109, 1.93411, 6.33272, 2.19149, 1.11978, -3.72091, 1.75824, 1.02715, 1.32883, -0.430738, 0.584162, 4.76175, 1.46157, -1.24622, 2.16014, 1.30934, 4.69773, 4.40409, 1.0824, 1.02599, 2.41879, 1.1364, 0.66, 0.03, 0.79, 0.620393, 1.02953, 0.502323, 1.86738, 2.38293, 4.36685, 1.26852, 1.17853, 6.74934, 1.43397, -4.36732, 2.14821, 3.66003, 3.80173, 0.785744, 1.80815, 5.33171, 0.546421, 1.35018, 5.27194, 2.23791, 1.38533, -0.159366, 0.983518, 0.874056, 0.97, 0.92, 0.207343, 0.140725, 0.27917, -0.697483, 1.72784, -1.51483, 0.985602, -1.46781, 0.836275, -0.0863233, 6.73346, 1.47907, 1.87, 5.09352, -2.03289, 3.99808, -1.01694, 2.78333, 2.65979, -2.59722, -2.12464, 1.06018, 2.701, 1.19521, 0.743476, 0.922309, 0.99, 0.76, 0.61, 0.42, 0.0109479, -1.88874, -4.51204, 1.70276, 2.26842, -0.29849, -0.658636, -3.22582, 9.12361, 4.68784, 3.32041, 1.7095, 1.50924, 1.59668, 3.5052, -0.513183, 0.00133269, -2.76311, -1.61518, 0.630962, 1.13155, 1.29687, 0.3301, 0.29, 0.27, 0.54, 0.28, 0.19, 0.760898, -1.74779, -1.17514, -2.22102, -2.59565, -2.90119, -6.72127, -1.07767, 1.79073, -0.571411, -3.47709, -0.140944, -3.3437, 4.42232, 4.75782, 5.12596, 2.19925, -0.287273, 0.232573, -0.13333, 0.089611, 0.0520215, 0.45855, 0.93, 0.29, 0.87, 0.8, 0.85, 0.64, 0.3041, 0.648046, 0.30498, -0.554437, 3.39047, 3.29992, 5.71934, 1.64334, 0.449253, 3.73792, 5.0571, 1.01329, 3.38265, 3.69469, 2.6206, 3.28878, 1.0173, 0.0378041, -0.382777, 0.0600932, 0.00801153, 0.29, 0.15, 0.65, 0.5, 0.32, 0.83, 0.19, 0.96, 0.39, 0.773372, 0.329805, 0.882098, 0.950058, 0.233919, 0.516087, 1.63771, 0.410405, 0.111186, 0.488897, 1.12012, 0.569257, 1.19478, 1.25365, 0.678002, 0.980387, 0.73, 0.38, 0.15, 0.02, 0.41, 0.85, 835.742]
[0.11, 0.66, 0.27, 0.83, 0.3, 0.65, 0.82, 0.82, 0.31, 0.35, 0.9, 0.12, 0.56, 0.02, 0.48, 0.13, 0.26, 0.97, 0.64, 0.15, 0.93, 0.07, 0.37, 0.18, 0.38, 0.24, 0.7, 0.83, 0.45, 0.28, 0.59, 0.83, 0.21, 0.39423, 0.750473, 0.590741, 0.37783, 0.740733, -0.20413, -0.403606, -1.97349, -0.808461, -1.06049, -2.09675, -0.318472, -1.02948, 0.268842, 0.443414, 0.333247, 0.68, 0.56, 0.85, 0.92, 0.22, 0.33, 0.35, 0.83, 0.27, 0.99, 0.61, 0.9, 0.357308, -0.191681, 1.36183, 0.358807, -1.02441, -0.457868, 0.209594, 0.532449, 3.00044, 4.96558, 3.7636, 2.53728, 2.22658, 0.469232, 1.38533, 2.7766, 2.45114, 0.344861, 0.587894, 0.599994, 0.33, 0.52, 0, 0.03, 0.88, 0.98, 0.75, 0.639248, -0.298825, 0.864609, 0.3299, -1.63378, -1.20348, -1.71108, -0.0893162, -2.17818, -2.56768, 0.20056, 0.596408, -2.53465, -2.74405, -0.573823, 3.91681, 3.42904, 1.30311, 0.268517, 0.252631, 0.822533, -0.0848709, 0.734296, 0.7, 0.14, 0.1, 0.55, 0.434902, 0.680835, -0.460968, -0.960653, -4.46497, -6.45719, -6.61917, -4.60499, -1.29375, -4.9238, 2.84801, -1.41711, 3.30083, -1.95102, -1.14461, 0.63762, -3.17183, 0.222133, -1.20428, -0.0369487, 2.40474, 1.39683, 1.88931, 0.613154, 0.35, 0.03, 0.449433, 0.0897021, 0.240483, 0.802543, 0.478533, -3.37174, -5.84651, -6.48765, -0.0597012, 3.96523, 4.63468, -0.803112, -2.91023, -0.568428, -2.32194, 0.384119, 2.13344, -1.22373, -6.44732, 4.07081, 2.78081, 1.09964, 4.07179, 6.69754, 1.91715, 0.581491, 0.35, 0.77, 0.75, 0.0501982, 0.603945, 0.270258, 1.07825, -1.19833, 0.947539, -2.59113, 0.0229458, -0.134461, -3.71085, -2.68595, 2.86407, 1.47935, 2.47974, 6.68727, 5.39958, -1.52041, 0.684694, 3.1035, 8.06289, 4.59747, 3.70165, 8.58475, 2.84673, 0.508665, -0.0314146, 0.68, 0.787012, 0.437356, -0.384582, -1.0907, -1.85221, 2.00997, -1.72444, -2.2199, -1.52027, -2.08631, 3.71936, -1.54657, -5.97218, -3.01209, -1.36072, -5.53005, -0.734316, -2.99916, -1.68108, 2.21957, 1.71065, -2.52679, 5.23155, 10.2753, -0.0759849, 0.522952, 0.313752, 0.65, 0.543868, 1.07561, -0.656761, -3.80235, 0.639555, 2.67711, 3.33508, -0.162013, 5.28843, 3.57831, -5.03865, 1.45624, 0.0955808, 0.58988, -0.578587, -5.64483, 0.814847, 4.78531, 5.40432, 3.25823, -1.9284, -3.29332, 4.21739, 5.89698, -1.1989, -0.157429, -0.0729974, 0.693391, 1.32517, 0.993617, -2.40446, -4.49746, -1.85272, 1.7325, 8.06796, 3.86137, 7.91423, 0.970343, -0.961696, 6.10126, 1.99477, 2.37325, -5.0203, -0.420487, 0.331841, -1.28032, 2.71731, 0.924738, -1.92634, 0.147715, 5.10751, 2.06435, 2.56309, 1.05425, 0.607947, 0.114738, 0.652892, 0.718975, -2.32148, -2.95768, -0.769147, 2.0828, 3.16769, 1.89594, 4.3933, 8.37141, 3.74706, 5.77304, -2.68492, -7.42821, -3.91406, -5.66714, -1.42331, -0.481508, -1.32716, 8.65343, 1.38681, 1.23377, -0.170596, 1.41394, 2.02906, 1.86809, 0.426212, 0.417354, 0.933876, 1.58178, -3.36662, -3.30144, -1.67115, -2.34108, -2.33416, 0.181519, 2.25103, 8.77445, 3.46724, -0.234285, -1.09803, -2.26365, -5.62883, -3.30934, -0.595699, -2.31074, 5.61245, 2.45462, 4.14069, -3.46542, -2.04867, 0.107746, 1.00467, 0.0662867, 0.244297, 0.1, 1.24353, 1.48078, -2.14109, -3.22716, 2.61963, -0.84749, 0.00477039, 4.39276, 3.6346, 6.55543, 6.81281, 7.45218, 4.02783, 0.162172, -4.93813, -0.571236, 7.73573, 3.16752, 2.476, -2.58328, -0.977624, -3.00632, -3.12799, -1.52359, 0.236161, 0.229491, 0.66, 0.6, 1.06639, 1.48603, -0.533694, -0.180621, 5.07856, 3.33489, 2.30024, -1.25487, -1.9492, 4.77707, 3.04588, 3.41272, -2.93108, -4.18674, 5.47975, 0.760137, 6.3966, -0.0439635, 3.58071, -3.77807, 1.42332, 2.58314, 1.5268, -0.851999, 0.811283, -0.951643, 0.95, 0.3, 0.49, 0.591432, 0.357433, 2.76796, 6.48634, 4.55647, 0.716775, -1.70437, 5.37574, 6.0887, 2.5608, 2.5131, 5.83058, 0.957175, 4.58165, 8.33433, 5.2598, -1.07856, -1.32392, -2.80961, -3.1737, 6.19297, 8.64596, 3.45738, 1.40953, -0.287065, 0.12, 0.23, 0.14, 1.0388, 0.433025, 0.840233, 4.22778, 7.77934, 5.50687, 4.0613, 3.50072, 5.47483, -2.0185, 0.310628, 3.901, 4.88803, -1.25027, 3.23458, -3.07581, 0.962842, -2.9924, -2.52852, -1.46695, 0.152901, 6.525, 3.3682, 1.39515, 0.0870789, 0.840785, 0.33, -0.0346114, 1.67772, 0.445887, 0.0485436, 1.14939, 9.20661, 5.97158, 8.34725, 4.60717, 0.0590123, -3.54061, 1.684, 3.05404, -0.309104, 5.08527, 7.58332, 4.10513, -3.9549, -3.1926, -0.642356, 1.12824, -2.47345, 3.61076, -0.116411, -1.36056, -0.575711, 0.958322, 0.17, 0.11, 1.2671, -2.57621, 1.58309, -1.6661, 4.63859, 3.00943, 6.70269, -4.60497, -1.61625, -3.98835, -1.12171, -1.318, -2.51191, -1.36717, 0.246698, 1.30877, -3.90189, -4.06155, 1.75131, 4.05953, 0.316417, 1.49979, 0.0915924, 1.28168, 0.70567, 0.221292, 0.8, -0.443932, -0.189379, -2.73416, -1.40624, -0.828226, -7.37181, -3.73107, -2.9143, -6.39074, -1.66198, -5.94944, -5.07914, -2.33526, -8.34038, -0.751767, -1.95575, -2.23258, -0.0759764, -3.71995, 0.558981, 3.74147, 0.16039, 1.59642, 0.751361, -0.190597, -2.12587, 0.600715, 0.27, -0.929623, -0.161397, 1.37986, 0.348529, 0.0925709, 0.699581, 3.70185, 2.26355, 0.216444, -4.56903, -0.993131, -1.96426, 1.86416, 1.22175, 4.31422, 1.64518, 2.24752, -3.07218, -7.35721, -1.63247, 0.962455, -2.83278, 0.416004, -1.44775, -1.07357, -1.08363, 0.248854, 0.41, 0.558877, 0.746459, 2.52341, -1.30846, -6.10855, -2.10269, -2.62717, -2.03279, -2.15824, -8.25509, -1.11443, -4.20267, -0.154377, -1.11246, 1.17916, -1.88036, 2.48786, -1.89545, -1.77171, -2.06596, 0.805923, 3.1946, 0.593029, -0.265573, -0.607875, 0.0252234, 0.84, 0.02, 0.27, 1.18078, 0.13837, -2.26624, -3.22556, 0.610796, -0.172993, 0.956882, -3.20557, -2.58508, -1.03008, 0.461592, 3.74607, -1.46052, 0.477842, 2.00072, -0.892608, 1.16096, 3.0411, -1.82171, 5.09321, 4.34627, 2.16385, -1.54037, -0.0821558, -0.0835855, 0.61, 0.67, 0.03, 1.30413, 1.15853, 0.335479, -3.51252, -0.7034, 1.82227, -6.5247, -5.40115, -3.21444, -6.48197, -5.40823, 3.01097, -2.10914, 3.97277, -0.303182, -1.48231, -1.00738, -0.679231, -0.144996, 2.63182, 4.78073, 2.02027, -0.0836795, -1.12703, 0.393666, 0.39, 0.25, 0.249433, 0.416032, 0.228898, -1.57486, -3.46186, 0.859915, 1.16388, 2.46074, 1.18933, 4.45697, 2.31212, -0.798931, -0.489842, -1.7493, 2.9414, 0.208693, 1.33225, 5.61839, 3.80037, 4.90637, 6.4303, 4.03828, 1.88292, 0.750277, -0.467158, 0.658883, 0.35, 0.19, 0.71, 0.64, 0.566498, -0.773122, 2.12221, -1.70029, -2.64998, -6.17162, -3.39051, 2.5896, -3.34936, 5.30733, 5.12826, 2.44981, 0.514218, 2.31616, 3.92195, 4.88749, 2.64249, 4.12832, 2.51159, 3.31034, 1.77306, 1.0291, 0.879928, 0.14, 0.96, 0.68, 0.46, 0.58, 0.356228, 1.13229, 1.02871, 2.09825, 1.32807, -0.422134, -1.0757, 1.30844, 3.52699, 2.62932, 2.40335, 1.15545, -4.04522, 0.24328, 4.94145, 2.78388, 2.06362, 3.604, 1.86001, 1.61849, 0.323007, 0.386713, 1.00929, 0.16, 0.74, 0.56, 0.77, 0.72, 0.36, 0.132242, 1.27667, 1.30817, 1.56171, 0.203425, 0.744457, 1.48814, 2.8424, 2.50559, 1.26703, 0.403642, -1.15054, -0.876063, 1.12806, -1.36214, 0.282126, 0.634944, 0.0320727, 0.466447, 0.369147, 0.624779, 0.8, 0.18, 0.28, 0.89, 0.13, 0.41, 0.23, 0.96, 0.31, 0.398061, 0.335757, 0.392611, 0.0244914, 1.04963, 0.853989, 0.000614368, -0.0630562, 0.403911, -0.225609, -1.05212, -0.0114459, -0.430813, 0.454852, 0.662112, 0.181988, 0.26, 0.83, 0.33, 0.82, 0.12, 0.36, 702.517]
[0.52, 0.12, 0.24, 0.45, 0.96, 0.02, 0.73, 0.58, 0.05, 0.77, 0.58, 0.11, 0.81, 0.5, 0.7, 0.8, 0.53, 0.27, 0.59, 0.16, 0.97, 0.18, 0.18, 0.77, 0.81, 0.65, 0.52, 0.13, 0.71, 0.76, 0.86, 0.74, 0.42, 0.34762, -0.297415, 0.71063, 0.236261, 0.241181, 0.439176, 0.566068, 0.939718, 0.658471, 0.591458, 0.406059, 0.367458, 0.625818, 1.2111, 0.359157, 0.0821287, 0.61, 0.5, 0.47, 0.58, 0.39, 0.05, 0.81, 0.68, 0.14, 0.01, 0.16, 0.94, 0.170122, -0.258303, 0.286283, -0.049851, 0.893083, -0.935342, -0.89303, -0.955493, -0.82868, 1.51329, 2.68171, -0.139401, 0.26476, 0.715229, -0.41949, -0.932838, 0.461117, 1.23672, 0.113513, 0.58002, 0.75, 0.3, 0.82, 0.11, 0.37, 0.7, 0.62, 0.876366, 0.267675, 0.871946, -0.0732032, 1.353, 0.0350873, -2.62766, -1.76578, -3.74195, -4.88665, -1.26174, -0.0771679, -2.8862, -3.34589, -3.89435, -1.98257, -2.23848, -1.58066, 0.654716, 0.612832, 1.30263, 1.05057, 1.03577, 0.95, 0.04, 0.13, 0.32, 0.289055, 0.0283948, 1.06043, -0.466925, -3.17777, 0.248095, -2.27069, -3.7237, 2.65191, 1.7654, 3.25079, 2.74625, -2.53698, -1.67953, -1.7953, 2.98864, 4.97502, 7.89441, 0.991249, 0.829279, 1.80329, 1.5994, 1.13711, 0.422037, 0.69, 0.34, 0.473411, 0.301857, 0.0221957, 0.141719, -0.478215, -3.5633, -3.02863, 0.787333, -1.8151, -0.0746253, 5.92991, -0.268554, -2.54535, -0.0632676, 3.47811, -1.63218, -1.01428, -1.56627, -3.5523, 1.55333, 4.91908, 3.02407, 0.14507, 2.86603, 0.0191898, 0.140735, 0.08, 0.18, 0.51, 0.769535, -0.495428, -0.858048, -1.09801, -0.299584, 0.84518, -2.73733, -3.94546, -4.05601, -0.116981, 2.11039, 4.50709, 6.78146, -0.551856, -0.2686, 1.81993, 2.17698, 1.02126, -4.68129, -0.325954, -1.41032, -4.42698, 1.26912, -0.636424, -0.278453, 0.417246, 0.62, 0.180296, 0.829643, -0.69232, -2.7376, -4.5976, -1.97644, -4.05626, 0.837871, -3.02745, -2.72183, -8.01877, 2.15805, -1.35491, 1.30557, 3.06442, 1.86715, -3.11582, -0.394382, -2.19468, 4.94477, 2.61307, -0.0582788, -3.70848, -0.114313, -2.11856, 0.333941, 0.473181, 0.27, 0.510363, -0.0556318, 0.0127662, -2.19404, -3.09823, -5.75672, -0.895771, 5.89831, 0.878201, 2.88727, 1.32195, -1.15348, 1.64363, 0.131868, 2.06099, -2.33286, -1.21862, -0.538437, 1.26676, 3.48684, 0.277701, 3.27149, 3.67234, -0.429961, -1.44055, 0.512025, -0.0926897, -0.0743496, 1.31731, -0.69582, -4.14018, -2.5103, -4.20649, 0.0700995, 3.48511, 1.06872, 0.456402, -1.46165, 0.707491, -5.21054, 2.13694, -2.29831, -3.40613, -3.87521, -0.479811, 2.40381, -0.626959, -3.32698, 1.30697, 1.75161, -0.149777, -7.51474, 1.21832, 0.207452, 0.2193, 0.68985, 1.56175, -1.81673, -4.05566, -2.45076, -2.79572, 1.74016, 0.457511, 2.75143, 1.22967, 0.466535, 3.70827, 7.44541, 0.326361, -1.04284, -5.78124, -0.921347, 1.41041, -2.67552, -1.82935, -1.35687, 1.93236, -1.61959, -0.288998, -5.38224, -2.48289, -2.00037, 0.071255, 0.379846, 2.07996, -1.69701, -4.44945, -1.3236, -0.656122, -1.44854, 2.25635, 3.91774, -3.74456, 6.78698, 5.03353, 8.06783, -5.08369, -1.33499, -3.19416, 0.164497, -5.05196, 1.50276, -1.55705, -1.7137, -3.55781, -1.4726, -2.59545, -4.93171, -3.28814, -2.72903, 0.272636, 0.99, 1.4185, -1.18444, -2.8788, -2.73484, 1.23187, 0.493625, -2.00295, 0.549123, -0.447826, 4.03417, 2.91092, -1.59903, 5.77212, 10.0235, -4.65711, 0.0475419, -0.936434, -0.790448, 3.28022, -4.95383, -2.87565, 0.7118, -0.803841, -2.87057, -0.297102, -0.552819, 0.46, 0.74, -0.15736, -0.319788, 0.0520939, 0.183244, 3.24758, 1.12601, -4.26924, -5.38237, -0.102242, 2.68571, 4.17708, 9.25236, 3.83678, 3.07178, 4.09031, -2.32256, 7.1137, 6.67962, 3.0164, 4.46709, 2.66062, 1.38293, -1.38091, -3.63838, 0.00535741, 0.493034, 0.25, 0.62, 0.82, -0.440667, 0.0051207, 0.365388, 0.87508, 0.68018, 3.68489, 2.46385, 4.45362, 5.08534, 4.78196, 5.44484, 0.0170076, 9.1818, 5.54547, 4.88132, 1.91765, -1.52472, 5.60116, 2.03087, -2.26904, 2.97716, 1.75999, 1.11913, 2.16181, -0.0765645, 0.99, 0.97, 0.95, 0.940164, 1.30228, 1.39245, -4.13661, 1.08368, -1.5049, -0.86955, 0.499145, 1.86974, 2.56462, 3.91793, 2.48176, 2.44403, 3.52365, -0.897689, 2.6434, 0.61434, 0.947896, -1.03036, -0.684882, 5.90174, 3.03043, 3.43426, 0.386412, 0.239127, 0.0303566, 0.15, 0.610525, 1.52128, -1.96054, -1.35746, -3.9524, -4.45367, 3.98569, 2.74971, 0.35058, 3.11532, 2.44535, 0.369019, -1.6942, -3.00972, 0.00153555, 5.02372, -1.00262, 1.60151, -5.32133, -13.2151, -13.087, -3.23487, -2.34849, -5.45602, -5.73208, -0.495814, 0.909217, 0.06, 0.26, 0.818493, -2.08716, -0.865138, -4.35601, -3.58379, 0.315131, -1.06962, -2.20854, 1.30993, 0.0828183, 2.80134, 0.780613, 1.85503, -1.72927, -0.613705, -0.73024, -4.85508, -7.78586, -2.17371, -0.0580532, 0.485663, 0.942921, -4.04379, -3.56867, -0.0262174, 0.607201, 0.82, 0.527863, 0.985903, 0.0609854, -1.13198, -2.20946, -2.04666, -2.17657, -6.37924, -1.24923, -3.67716, -3.12605, -7.15537, -3.52966, -2.12314, 2.82352, -3.7373, 4.3652, -2.21625, -4.87101, 2.41423, 1.60736, 4.51881, 1.79986, -3.40186, -2.07219, 0.590593, 0.554712, 0.28, -0.0621821, 0.515918, 1.36724, -3.50661, -3.36869, -1.38036, 2.16628, 3.34201, 1.20776, -1.09839, -2.1359, 2.3827, 0.841132, -2.83317, 6.86942, -0.62085, 3.8403, 2.37429, 2.18888, -0.451354, 0.963184, 2.62888, 1.69231, 1.14775, -0.582748, 0.724428, 0.632814, 0.91, 0.195104, 1.99035, 1.90067, -0.273992, -3.52485, 4.78107, 1.36626, 0.787796, 0.182857, -3.7411, -3.41531, -4.00531, 2.08176, -1.92417, 1.5935, 3.27801, 5.69056, 2.68041, 7.37422, 3.95612, 1.37082, 0.270658, 2.95988, 1.17604, 0.554448, 0.762231, 0.05, 0.56, 0.24, 1.32552, 0.854972, 0.140215, 2.97013, 5.84, 2.33142, -0.663163, -2.42385, 3.3436, -3.49098, -1.20244, -0.126701, 0.995027, -1.25699, 6.40444, 0.680559, -1.74138, 2.58099, 0.614233, 0.11025, 1.72746, 2.4434, 1.84654, 1.28142, 0.617834, 0.29, 0.85, 0.5, 1.1557, 0.0261238, -2.1699, -0.141337, -4.09296, -2.83004, -3.49929, -0.891028, -3.22415, 4.52202, 4.3412, -1.37843, 1.47667, -1.93634, -3.04057, -0.827555, 1.3019, 0.801167, 0.0957626, -1.54742, 1.42642, 0.598136, 1.55649, 1.25671, 0.572058, 0.63, 0.48, 0.963411, 0.523016, 0.794693, -2.40441, 0.161362, -1.51568, -2.01023, 0.661917, 1.23306, 3.56651, 4.67599, 3.19241, 1.46403, 3.43299, 2.89951, -3.73069, 7.24168, 5.66497, 2.80164, 0.541724, 3.00056, 3.37756, 1.47952, 1.20794, 0.65948, 0.271222, 0.01, 0.02, 0.23, 0.38, 0.769922, -0.884442, -4.20743, -4.83172, -2.61506, -1.38931, 1.67404, 0.772567, -0.928941, 2.98661, 1.80603, -0.452722, 4.63255, 0.838336, 3.79446, 2.57648, 1.55312, 0.925024, 3.51348, 3.09581, 0.414678, 0.414769, 0.0599494, 0.39, 0.73, 0.69, 0.73, 0.44, 0.364154, 0.840563, -1.44503, 0.672205, -3.03536, -4.90047, -5.95032, 0.58874, -1.14558, -1.3358, 1.88815, -0.465512, 5.90268, -0.899459, -4.19331, -4.02053, -1.07327, 1.03416, 2.609, 1.29219, 0.869153, 0.270454, 0.880154, 0.67, 0.05, 0.11, 0.83, 0.53, 0.39, 0.278201, 0.0458474, 0.521529, -0.0465757, 1.51769, -1.01906, -1.96828, -0.900861, -2.46375, -3.93329, -3.44582, -1.94806, -0.290846, -3.38006, -2.75907, -4.65919, 0.0172241, 1.89882, 0.594953, 0.214517, 0.290395, 0.81, 0.18, 0.88, 0.51, 0.52, 0.57, 0.65, 0.75, 0.3, 0.501042, -0.428322, -0.955364, -1.88677, -2.38139, -2.40257, -1.04194, 0.357052, -1.24664, 0.289943, -0.111933, -0.0662017, 0.343726, -2.97149, 0.392843, 0.322904, 0.49, 0.73, 0.43, 0.33, 0.44, 0.56, 2342.26]
[0.25, 0.64, 0, 0.32, 0.22, 0.45, 0.53, 0.09, 0.95, 0.47, 0.08, 0.19, 0.34, 0.36, 0.23, 0.44, 0.82, 0.9, 0.75, 0.46, 0.39, 0.48, 0.65, 0.62, 0.68, 0.19, 0.69, 0.82, 0.13, 0.87, 0.4, 0.66, 0.33, 0.79779, -0.424772, -0.0649755, 0.146201, 0.619155, 0.0675714, 0.58589, 1.11168, 0.888676, 1.2336, 0.802052, 0.881344, 1.19039, 1.35004, 0.213183, 0.636998, 0.01, 0.6, 0.16, 0.63, 0.38, 0.78, 0.97, 0.34, 0.88, 0.99, 0.7, 0.99, 0.82091, 1.48175, 1.32554, 0.988651, 1.20518, 0.0407978, -2.30546, 0.617178, 0.862458, 2.32894, 0.778987, -0.522554, 2.02784, 2.82902, 2.58093, 1.9485, 2.03602, 0.582066, 0.163844, 0.119977, 0.04, 0.02, 0.97, 0.36, 0.43, 0.16, 0.78, -0.0932912, 0.385286, 2.22053, 3.08193, 2.94755, 0.696738, -2.60793, -2.9057, -4.13297, -0.507605, 1.72417, 2.93037, -0.982543, -2.55942, 2.04772, 7.03731, 4.63025, 4.17877, 3.59567, 1.71976, 1.0515, 1.06951, 0.822887, 0.46, 0.81, 0.53, 0.04, 0.400717, 0.69141, 0.0993768, 1.76248, -1.60614, -1.0807, -3.34458, -0.381807, 1.51603, -5.22693, 0.33177, -5.20837, 5.59864, 1.38585, -0.488758, 6.63222, 0.074329, 4.33178, 0.797636, -0.596497, 2.26463, 0.559387, 0.138104, 0.444237, 0.89, 0.02, 0.112694, 0.571463, 0.256794, -0.866093, -0.87001, -4.86899, -4.46467, -2.45262, -2.3186, -3.58291, 4.73297, -4.67756, -1.66838, -2.75831, -4.27886, 2.61783, 1.60659, 2.31033, -3.52775, -1.60712, 4.23639, 0.482247, 0.727157, 0.898591, 0.965197, 0.864779, 0.15, 0.77, 0.94, 0.800512, 0.114135, -1.32642, -0.509613, -4.0389, 0.431473, 3.15233, -1.61961, -1.54356, -1.4125, -5.88588, 6.13082, -0.414515, 2.24759, 2.50608, 1.29188, 2.19586, -0.863772, 2.36958, -1.48611, -2.42961, 1.42859, 2.63806, 1.93884, 0.555969, -0.237597, 0.03, 0.192616, 0.493597, -2.40439, -2.55138, -1.01734, -2.46566, 3.80377, 6.26321, 1.83527, -2.23413, 0.149132, 1.32712, -1.56488, -4.96476, 4.58973, -4.24345, -1.83888, -3.93906, -1.90868, 0.589028, 1.8099, 2.3939, 5.227, 1.33606, -5.03773, -2.26372, 0.141587, 0.59, 1.08498, 0.630241, -2.145, -5.25564, -2.00495, 2.81301, 4.94326, -2.63014, 0.900785, 2.05214, -1.57021, 4.54288, 1.803, 4.70941, 2.27357, -1.14073, 1.80369, 3.81026, 0.0413187, 0.858105, -0.275719, -0.8397, 2.60911, -4.62794, -6.22145, -2.36332, -1.05849, 0.412957, 0.721659, 1.10219, -3.47698, -6.79605, -4.4243, 1.0926, 2.69424, -0.871129, 0.402796, -0.586131, -4.07651, 4.67056, -5.02013, 0.694065, -2.49976, -1.38266, 2.09725, -2.01103, -0.394044, -2.99207, 3.19095, 5.36424, 2.68569, -0.900493, -1.66466, -2.27115, -0.379226, 0.067077, 1.68818, 1.85601, -3.0421, -2.95749, -3.77036, 1.48629, -1.13152, 2.52904, -2.97553, 7.51629, 2.07919, 3.43853, 1.41601, -8.84857, -3.64678, -2.31069, 1.36977, 4.69795, 2.39162, 5.86724, 1.30539, 2.26108, -0.370417, -2.39215, -2.66148, -0.742481, -0.101342, 0.486226, 1.07641, 2.25574, -2.61607, -2.31462, -2.07047, -0.0949964, -0.257833, -1.03806, 0.656584, 6.35924, -1.12128, 3.38422, -1.31223, -8.48164, -0.643368, 0.589082, 0.00752686, 1.56407, 3.86087, 0.516305, 2.52216, 0.100167, 3.10347, -0.778924, -2.22729, -0.329789, 0.163916, 0.66, 1.95347, 2.58962, -0.502109, -1.14757, 2.64239, 1.61769, 0.169826, 0.425448, 3.62772, 5.20677, 9.49205, 9.62362, 1.6085, 0.0155432, -5.91613, -0.899067, 1.76646, 2.105, -2.91891, 3.29385, 4.31442, -0.61467, 1.43843, 3.62061, 2.24569, -0.0546814, 0.53, 0.92, 0.80341, 2.41133, 0.436148, 1.70784, 4.9978, 2.89899, 8.57604, 1.56901, -3.54953, 4.42658, 0.275781, 2.99256, -5.59194, -10.3097, -0.837515, -3.66453, -4.22527, -3.98225, 3.0487, -2.72675, 3.33866, 5.30637, 2.073, 7.78306, 2.27226, 0.940725, 0.08, 0.99, 0.37, 1.09383, 1.17062, 3.23163, 5.92343, 3.84585, 7.45666, 1.08786, 5.54094, 0.569044, 7.55272, 0.201495, -1.78254, -10.8353, -1.85974, 2.16042, 3.46391, 1.69989, -3.67152, 2.75132, 7.07187, 9.82696, 7.27309, 7.78702, 1.56947, 0.473045, 0.53, 0.85, 0.39, 0.63119, 0.526945, 1.74244, 3.82394, 9.24483, 5.03705, 6.93053, -0.211438, 4.08674, -1.85782, -4.24555, -2.78879, -3.71793, 0.203043, -0.2482, -2.38263, 3.08849, 7.30406, -1.31753, 3.84025, 5.685, 9.31685, 4.69531, -0.0242866, 1.09248, 0.200161, 0.73, 0.919282, 1.36195, -0.670891, -0.758658, 1.00589, 5.57405, 4.18309, 5.30399, 4.92063, 0.389635, -1.91321, -5.37656, -6.35563, -4.57548, 3.93414, 3.42156, 8.14694, 0.338985, 8.1767, 3.76877, 4.9479, -0.39499, 4.5288, 2.43835, -1.46329, -0.368838, -0.00160904, 0.39, 0.27, 2.07944, -2.74848, -0.00394503, 2.43744, 1.79666, 4.51939, 2.5335, 6.84251, 7.21541, 3.98078, -3.80717, -8.27933, -1.49019, 1.9933, 2.9598, 7.31246, -1.93407, 4.31701, -4.04381, 3.77058, -2.92781, 3.57244, 2.96811, 1.00745, 0.857219, 0.369074, 0.81, 0.875609, 0.62225, -4.02121, -3.5258, -3.27838, -2.42924, 2.60534, 3.72836, 4.69923, 9.47754, 7.59243, 0.670861, 1.13364, -6.2421, 4.23047, -4.65055, 1.41243, -0.125409, -2.88656, -1.67855, -0.758765, 0.0110261, 4.03102, 0.128861, -1.50447, -1.56379, 0.302883, 0.43, 0.394212, 0.890926, -3.09604, -1.25296, -2.61256, 1.23565, -1.60656, -6.34282, -2.79818, -2.83156, -4.30774, 1.57436, 1.88711, -3.61963, -0.348931, -2.0661, 0.616703, -2.29846, -3.63346, -1.67855, 3.89652, -3.24859, -3.40756, -4.78005, -1.5138, -0.683688, 0.0236403, 0.98, 0.475888, 1.22445, -2.36832, -5.64013, -5.33849, -4.53957, -1.57222, -2.23341, -2.15986, -6.72473, -5.08883, -1.13211, 1.28152, 2.2807, 2.18749, -3.21923, 5.79244, -1.39102, 3.57705, -2.96359, 3.10499, 0.985298, -3.84264, -3.22969, -0.0895129, -0.0654039, 0.66, 0.68, 0.47, 0.945317, -2.77208, -2.30877, -0.49278, -3.80842, -4.67434, 0.866689, -2.22964, 1.70792, -1.076, 2.0122, -5.35295, -2.35079, 2.09034, 1.22839, -4.02094, 0.372059, 4.70436, -3.70352, 3.48454, -0.674444, -1.96275, -1.36597, 0.0824779, 0.83185, 0.08, 0.02, 0.94, 1.0463, 1.57343, 2.74916, 1.30872, -3.57107, -0.707908, -0.399618, 3.01984, -0.600491, -4.23757, 2.96679, 3.98396, 1.3464, -5.03608, 3.33344, -4.60417, -4.79019, 1.7102, 3.66429, 4.33664, 0.629544, 1.21439, -0.66715, -0.540438, 0.057495, 0.44, 0.11, 0.752694, 0.885243, -0.264385, 0.166096, -1.34474, -0.170424, -2.88813, 0.0347671, -0.51247, -6.13401, -0.281829, -0.465358, 3.79319, 1.08673, 0.168257, 1.65587, -5.91884, 1.55603, -1.57285, 3.09559, 3.45447, -0.197237, 1.78194, 0.576843, 0.355715, 0.72005, 0.52, 0.96, 0.82, 0.71, -0.0345885, -1.1057, 4.94049, 2.14404, -2.63033, -4.56494, -3.67637, 6.37605, -0.88716, -1.41324, 5.72322, 3.16703, -0.0675252, 3.26176, 1.17502, -4.7477, -0.998774, 1.59614, 0.269003, -1.18234, 1.20779, 0.974626, 0.639984, 0.55, 0.05, 0.89, 0.07, 0.55, 0.769694, -1.17888, -1.51095, 0.406648, 3.5509, 4.57373, 5.31193, 1.39075, -4.99457, -4.94759, 0.789053, 2.35625, -3.69942, 0.011499, 5.23078, 4.67213, 1.8328, 0.183367, -1.24637, -0.0808001, 0.499811, -0.0435352, 0.390547, 0.12, 0.47, 0.19, 0.91, 0.48, 0.6, 0.0633985, 0.621231, 1.89388, 1.81694, -1.10019, 0.935316, -1.31111, -0.843703, 0.218753, -0.990778, 0.720975, 2.08145, 1.96616, 2.61589, 1.91866, 1.76066, -0.0149552, -0.207944, 0.341449, 0.112552, 0.230251, 0.15, 0.09, 0.53, 0.02, 0.31, 0.85, 0.89, 0.07, 0.44, 0.351303, 0.653994, -0.129328, 0.0456048, 0.957164, 1.11465, 0.513958, 0.271759, 0.914183, 0.258607, 0.252064, -0.0985247, 0.123669, 1.28488, -0.0248882, 0.183456, 0.27, 0.62, 0.48, 0.79, 0.43, 0.31, 948.507]
[0.51, 0.96, 0.98, 0.79, 0.38, 0.06, 0.91, 0.01, 0.13, 0.81, 0.51, 0.69, 0.86, 0.77, 0.42, 0.41, 0.55, 0.35, 0.58, 0.99, 0.61, 0.8, 0.74, 0.84, 0.38, 0.13, 0.56, 0.93, 0.73, 0.71, 0.31, 0.52, 0.53, 0.825445, -0.791969, -0.6842, -0.646159, -0.280834, 1.47607, 3.15312, 4.52464, 3.65135, 3.46443, 5.21574, 1.98946, 2.85614, 1.9578, 0.242654, 1.05247, 0.89, 0.42, 0.04, 0.69, 0.4, 0.36, 0.65, 0.05, 0.12, 0.72, 0.26, 0.55, 0.307082, 0.271845, 0.0357964, 2.81128, 4.05882, 3.46825, 4.53613, 5.10174, 2.29881, 3.85419, 3.25023, 3.07555, 4.73509, 4.23008, 2.11865, 0.194389, 1.69641, 1.67142, 0.984578, 0.150061, 0.99, 0.22, 0.33, 0.68, 0.29, 0.43, 0.16, 0.238863, 1.17349, 2.22133, 1.70697, 6.81588, 3.73276, 2.40618, 4.99311, 5.05051, 3.43338, 5.24973, 3.56056, 0.371272, 1.99255, -1.60535, 4.39192, 2.57062, 2.14825, 1.53795, 0.941611, 2.53338, 1.89727, 0.865548, 0.86, 0.25, 0.02, 0.82, 0.827138, -0.0290359, 0.694165, 0.0378869, 0.0789063, 7.63009, 2.99474, 0.0823914, -0.037625, -2.91833, -3.58193, -2.85395, -8.05703, 0.0577033, -1.63588, 0.173877, 2.01012, 8.31097, -0.670465, -1.70784, 1.12089, 2.30202, 1.12828, -0.519619, 0.72, 0.43, 0.0753905, 0.172911, 0.335958, -0.436692, 0.102506, -4.89954, -2.84983, 4.9093, 2.76793, 2.49068, 4.19383, -3.83338, -0.6607, -4.32304, -0.441567, -1.29124, 0.719491, -0.778428, 2.26672, 6.47033, 3.4963, -0.11388, 0.989985, 0.0134731, -1.77783, -0.556765, 0.21, 0.28, 0.94, 0.179606, 0.0460315, -0.423109, -0.948513, -3.01985, 1.5043, 6.45148, -2.27175, -6.04205, 3.46233, 4.95109, -1.75043, 0.891486, -1.82728, 2.01304, 0.098034, 5.65822, -2.67262, -1.84118, -5.30994, -2.08289, -3.07113, -2.94972, -1.97707, 0.417317, 0.00220195, 0.85, 0.999473, 0.611719, -0.922992, -2.51507, -0.831419, -1.36941, 2.02727, 1.37935, -3.05545, -5.18575, 0.653954, -1.51532, 0.522291, 1.64677, -0.849385, -0.196299, -1.53313, -3.88945, -10.7582, -13.3426, -5.64017, -6.6305, -6.24905, -2.9938, -2.53521, 0.166825, 0.289334, 0.87, 0.275504, 0.369174, 0.0108457, -4.45604, -4.01708, -2.33642, -2.89916, -0.907631, -3.23973, 3.19016, 1.78683, -6.02783, -1.33765, 1.17563, 0.0655855, 0.112142, -0.983374, -9.05295, -9.47676, -6.0434, -1.92112, -10.0202, -10.715, -6.92531, -3.07652, -0.00290515, 0.556747, 0.476903, 0.303042, 0.417838, 0.461213, -3.40089, -4.42481, -3.53409, -2.63084, -2.90726, -3.29779, 0.317244, -1.01134, 4.15264, 1.22146, -1.42465, -5.03606, -9.36776, -7.31789, -5.57469, -9.58777, -6.94006, -0.464914, -2.30252, -8.39042, -5.38875, 0.0721982, -0.584388, 0.0669214, 0.368951, 0.968544, 0.76888, 1.76094, -3.08942, -5.68405, 0.362597, 0.0975338, 4.27869, -0.290543, 1.7434, -1.32365, 1.88365, 2.0884, -1.13192, -7.78309, -1.71742, -1.62854, -2.76173, 3.97823, -3.79471, 3.24741, 1.74458, 0.0902324, 0.0294323, 0.068338, 0.123037, 0.128856, 0.776429, 0.53475, -0.202506, 0.858549, -2.43111, 1.43778, 2.04727, -0.3324, 2.06582, -5.0478, -5.71924, -2.92362, 0.79456, 0.795321, -2.5915, -1.43287, 2.939, -7.2269, 0.0596289, 2.57479, 0.329035, 1.15294, 0.00510162, 0.147371, -0.350247, -2.4792, -0.966577, -0.671329, 0.88, 0.748326, 0.105854, 1.30365, -0.93305, 3.32695, -0.776913, 1.57432, -1.44914, 2.96154, -3.42483, -0.634284, 2.45932, -2.75281, -1.22723, -8.00394, -3.63626, -0.896736, -2.58028, -2.73125, 2.1447, -2.24876, -3.13599, 3.78471, 5.66437, 2.31438, 0.394079, 0.81, 0.02, 0.824489, 0.269207, -0.0156664, -2.34469, 5.72954, -0.492767, -0.887346, -1.76988, 1.70067, -3.80227, -2.58516, -1.28325, -0.993961, 4.73201, -1.44836, -0.963622, -0.802231, 2.07233, -1.32693, -2.76271, 2.43513, 0.437864, 7.29763, 6.79975, 4.50967, 2.5433, 0.88, 0.72, 0.38, -0.516223, -0.1075, -2.75155, 2.7566, -0.513754, -2.60414, -1.33803, 2.41998, -0.816558, -6.37969, -5.99037, 2.81409, 1.91521, 5.33761, 7.44769, -4.20657, -4.9651, -3.47987, 0.147515, 3.45871, 1.10259, 2.09186, 5.32365, 3.44339, 1.51575, 0.5, 0.93, 0.49, 1.0374, 0.358833, -2.54516, -0.364944, 1.36069, -1.90812, 6.71314, 2.91877, 7.01349, 4.33078, 0.859139, -5.60984, -3.65635, 0.266419, 1.4558, -6.32879, 0.846042, -3.03654, 0.677457, -1.96635, 4.41099, 0.911613, -3.44332, -3.25221, 0.704344, 0.828782, 0.24, 0.825734, 0.996467, 0.413894, -3.42434, 3.36989, 2.75244, -2.25555, -5.68224, -3.73266, -1.17394, 6.07093, 2.91125, -6.13609, -2.51513, -0.817226, -1.02149, -3.17672, -1.02808, 0.739477, 2.92261, -0.128361, 0.378372, -1.32634, -1.74492, 0.169838, 0.863625, 0.489401, 0.17, 0.65, 0.552214, 0.15833, -2.14557, 4.75115, -1.11963, -2.40344, -1.06634, 2.47206, 5.018, 2.07772, 1.55133, -4.38266, -1.39395, -1.76088, -1.9301, 4.90296, -2.22107, 3.4958, 1.65202, 0.366184, 0.485846, 1.8986, 7.69149, 1.90224, 0.652183, 0.725759, 0.59, 0.494179, 1.15627, 1.16753, 0.198945, 2.18916, 1.80965, -0.986304, 1.39236, 3.52316, -0.368636, 10.2748, 1.24782, 3.52807, 0.283596, 2.02486, 5.67594, 3.29116, 1.51668, -0.299398, -3.80214, -0.829508, 2.08828, 3.50551, 6.90312, 1.67377, 0.434659, 1.03081, 0.77, 0.532267, 1.20374, 2.04613, 0.652193, -0.831396, -0.453337, 1.30427, 2.09388, 4.07121, 0.504876, 3.2618, 2.78168, 3.6776, 2.92231, 3.06407, 0.756063, 3.51967, 5.82909, 3.64213, 1.4672, 3.2584, 4.11278, 6.1591, 5.65664, 1.44652, 0.869934, 0.709764, 0.36, 0.65691, 0.80817, 1.46412, 0.821318, -0.664023, -3.58619, 3.17698, 7.56673, 2.866, 3.74327, 7.218, 3.54066, 7.97271, 1.81259, -0.889062, 3.80087, -1.08224, 0.11423, 4.12281, -0.10668, 1.21982, 0.611079, 1.6973, 0.387526, 0.5117, 0.665318, 0.79, 0.96, 0.82, 0.85088, 1.91882, 2.21001, 3.18017, 4.11765, 2.17555, 2.762, 1.78297, 3.85445, 6.21805, 4.84114, -1.9529, 7.9292, 10.4193, 4.25321, 0.10969, 0.566229, 2.87782, -0.405133, -2.09528, -2.60219, -2.80027, -1.56878, 0.591605, 0.342155, 0.4, 0.31, 0.86, 0.9023, 2.85715, 5.00389, 4.10347, -0.281817, 2.94301, 6.14539, 3.75111, -3.92299, 1.47678, 0.959648, 2.13106, 2.38062, 5.52807, 6.31014, 1.57591, 0.11994, 6.87723, 3.81387, 1.55087, 0.472694, -2.0582, -1.60836, -0.12636, 0.324702, 0.07, 0.46, 0.785391, 0.517683, 1.32394, 2.86922, 3.91076, 3.52633, 5.16719, 1.84477, -1.78523, -3.35094, -5.69266, -3.14381, -5.07931, -5.05572, -7.86252, -7.56641, -1.67821, -3.39289, 0.812041, 0.913485, -0.763136, -1.63931, -0.835244, 0.51265, -0.00870503, 0.350099, 0.01, 0.88, 0.91, 0.4, 0.466588, 0.946763, 2.11446, 3.80716, 0.78089, -0.630961, -2.50788, -4.34537, -4.66267, 1.14764, -1.29834, -3.20643, -2.56591, -4.26861, -1.3682, -7.32725, -0.382916, -2.26317, -2.80516, -1.1838, -1.0109, 0.258566, 0.180062, 0.03, 0.11, 0.6, 0.35, 0.9, 0.196219, 0.436005, 0.648691, 0.575059, 0.95483, 1.02948, -0.666257, -1.12842, -3.52688, -4.05124, -1.75309, -4.65312, -4.8229, -6.26072, -1.75685, -1.364, -0.324056, -0.773919, -1.21371, -0.142696, 0.613364, 0.526608, 0.23789, 0.15, 0.87, 0.9, 0.97, 0.69, 0.33, 0.520801, 0.436333, 0.618733, 1.3795, 2.03669, 2.14022, 1.097, -1.37408, 0.23713, 0.290371, -0.585529, -0.138658, -2.43221, 0.0636985, -0.504056, -1.22874, -0.131686, -0.292519, 0.750011, 0.559393, 0.0970511, 0.65, 0.37, 0.19, 0.18, 0.49, 0.12, 0.46, 0.18, 0.38, 0.888618, 0.850311, 0.56751, 1.04149, 0.82309, 0.291864, 0.863813, 0.720399, -0.0254916, 0.473145, 0.707639, 0.414993, 0.298796, -0.119408, 0.0490809, 0.555288, 0.88, 0.66, 0.96, 0.58, 0.86, 0.2, 185.579]
